1000 50
<pad> -0.158948 -0.182882 -0.078556 0.105099 -0.037809 -0.057205 0.073820 0.085900 -0.083294 0.120115 0.049870 0.024124 -0.049477 0.174213 0.108009 -0.055100 0.109384 -0.038501 0.375440 -0.238952 -0.049840 -0.257077 0.070426 -0.205537 -0.146615 -0.008213 -0.186113 0.110713 -0.156118 0.110492 0.055236 0.023658 -0.001581 0.040916 -0.115394 -0.000349 -0.136600 -0.105753 0.080925 0.120255 0.020026 0.116709 0.041471 0.441424 -0.068906 -0.150611 0.076822 0.079239 0.199455 0.206981
<start> -0.187643 -0.181148 -0.344216 0.030530 -0.110164 0.220379 0.073633 0.121614 0.090578 0.172646 0.107141 0.013831 -0.149944 0.110416 0.217535 -0.059140 0.221576 -0.050196 0.252570 0.022928 0.088625 0.068448 -0.071736 0.071178 -0.146702 -0.129791 -0.014259 -0.093647 -0.025948 0.283671 -0.031414 -0.046029 0.057554 0.146024 -0.025684 0.236195 0.067371 -0.044016 0.190645 -0.073062 -0.054963 0.100280 0.119376 0.054767 0.039041 -0.236095 0.044938 0.056261 0.299671 -0.113474
<end> -0.026162 0.283738 0.115210 0.054892 0.208503 -0.025399 -0.189345 -0.079489 0.047391 0.301447 0.131347 0.078539 -0.028965 0.118624 -0.115342 0.150610 -0.142696 -0.259340 -0.062622 0.033439 0.108051 -0.103245 0.155929 0.048435 0.063375 0.083084 0.040957 -0.259009 -0.084896 -0.035012 -0.056007 -0.043395 -0.002817 0.026475 -0.001208 -0.345046 0.177157 -0.168413 0.030104 -0.294630 0.037451 -0.044125 0.090512 0.199337 -0.004618 0.151774 -0.033888 -0.168787 0.204785 -0.010785
<unk> -0.082707 -0.009913 0.048563 -0.306941 -0.114312 -0.059033 -0.033120 -0.156608 -0.109874 -0.230215 0.085492 -0.125970 0.028870 0.146566 0.096721 -0.060417 -0.136668 -0.068560 0.137911 0.050050 -0.172167 0.016970 0.211287 -0.388771 -0.010592 0.042137 0.120958 -0.003591 -0.257942 0.148265 0.034523 -0.171085 0.058375 -0.143787 0.179647 0.122953 -0.133658 0.175366 -0.033439 0.330549 0.094939 0.138940 0.103449 0.005160 0.073972 0.208992 0.025478 0.070432 -0.018436 0.000419
the 0.013093 0.093273 -0.212041 -0.052974 -0.192240 -0.004198 -0.080266 -0.109598 -0.203006 -0.063858 -0.099201 0.149380 -0.048510 -0.075491 0.128944 0.392271 -0.116728 -0.118366 -0.119987 -0.130686 0.223261 -0.064671 -0.032193 -0.192373 -0.105077 -0.087069 -0.064471 -0.178383 -0.017544 0.009932 0.053670 0.116955 0.021647 -0.034780 0.279666 -0.145958 0.254947 0.097234 0.053786 0.047096 -0.250839 0.097545 -0.102146 0.003373 -0.084208 0.345176 0.020555 0.001232 -0.134449 0.028445
and -0.050155 0.053552 0.033177 0.128028 0.166942 0.132284 -0.176134 0.054511 -0.007825 -0.143762 -0.159817 -0.189187 -0.134365 -0.091372 0.036632 0.099514 -0.194651 0.012610 -0.207287 -0.040885 -0.040307 0.114506 -0.089584 -0.156948 0.130877 -0.200155 -0.111296 0.079311 0.189741 0.027639 0.265744 0.059403 -0.077893 0.058976 -0.184469 -0.086142 -0.114887 -0.259962 -0.168789 -0.254751 0.191591 -0.266202 0.051018 -0.038422 -0.035091 -0.230749 -0.056774 0.211779 0.099980 0.104199
of -0.044621 -0.108741 -0.159194 0.348110 0.048450 -0.025368 0.001374 -0.010708 0.252219 0.135037 0.081047 0.099383 -0.110418 -0.039028 -0.019989 -0.044261 -0.053323 0.105133 0.043778 -0.309611 0.001439 0.166668 -0.048778 0.240930 0.125566 -0.279635 0.007926 -0.043247 0.242239 0.123621 0.056042 -0.325613 0.106340 -0.079608 0.097703 -0.093680 -0.037157 -0.151978 0.150088 -0.188388 -0.022678 -0.114622 0.059843 0.143829 0.139670 0.007327 0.209288 0.125897 -0.000387 -0.057041
to -0.037383 0.051318 -0.073759 0.128568 0.206746 0.028633 0.019065 -0.082853 -0.070736 -0.028801 0.146090 -0.010681 -0.263679 0.159898 -0.013273 0.014283 -0.127785 0.371455 0.087549 0.218900 0.203430 -0.163890 -0.021021 -0.150234 0.149230 -0.324767 0.218226 0.066342 -0.065686 0.083467 0.142296 -0.042854 0.120971 0.089207 -0.016484 0.204953 -0.121245 -0.009782 -0.164805 -0.030375 -0.006553 0.035823 0.047887 0.025307 0.224101 0.064883 0.157956 0.284358 -0.002988 -0.117757
a 0.079970 0.112583 -0.221091 -0.069231 0.212289 0.093597 -0.072732 -0.037844 -0.136558 -0.081751 0.247704 -0.070962 0.068239 -0.033502 -0.251846 0.100147 -0.141573 0.149354 -0.260670 -0.172883 -0.033416 -0.044894 0.007756 -0.097371 0.149670 -0.040046 0.317854 0.065452 0.232296 0.080320 0.132329 -0.060291 0.152018 0.089468 0.068899 0.275904 0.087611 -0.106929 0.094960 0.065329 0.126980 -0.128016 -0.311384 -0.070233 0.028460 -0.101565 -0.068815 0.138027 0.078227 0.102036
in 0.055980 -0.054354 -0.215567 -0.120147 -0.042989 -0.003794 -0.144874 0.020855 0.082852 0.074156 0.162155 0.226671 0.126213 -0.113350 -0.155051 0.320227 -0.102616 -0.117674 -0.232607 0.078391 0.135967 0.176889 0.009705 -0.028381 -0.084117 0.132534 0.090147 -0.217739 0.090015 0.139797 -0.118720 0.055042 -0.202604 0.172906 0.127753 0.002445 -0.026596 0.004406 -0.074473 0.158770 0.089249 -0.219174 0.019816 0.014780 -0.290034 -0.295255 0.168877 -0.022238 0.161776 -0.047120
i 0.015651 -0.042362 0.058257 -0.038423 -0.053642 0.283405 -0.185144 -0.292998 0.083641 -0.170039 -0.102673 0.001590 -0.136085 -0.081683 -0.052841 -0.196380 -0.173681 -0.071289 -0.003587 0.210234 0.072370 -0.151444 -0.015864 -0.165803 -0.064267 0.137289 -0.160643 0.229906 0.390591 0.020074 -0.243106 0.297476 0.181960 -0.129801 -0.135589 0.090573 0.113530 -0.019318 0.074401 -0.004190 0.019782 0.024202 -0.082111 -0.146305 -0.075459 -0.013717 0.059139 -0.008769 0.072302 0.005021
he 0.119291 -0.014074 0.173803 0.174701 -0.061712 0.006383 -0.028918 0.078682 -0.066509 0.158781 -0.055145 0.120333 -0.153288 0.003018 0.010407 0.192580 -0.258214 0.086737 -0.280278 0.131076 0.135892 0.100940 0.146309 0.008047 0.181288 0.052340 0.001942 -0.026510 -0.053083 -0.200645 -0.072657 -0.148171 -0.101827 -0.099119 -0.152829 -0.363452 -0.043056 0.181100 -0.012552 0.150483 0.167480 -0.041389 -0.314605 0.099212 0.136930 -0.016546 -0.003855 0.086255 0.241944 0.150303
that -0.096072 0.144379 -0.115407 -0.029976 0.100406 -0.114254 -0.160971 0.120303 0.049232 0.157380 0.017493 0.015183 0.217528 0.213226 0.076588 0.285271 0.013084 0.295841 0.144468 -0.049324 0.051745 0.210234 0.092189 -0.114026 -0.282266 0.019209 0.194483 0.186272 0.164601 -0.078388 0.026595 0.135308 0.136806 0.196856 -0.020609 0.090314 -0.025416 -0.222962 0.078908 0.060745 0.184212 -0.121981 0.010033 0.023950 0.188535 -0.021468 0.086633 0.010374 -0.211570 0.186366
his -0.011865 0.018740 0.151215 0.092962 0.022853 0.397176 -0.001306 -0.070071 0.011495 -0.235373 0.100446 -0.083024 0.187467 -0.025991 0.168968 -0.047860 -0.121358 -0.151429 0.204051 0.123894 -0.040201 -0.029292 0.028515 0.122792 -0.045587 0.211303 -0.147679 -0.153034 0.243520 0.107389 0.082758 -0.030282 -0.188271 -0.097209 -0.125388 -0.089544 0.005213 -0.182593 0.289036 -0.046077 -0.149912 0.053525 0.132908 -0.013776 -0.116608 -0.121121 -0.290637 -0.014273 0.181773 -0.062973
was 0.061251 -0.266607 -0.073090 0.056047 0.080967 0.085270 0.151937 -0.062116 0.246526 -0.096736 -0.108847 -0.101171 -0.016357 0.157595 0.103207 -0.029344 -0.279899 -0.048417 -0.222769 0.013469 -0.030187 0.136928 0.012254 -0.181263 0.087985 0.031322 0.147448 -0.055145 -0.100176 0.124372 -0.126492 0.020498 -0.177852 0.074203 -0.229069 0.168211 0.111229 0.258147 0.083410 -0.386671 -0.151344 0.138871 0.086664 -0.159549 0.111691 0.153079 -0.099159 0.046743 0.079487 0.075526
it -0.004507 0.055078 0.032539 0.079190 -0.150024 -0.049961 0.340136 0.016137 0.093426 0.021242 0.066730 -0.055968 0.059313 -0.227685 -0.014553 -0.103026 -0.093765 -0.062082 -0.014971 -0.086578 0.108267 0.186910 0.298997 -0.094552 0.042584 -0.155056 -0.260441 0.133217 -0.156018 0.197903 -0.048607 0.124257 -0.203145 -0.097950 -0.016464 -0.085341 -0.066524 -0.143063 0.010205 0.254159 -0.287270 -0.039745 -0.123067 -0.052854 0.375270 0.061877 0.113064 -0.000520 -0.007678 0.007072
you 0.051405 -0.070994 0.019021 -0.164348 -0.080963 -0.084450 -0.141406 0.061148 -0.340790 0.007239 0.114001 0.059670 -0.105641 -0.220932 -0.029205 -0.026125 0.117642 0.135297 0.151950 0.007726 -0.104976 0.396948 0.081442 -0.025279 0.036718 -0.241364 -0.021021 0.124272 0.054520 0.081813 -0.173565 -0.029765 -0.081902 0.079673 0.127627 -0.014360 -0.193081 0.077168 0.022338 -0.132994 -0.182543 -0.056186 0.111772 0.205622 -0.245716 -0.086567 0.222979 0.089389 0.153523 -0.233398
with -0.078477 0.052337 0.100718 -0.351417 -0.162789 0.019985 0.200424 0.224263 -0.051523 -0.062532 -0.162237 0.093539 0.083558 0.125476 -0.108899 -0.117495 0.419464 -0.113377 0.204451 0.048378 0.036935 0.067365 -0.198897 -0.150677 -0.065365 0.145192 0.111530 0.054750 -0.112929 0.005227 0.135928 -0.036533 0.098854 0.013952 -0.034980 -0.068112 -0.010482 -0.041702 0.058171 0.211306 0.189018 -0.239073 -0.030450 0.053080 -0.266783 0.007424 -0.037404 0.071421 0.169813 0.080072
is 0.065079 0.231375 0.041506 0.349340 -0.005097 0.031454 0.011422 0.268733 0.237263 0.197810 -0.010468 -0.208203 0.075439 -0.078845 0.099886 0.088751 -0.092896 0.003669 -0.055634 0.122401 -0.113908 -0.367203 -0.083420 0.011180 0.062777 0.148713 0.060611 -0.241077 -0.079219 0.048776 0.134452 -0.037111 0.006993 0.092848 0.149929 -0.103828 0.102402 -0.039232 0.002231 -0.151578 -0.089059 0.190546 0.129310 0.212691 0.113730 0.231085 0.001933 0.039307 0.067204 0.152829
as -0.017397 0.136874 0.032533 -0.023184 -0.192201 0.082515 0.035309 -0.113488 -0.067847 -0.074280 -0.098825 -0.163566 0.095503 0.150107 0.010094 -0.143161 -0.198269 -0.143872 -0.265848 0.067744 -0.030585 -0.163077 0.147797 -0.040635 0.151584 0.167023 -0.092152 0.036730 -0.182212 -0.148028 0.202577 0.196060 -0.045624 0.055400 -0.040013 -0.072867 0.370886 -0.182228 -0.360934 -0.047084 -0.072354 0.144118 -0.033688 0.076853 -0.011632 -0.218543 -0.182248 0.091563 0.052388 0.019861
not 0.016813 0.230312 -0.180136 -0.108170 -0.273486 -0.090856 0.048438 -0.125252 -0.021659 0.071720 -0.016535 -0.130276 -0.083307 -0.221318 0.003046 0.079915 0.190039 -0.226564 0.280769 -0.241223 -0.067896 0.008806 -0.316594 -0.070327 -0.128039 -0.019065 0.134467 -0.208335 -0.074610 0.040501 -0.061756 -0.083113 0.055881 -0.104965 0.116054 -0.044053 0.232768 0.000880 -0.010027 0.224314 0.042474 -0.167142 0.130506 0.100686 -0.133807 0.070627 0.007086 -0.196289 -0.181710 0.014653
for 0.034121 -0.068889 -0.003784 0.079919 -0.042214 0.171237 -0.019761 -0.047505 0.230543 -0.280786 -0.190725 -0.091523 0.121722 0.234884 -0.061436 -0.041348 0.111316 -0.113195 0.240415 0.031472 0.008214 0.181321 -0.273681 0.062126 0.038516 -0.038348 0.004347 -0.172957 0.077445 -0.211207 -0.012550 -0.008906 0.122830 0.080986 -0.128162 -0.022636 0.175305 0.358532 0.115578 -0.251700 0.044616 0.066782 -0.063135 -0.093994 -0.233529 0.162131 0.033389 -0.131462 0.088515 -0.146272
had -0.024215 0.017147 -0.180371 -0.097416 -0.079909 0.035964 -0.182290 -0.008551 -0.146419 0.106168 -0.220791 0.127981 0.145770 0.185797 -0.147987 0.053841 0.017257 -0.136547 0.171663 0.015542 0.259700 0.092390 -0.064551 -0.070193 0.149383 -0.079098 0.147860 0.010758 0.044930 -0.158920 -0.222063 -0.006227 0.192900 -0.238463 0.221765 -0.108861 -0.015557 0.194499 0.073425 0.076982 0.032677 0.407884 0.161767 -0.016580 -0.125436 0.027602 0.107044 0.222500 -0.020156 0.023718
but 0.149687 0.053904 0.062855 0.011424 0.154490 0.266433 0.113163 0.030614 0.076736 0.004542 -0.026905 0.047134 0.041275 -0.034473 -0.107617 -0.049890 -0.128306 -0.248019 -0.151853 0.055465 -0.109923 -0.101424 0.110601 0.034135 -0.038283 -0.143683 -0.068450 0.100348 0.013565 0.163330 -0.068814 -0.420184 -0.140526 -0.108349 -0.215688 0.200068 0.023103 -0.044067 0.086785 -0.203858 -0.066190 -0.022894 0.303495 0.098798 -0.024110 -0.098429 0.195974 0.084967 -0.244058 -0.242913
at -0.163878 0.067479 -0.106032 0.255179 -0.186900 -0.106385 -0.160494 0.146257 0.050901 0.218245 0.182511 -0.064417 -0.049065 -0.106200 0.228857 -0.146511 -0.089519 0.285848 -0.083803 0.120292 -0.006202 -0.108174 -0.025143 0.103883 -0.012011 0.087122 0.047977 -0.328436 -0.136216 -0.170560 -0.146097 0.137622 -0.140159 0.045824 0.275650 0.176074 -0.207841 -0.054164 -0.021294 0.175301 0.096996 -0.088942 -0.011703 -0.056956 -0.012772 -0.139795 -0.141390 0.018379 0.025190 0.126469
be 0.172063 0.196396 0.084073 -0.142220 0.086845 -0.018324 -0.063889 0.061957 0.225116 0.073077 -0.079459 -0.044559 -0.082772 0.063069 0.060764 0.235200 -0.112477 -0.054935 -0.004640 0.068899 0.009168 0.088575 -0.273093 0.187652 0.116531 0.067275 -0.335878 -0.100812 -0.276891 -0.070338 -0.050808 0.231308 -0.384893 0.134612 -0.141787 0.140937 -0.017358 0.070012 -0.038131 -0.031656 -0.105847 0.069944 -0.042395 0.115269 -0.203635 0.131658 0.125591 -0.086720 0.003148 0.102251
on 0.158348 -0.149343 -0.237219 0.124819 -0.046761 -0.000997 -0.280974 -0.063377 -0.164689 0.031661 -0.065738 0.141654 0.113651 0.051351 0.062241 0.045736 -0.213707 -0.016544 -0.182409 0.014422 -0.038969 -0.148210 -0.071086 -0.151105 -0.015972 0.177368 0.156301 -0.297411 -0.064563 0.234942 0.000383 -0.032364 0.153182 -0.254945 -0.153336 -0.205312 -0.063111 0.078988 -0.044699 -0.138654 0.050749 -0.127292 -0.167341 0.278970 -0.084027 0.161670 0.127437 0.160883 -0.015032 0.007419
her 0.215983 -0.146256 0.053566 0.082158 0.120526 -0.198334 -0.013226 -0.003503 -0.168782 -0.183732 -0.144291 0.140580 -0.105670 -0.116341 0.194419 0.160084 0.041895 -0.249946 -0.095723 -0.069803 -0.202801 -0.160880 -0.044301 0.019838 0.027354 0.085670 -0.153975 -0.069272 -0.433696 0.069910 -0.009861 0.037497 0.262212 0.190298 0.144796 0.108009 -0.093290 0.036091 0.181877 0.006973 0.117473 0.150464 0.053181 -0.065308 -0.056026 -0.062178 0.144977 -0.082647 -0.134766 0.146102
my -0.134422 0.058494 0.071721 0.120446 0.162593 0.119399 0.221152 -0.068266 0.169633 -0.022911 -0.142135 -0.348805 -0.115328 0.074980 0.272067 -0.019636 0.180477 -0.035553 -0.217605 -0.082170 -0.087229 -0.014150 -0.019608 -0.135056 -0.117603 0.170919 -0.149369 -0.020299 0.062744 -0.030977 0.110490 -0.006864 -0.114988 0.250544 -0.205963 -0.190137 0.130309 0.164417 0.175848 -0.005093 -0.016652 -0.106868 0.078786 0.033208 0.082318 0.271642 -0.135476 -0.166555 0.003569 0.165798
him 0.053900 0.088620 -0.314805 0.104353 -0.066086 -0.209428 -0.162819 0.133843 -0.114528 0.170092 -0.006992 -0.163226 -0.064942 0.113477 -0.117737 -0.270639 0.028484 -0.024416 -0.030876 0.243953 -0.014229 -0.036540 0.017537 -0.225143 -0.085442 -0.199697 0.004748 0.044926 0.108998 -0.117547 -0.112314 0.171593 0.048438 -0.040593 -0.024161 0.143521 0.075779 0.015588 -0.085177 0.103649 0.021992 -0.245585 0.044880 0.185486 -0.059482 -0.078082 -0.193155 -0.158138 -0.037181 -0.403190
have 0.176132 0.137089 0.223572 -0.011407 0.099965 0.058032 -0.209178 -0.059290 0.117142 0.055712 0.001350 -0.102499 0.078407 -0.235299 0.009296 -0.324280 0.049606 -0.114109 0.128887 0.375946 -0.069239 -0.087256 -0.224952 -0.133603 0.183680 -0.016838 0.067985 -0.051929 -0.144955 -0.098411 0.112398 -0.135618 0.069360 0.112367 -0.126655 -0.141935 0.082198 0.125929 0.002728 0.141462 -0.194796 -0.211887 0.093385 0.143381 -0.087702 0.016204 -0.187187 -0.186134 -0.018906 0.040251
by 0.072372 0.274699 0.019454 0.016612 0.135332 0.056303 -0.050747 0.197693 0.083608 -0.144315 0.003535 0.178050 -0.155889 0.210622 0.201059 -0.009496 0.005117 0.042929 -0.138956 0.181753 -0.018110 0.066227 0.037634 -0.055493 0.068842 0.069343 -0.075088 0.172685 -0.094228 0.120456 -0.088017 0.110703 0.105670 -0.002417 0.061853 0.147194 -0.309253 -0.033568 -0.026745 -0.186686 0.196970 0.101174 0.117730 -0.362021 -0.035811 0.354786 0.010652 0.075935 -0.187492 0.061980
this -0.119664 -0.178166 -0.155623 0.229007 -0.053607 -0.062897 -0.131929 0.080060 -0.065446 0.136460 -0.047222 0.035706 0.318031 0.053210 0.187113 0.010715 0.258556 -0.152901 0.227094 -0.067806 -0.044153 -0.277239 0.079003 -0.127460 -0.152756 0.077330 0.005164 0.105921 -0.029505 -0.161761 -0.038843 -0.139446 -0.027868 0.117910 0.215882 -0.105681 0.160570 -0.054974 -0.007019 -0.020645 0.040190 -0.168102 -0.134302 -0.161518 0.129020 0.006405 -0.300239 -0.183600 -0.014483 -0.167895
which 0.240596 0.163994 0.000489 0.119420 0.193746 0.111729 -0.164181 -0.148871 0.171714 -0.243990 -0.110627 0.016776 0.064653 0.052209 -0.078275 0.010447 -0.158919 -0.095458 0.005644 -0.165530 -0.018252 -0.146397 0.071175 0.021405 0.095640 -0.064927 0.182644 -0.002237 -0.107230 -0.089549 0.302748 0.054385 0.187890 0.107531 -0.103310 0.033474 0.114995 0.060153 0.270705 -0.139003 0.132080 -0.017647 -0.090593 -0.281259 0.282800 -0.159468 -0.183486 0.084949 0.130474 -0.021932
me -0.417663 -0.003781 -0.100919 0.005123 -0.059871 -0.263591 0.091696 -0.005845 -0.190620 0.061336 -0.126853 -0.191180 0.198445 -0.040351 0.026503 0.210949 -0.221279 0.153115 0.054191 0.207518 -0.104732 0.091001 0.011077 0.073476 -0.109510 -0.145396 -0.051197 -0.151387 -0.008489 0.104053 -0.241793 0.094946 0.048360 0.214050 -0.005917 0.046837 -0.186934 -0.089333 -0.202083 -0.238474 -0.147296 -0.012154 -0.012230 0.202000 0.015807 -0.051520 0.004553 -0.045948 -0.012796 -0.125025
all 0.063147 -0.171065 -0.107299 -0.123905 -0.190953 -0.220045 -0.030924 0.195005 0.053896 -0.105810 -0.146153 0.166143 -0.243685 0.096627 -0.106026 -0.158809 -0.064047 0.237251 -0.044806 -0.154296 -0.023352 0.102879 0.111697 0.086866 0.307763 -0.048046 -0.105894 -0.221211 0.030650 -0.101743 0.166398 -0.074678 -0.100529 -0.001189 0.033394 0.242366 0.125542 -0.152451 -0.019340 -0.003491 0.032268 0.143646 -0.241945 -0.136938 -0.223959 -0.128566 0.011055 -0.116506 0.109789 -0.167119
said -0.065541 0.097610 -0.265476 -0.155653 0.026159 0.205499 0.051430 0.045115 -0.208041 -0.137924 0.096927 -0.013470 -0.107052 0.187625 0.148702 0.398761 0.258119 0.253707 -0.181129 -0.014492 -0.179142 -0.021664 -0.062680 -0.198487 -0.135527 0.082759 0.030821 -0.040875 -0.155046 0.021956 0.143790 0.010027 -0.088428 0.160465 0.042296 0.006352 -0.013008 -0.127274 -0.058479 -0.195178 -0.063726 -0.169731 -0.051033 -0.042429 0.087982 0.228929 -0.167731 -0.082340 -0.023026 -0.070577
she -0.119931 0.278221 0.036408 -0.140216 0.103606 -0.306039 0.201043 0.331760 -0.081627 -0.132108 -0.122644 0.011077 -0.182791 -0.149701 0.118501 0.028335 0.101335 0.315507 0.145207 -0.196903 -0.110537 0.094795 0.067382 -0.170621 -0.014893 0.033847 -0.091711 -0.065579 0.058035 0.248927 0.066955 -0.044501 0.167332 0.033434 0.151832 -0.022280 0.108749 0.027716 -0.035996 -0.088526 -0.067135 0.040760 0.259456 -0.070702 0.171225 0.016255 -0.144331 0.060733 0.004106 -0.069970
from 0.130363 -0.236137 -0.144024 0.008859 -0.209128 -0.142908 0.080075 0.116221 0.130571 0.117167 -0.002278 0.046033 0.044185 -0.053692 0.261081 0.031524 0.108796 -0.058582 0.153278 0.068369 -0.048818 -0.026067 0.030651 -0.138653 0.031382 0.088443 0.012943 -0.152137 0.173574 -0.087147 0.050712 0.202506 0.162536 0.180038 -0.091790 0.137673 0.338574 -0.005796 0.146124 -0.111464 0.305298 -0.254168 -0.050935 -0.084100 0.013734 -0.335849 0.005645 0.021111 -0.123951 0.064154
or -0.015562 0.036318 0.034889 0.081388 -0.167025 -0.180048 0.015420 -0.217637 -0.026408 -0.057642 0.008018 0.129198 -0.120762 0.014306 -0.002982 -0.182915 0.304040 -0.188578 0.149201 -0.183906 -0.047607 -0.198689 -0.178632 -0.011825 -0.246218 -0.224829 0.027884 -0.086251 -0.081045 -0.049993 -0.046516 0.098928 -0.125846 -0.106209 0.101867 0.119193 -0.184372 0.025782 -0.274428 0.237015 -0.101765 -0.098341 0.102298 -0.007400 0.081565 -0.025015 -0.127058 -0.165603 -0.065564 0.334351
they -0.117500 0.274906 0.142894 0.047280 -0.085140 -0.039570 -0.041673 0.098382 0.086868 -0.096346 -0.053068 -0.036941 0.123899 0.323399 0.067184 -0.032010 -0.231259 0.188749 0.010806 -0.094460 -0.106332 0.109519 -0.356239 0.165497 -0.138728 0.008408 0.023653 -0.043414 0.072612 0.017693 0.026559 0.043851 0.286988 0.038150 -0.081491 -0.023043 0.072871 -0.168594 0.173204 -0.143683 -0.145951 0.069422 0.030451 -0.059792 -0.313122 -0.026784 0.174231 -0.159676 -0.047337 -0.229533
so 0.281553 -0.125741 -0.043214 0.278145 -0.065354 0.049761 -0.034165 0.349975 -0.037713 0.057134 0.147752 0.213709 0.032260 0.036556 0.021355 -0.029627 0.129834 0.121843 -0.231041 -0.125605 0.009804 -0.051576 -0.012979 0.178490 -0.108974 0.034301 -0.103065 0.002739 0.148228 0.045890 0.043911 -0.071238 -0.089771 -0.193143 -0.059234 0.029443 -0.030854 0.193089 -0.231275 0.025295 -0.144575 0.089768 -0.111606 -0.041588 0.250292 0.402397 -0.005824 0.005737 0.126488 -0.054777
are -0.059401 0.158162 0.058949 -0.049434 -0.105965 0.079967 -0.128951 -0.105499 0.078098 -0.261926 0.048268 -0.072696 0.049879 0.036188 -0.067408 -0.300407 -0.110337 -0.176179 0.044742 0.101189 0.125860 0.298901 -0.052246 -0.024634 -0.198112 -0.043699 0.057131 -0.086815 -0.042953 -0.169860 0.232128 -0.065792 -0.067247 -0.104725 0.247453 0.065452 -0.026621 -0.195025 0.212966 -0.154794 -0.054697 0.054906 -0.155282 -0.010888 0.122406 0.159117 0.184948 0.361116 -0.100835 0.005128
one 0.028150 -0.138732 -0.183546 -0.256203 -0.039376 0.028229 -0.007144 -0.137057 0.149354 -0.038523 0.002786 -0.162434 -0.077313 -0.169699 -0.061082 -0.027746 0.106623 0.071723 -0.051533 -0.124402 -0.177275 0.094897 0.045737 0.300035 0.375213 -0.178077 0.002429 -0.035431 0.149948 -0.075423 0.072606 -0.077790 0.016597 -0.005191 -0.028280 -0.165349 -0.200641 -0.160281 -0.331412 0.149873 0.004604 -0.110016 0.091928 0.127979 0.047784 0.028862 0.291903 0.020334 0.051468 -0.185803
were -0.089635 -0.048131 -0.066898 -0.177637 0.089417 -0.072279 -0.150362 -0.039973 -0.249695 -0.129334 -0.192106 0.027937 -0.114291 -0.147350 -0.000727 -0.111468 -0.159284 0.137804 0.298354 -0.046706 0.106745 -0.099234 0.170008 -0.050847 0.053751 -0.049271 0.032555 0.118971 -0.080491 0.109495 0.119455 0.201598 -0.216308 -0.188664 -0.128015 -0.053813 -0.077229 0.093429 0.128489 0.086992 -0.392855 -0.045620 -0.020439 0.043201 -0.017914 0.005927 0.289573 -0.217328 0.183979 -0.074879
what -0.046750 -0.025192 0.126720 -0.112213 -0.084452 0.131497 -0.065523 -0.134894 0.097319 0.101975 0.000874 -0.031529 0.101935 0.007820 0.184425 0.083880 -0.005754 -0.083558 0.398799 -0.017696 -0.027574 -0.106266 0.002082 -0.040956 -0.035835 0.333096 0.019994 0.221827 -0.260851 -0.083125 0.093925 0.120691 -0.117241 0.121687 0.248673 -0.065843 -0.123008 0.077970 0.115095 0.264574 -0.061682 -0.240256 0.019150 -0.061014 -0.054239 -0.010538 -0.246082 -0.150772 0.104096 0.216733
when -0.217182 -0.026854 -0.175194 0.075766 0.025748 0.040794 -0.079761 0.145474 -0.212242 0.150852 0.127443 0.045317 -0.109486 0.094400 0.259618 -0.342209 0.066639 0.076911 0.028381 0.002450 0.151036 -0.170817 -0.041492 -0.222713 -0.104230 0.087867 -0.198791 -0.085816 0.014354 -0.116242 0.077785 -0.124967 -0.159778 -0.214277 0.157595 -0.004817 0.057338 0.114343 -0.011014 -0.098188 -0.024165 0.023809 0.204958 -0.318896 -0.031935 -0.100195 -0.089056 0.297422 0.048165 0.043751
no 0.279887 -0.094915 0.168719 0.099678 -0.030840 0.031348 0.052665 0.173764 -0.025561 -0.080965 -0.063705 -0.224370 0.060051 -0.051966 -0.172011 0.043134 -0.325839 -0.057081 -0.100285 0.139965 0.018251 0.077822 -0.045385 0.169820 -0.061497 -0.030984 -0.108186 0.044987 0.037011 0.161513 0.190152 0.103484 0.019249 -0.199100 0.130807 -0.012709 0.261582 0.113970 -0.200220 0.026670 0.066574 -0.135937 0.129536 0.036244 -0.040116 0.289628 -0.149383 -0.030590 0.368974 -0.073769
if -0.156536 0.161792 -0.046815 0.188378 -0.110142 -0.141967 0.095599 -0.030239 -0.156996 -0.144113 0.160348 0.025158 0.091269 -0.120625 -0.116256 -0.102775 -0.010830 -0.188835 0.140908 -0.020545 0.126484 0.213603 -0.046766 0.174001 0.001493 0.072034 0.069126 0.158973 -0.273213 0.009583 -0.063212 0.337758 -0.170837 0.002969 0.123106 -0.087248 -0.093419 -0.262233 0.084280 -0.124526 0.039706 -0.023375 -0.063600 0.269742 -0.097288 -0.057537 -0.313468 0.047021 0.086362 0.143682
there -0.354576 -0.129900 0.230203 0.116462 0.045401 0.046686 -0.020402 -0.052794 0.043071 -0.059345 -0.000320 -0.241871 0.152995 -0.211138 0.149647 -0.151038 0.031328 -0.156384 -0.050825 -0.153262 0.147558 0.035261 -0.099342 -0.264495 0.069720 0.074579 0.092007 0.138601 0.049791 0.039463 -0.108283 -0.133060 -0.110755 0.108959 0.322978 -0.035719 -0.066881 -0.035234 -0.032893 0.038208 0.134392 -0.085503 -0.071585 -0.031538 0.076865 -0.224944 -0.223978 -0.308778 -0.090615 -0.026469
who 0.045635 0.057996 -0.265347 0.070948 -0.034489 0.252865 -0.154117 0.017522 0.219832 -0.219311 -0.040975 -0.129132 -0.171476 -0.149161 -0.054288 0.158109 -0.140625 0.032247 -0.148233 0.140765 0.022406 -0.130119 0.312125 -0.039165 -0.129999 -0.088810 -0.161033 -0.048075 -0.175419 0.008150 0.081231 -0.115013 0.089005 0.145414 0.055017 -0.119269 -0.197155 0.097600 0.214153 -0.140851 0.184285 0.137728 0.063511 -0.138184 -0.157205 -0.175060 -0.084801 0.065060 0.068335 0.211975
we 0.133746 -0.184221 -0.126011 0.192187 -0.298681 -0.129779 -0.271541 -0.220984 -0.308512 -0.087911 0.002777 0.014977 -0.013404 -0.176956 -0.080650 -0.216264 0.066947 -0.115914 -0.072663 -0.072091 -0.130587 -0.104843 -0.028893 0.078915 0.029984 -0.196406 0.077325 -0.110939 -0.061624 -0.232158 -0.154532 0.128259 0.023138 0.154906 -0.060192 0.002517 0.142470 -0.127052 -0.135158 -0.120895 -0.004576 0.169458 0.044999 -0.059478 0.005483 -0.106845 -0.016961 -0.291878 -0.174876 0.015865
will 0.074277 -0.162233 -0.158869 0.234846 -0.262645 0.207984 -0.040998 -0.005271 0.088202 -0.173826 0.127795 -0.031727 0.063208 -0.011841 0.232910 0.123396 0.229703 -0.087383 -0.030203 0.093826 0.156332 -0.042788 -0.260676 0.086857 -0.026294 -0.281977 -0.068067 0.000577 -0.309456 -0.041426 -0.043151 -0.041938 0.049557 0.038316 -0.182193 0.045945 -0.180527 -0.039431 0.008381 0.210570 -0.025856 0.127561 0.093713 0.034242 0.072424 0.051960 0.321245 0.000917 -0.042327 0.171498
an 0.057333 -0.020945 0.203088 -0.294725 -0.053220 -0.369896 -0.243699 0.075493 -0.117007 -0.057600 -0.192277 0.169310 0.036427 0.147267 0.017221 -0.020406 -0.207819 -0.137716 -0.085129 -0.070844 -0.003205 -0.295843 -0.002870 -0.015202 0.077580 0.028995 -0.250175 -0.140492 -0.064861 -0.067653 -0.099110 -0.048779 0.032963 0.045182 -0.017018 -0.094886 -0.018473 -0.010069 0.092526 -0.016393 -0.014132 0.205172 -0.015486 0.047388 -0.010776 -0.197762 -0.231850 -0.294366 -0.037611 0.192753
then -0.019159 0.189231 -0.040512 -0.081631 -0.147384 -0.078464 0.150287 -0.074586 -0.007854 0.069328 -0.074749 0.107356 0.052568 0.163080 0.082137 -0.264562 -0.199422 -0.330360 -0.016793 -0.115611 0.105707 0.143209 0.045637 -0.130956 -0.017843 0.334351 0.096506 -0.119632 -0.043096 -0.045630 0.028506 -0.054346 -0.158690 0.023332 0.113925 0.189444 0.032071 0.023988 -0.030339 0.072407 -0.270014 0.064772 -0.165035 -0.278135 0.121073 0.347108 -0.066884 -0.103790 -0.003622 0.006505
their 0.083065 -0.261611 0.009639 0.092811 -0.162976 0.156604 0.024370 -0.168522 -0.043743 -0.053466 0.043016 0.232122 0.007766 -0.290687 -0.268895 -0.145185 0.098883 -0.040702 -0.064278 0.113848 -0.014538 -0.132337 -0.236980 0.014841 -0.056135 0.060643 -0.045118 0.066973 0.182986 0.246471 0.146817 -0.017010 -0.027987 0.158989 0.259208 0.269995 -0.155649 0.106635 0.143364 0.158839 0.120099 -0.012506 0.069376 -0.048040 0.090686 0.017340 -0.086737 -0.124838 0.130020 -0.217976
would -0.220669 -0.066466 0.100751 -0.176901 0.111447 -0.023120 0.000278 -0.108287 0.152494 -0.137118 -0.206752 -0.138897 -0.055939 -0.084125 0.062693 -0.223742 -0.352098 0.171671 0.043866 -0.250815 0.049884 0.063735 -0.152012 -0.232617 0.003529 -0.042777 -0.133879 -0.016093 -0.009503 0.147543 0.083738 0.183032 -0.064171 -0.184274 -0.166756 -0.000217 0.156168 0.068144 0.116997 0.074391 0.149790 0.025775 -0.155132 -0.281936 0.129606 -0.169105 -0.009600 -0.072777 0.149807 -0.118127
them 0.011654 0.089364 -0.122683 0.204830 -0.056459 0.176800 0.018977 0.124018 0.024374 -0.229166 0.017998 -0.209844 -0.185923 0.029422 0.028427 0.169527 -0.314658 0.243079 -0.313692 -0.231882 0.113218 0.067190 -0.066358 0.057784 0.089356 -0.038174 0.080318 -0.192058 -0.146265 -0.212664 -0.114326 0.187952 0.023641 0.023299 0.094213 0.118894 -0.086003 -0.210026 0.069079 0.019122 0.095305 0.057130 0.102010 -0.131879 -0.074136 0.055330 -0.080680 0.174261 0.150312 0.173682
been -0.215138 -0.143401 -0.058705 0.082024 -0.172476 0.104085 -0.145089 -0.032470 -0.048049 -0.189400 0.053663 0.001045 -0.149938 0.352284 0.071693 0.220349 0.212333 -0.197639 0.056350 -0.012034 -0.272018 0.132200 -0.162013 0.107245 -0.021656 -0.158474 0.038131 -0.175435 0.081456 0.042656 -0.242243 -0.054159 -0.057268 -0.052070 -0.002326 0.168275 0.409412 -0.046786 -0.037913 -0.035396 -0.064274 0.071263 0.005588 0.105158 -0.115865 0.018867 0.003539 -0.072504 0.096657 0.136918
do -0.221673 -0.293563 0.009539 0.082363 0.078841 0.128562 -0.106713 0.164287 0.097957 -0.015035 0.190219 -0.345335 -0.108267 0.061539 0.005178 0.061292 -0.146494 0.009143 0.298445 -0.056961 0.003750 -0.115961 -0.097281 -0.320156 -0.166164 0.054950 0.011026 -0.024784 0.088523 0.179829 0.062167 -0.147293 -0.066749 0.181703 0.002457 -0.103848 -0.182358 0.120152 -0.026323 -0.137931 -0.081612 -0.080964 0.188898 0.004807 0.135282 0.141444 -0.012289 -0.056296 -0.145740 -0.219693
your 0.122625 0.054422 -0.079112 -0.103357 0.015495 -0.293330 0.281986 -0.085816 -0.039770 -0.064546 0.039437 -0.083091 0.145362 0.183550 0.092123 -0.092914 0.303011 0.033244 -0.027758 0.092060 0.002259 0.196794 0.054595 -0.123618 -0.085509 -0.015219 0.019373 -0.126717 -0.076577 -0.181355 -0.118930 -0.317693 0.019724 -0.277111 0.078117 -0.110489 0.043724 -0.136470 -0.139765 -0.032637 0.320630 -0.161383 -0.095763 0.083295 -0.147742 0.098279 0.009125 0.224024 0.046634 0.055661
now -0.075519 -0.193321 0.055498 0.036382 0.022424 -0.057374 0.076247 -0.021927 0.001103 -0.255576 -0.372190 -0.022363 0.138891 0.261367 -0.070121 0.091008 0.021088 0.142255 -0.028401 0.099053 0.302055 -0.132903 -0.055621 0.063254 -0.053093 -0.089940 0.127904 -0.046170 -0.112415 0.164393 -0.012267 0.133631 -0.193839 0.075889 0.009432 0.070490 -0.155125 0.203712 -0.103513 0.157593 0.016792 0.264526 0.025392 -0.021224 0.041559 -0.389582 -0.144771 0.036142 -0.066983 -0.042187
out 0.016745 0.122716 0.192514 -0.219031 0.052313 0.010891 0.100043 -0.036160 -0.406566 -0.101749 -0.128094 0.208379 -0.030578 -0.163726 0.005490 -0.020700 -0.132719 0.122030 0.221625 -0.055343 -0.161881 0.036373 0.005758 0.145231 0.198699 -0.133900 -0.084443 0.222274 -0.241799 0.158419 0.280977 0.220363 -0.075454 0.108187 -0.112291 -0.123234 -0.007982 0.062894 0.056890 -0.099385 -0.001735 -0.087357 -0.088939 -0.008299 -0.171416 0.179687 0.038803 0.072149 -0.089564 0.095251
more -0.176704 0.019699 0.094102 -0.124705 0.124990 -0.001915 -0.290052 0.049733 -0.217578 0.204844 0.159322 -0.160462 -0.215357 0.074987 0.189914 0.024603 -0.106258 -0.204713 0.042948 -0.261405 0.089226 0.223428 0.182074 -0.014403 -0.183325 0.017394 -0.160788 0.101972 0.209905 -0.069661 -0.154471 -0.145065 -0.160247 0.004358 -0.101357 -0.093097 0.040900 -0.235912 -0.044809 -0.014134 -0.049587 0.107157 0.093607 0.187868 0.031377 -0.022191 -0.043828 0.214333 -0.147337 0.025798
up -0.196489 0.039147 0.101357 -0.196316 0.076743 0.166266 0.031300 -0.099003 0.037804 -0.102656 0.001404 -0.040803 -0.170672 0.167753 -0.293172 -0.256186 0.013715 0.272491 0.041318 0.076502 -0.018290 0.229294 0.027153 0.124594 -0.091874 0.073614 0.172617 0.013853 -0.070398 0.037935 -0.218244 0.047455 0.027553 -0.164753 -0.089274 0.062985 -0.302173 -0.137959 0.130422 0.189212 0.018686 0.198656 0.108753 0.194708 -0.056738 -0.043678 0.046432 0.033024 0.211985 -0.216769
man 0.093244 0.134271 0.100306 -0.043678 0.181244 0.076365 -0.060783 0.387763 0.209818 0.277855 -0.077318 -0.110128 -0.026817 0.121256 0.018149 -0.075254 0.166182 0.061841 -0.008005 -0.117586 0.202336 -0.144144 0.108479 -0.099309 0.240010 0.162979 0.013017 -0.123344 0.146939 -0.038378 -0.034934 0.011678 -0.004280 0.008087 0.101101 0.113602 -0.172123 -0.129805 -0.292705 0.091998 0.218785 -0.123470 0.125784 -0.052562 0.046233 -0.012832 -0.134874 0.225366 0.002845 -0.195452
into 0.001654 0.003805 -0.023724 0.101032 -0.245799 0.172702 0.000787 0.224058 -0.072580 -0.191028 -0.167433 0.157700 0.289673 -0.117882 0.041436 -0.026232 -0.074353 0.020330 0.040522 0.020003 0.089899 -0.096050 0.107873 -0.115533 0.125446 0.140220 -0.076220 0.220226 0.016317 0.173000 -0.003446 0.167082 0.221398 0.277031 -0.132849 0.128275 -0.092123 0.245020 -0.177723 -0.144289 0.000142 0.190568 -0.061326 0.055535 0.026063 -0.111941 0.013875 0.229099 -0.146101 -0.211181
some -0.032310 0.049360 -0.238353 -0.069061 -0.081858 -0.064134 -0.087096 -0.010497 -0.079835 -0.070391 0.076836 0.158889 0.053607 0.206470 0.081314 0.018952 0.276098 0.178046 -0.060094 -0.187416 0.249872 0.257885 -0.101448 0.009088 0.133029 -0.078002 -0.029500 0.036343 -0.011615 0.062558 0.123702 -0.170289 -0.205569 -0.049208 -0.044112 -0.102111 -0.132623 0.270570 0.188178 0.179290 -0.166175 0.298210 -0.043142 -0.043779 -0.017473 0.017047 -0.297561 -0.125166 0.049042 0.134745
could -0.091113 -0.176055 0.299824 0.033833 0.052115 0.116853 -0.017125 -0.057378 0.023532 -0.012656 0.348676 -0.328330 0.128271 -0.107110 0.149614 -0.062294 0.052504 0.248029 -0.149481 0.155433 -0.242785 0.172933 0.188268 -0.016988 -0.220248 -0.023472 0.072643 -0.080530 -0.140596 -0.018632 -0.158783 -0.091615 0.045148 0.111455 0.037125 0.148684 0.149730 -0.192303 0.065240 -0.127690 -0.003872 -0.126073 -0.056425 -0.177727 -0.031675 -0.068672 0.008198 0.002859 -0.070625 -0.190031
has 0.222876 -0.131338 0.090805 -0.019281 -0.055255 0.176938 -0.103011 0.048131 -0.050432 -0.011726 -0.077708 0.057408 -0.015538 0.179919 0.020837 0.114520 -0.402393 0.172427 0.028199 -0.296736 -0.032429 0.004150 0.045263 -0.067471 0.362695 -0.055399 -0.113503 -0.030274 -0.147720 -0.198943 0.012106 -0.062315 0.107195 -0.064905 -0.342226 -0.062528 0.092000 0.058660 0.226566 -0.184891 -0.046184 -0.020262 0.092119 0.087328 -0.084189 0.200289 -0.040385 -0.083863 -0.079442 0.043464
only -0.054713 0.039434 0.075077 -0.031182 0.049308 -0.150274 0.003904 0.100476 -0.050690 0.309047 -0.032050 0.004755 -0.241872 -0.102591 0.270143 0.037457 0.140911 0.068006 -0.019030 -0.260478 -0.117745 0.091291 -0.027213 0.251584 0.049840 -0.098685 0.042261 -0.109879 0.369628 0.129942 -0.131880 -0.076743 0.049243 0.336082 0.004443 -0.246955 -0.043983 -0.055261 -0.019562 0.140278 -0.243129 0.123554 -0.018117 0.008621 0.071386 0.031784 -0.046516 -0.091748 -0.155819 -0.109950
any 0.156644 0.027700 0.080452 0.056734 -0.019248 0.063740 0.085201 0.105747 0.066769 -0.023210 -0.198232 -0.049558 -0.243109 -0.196780 -0.175578 -0.061820 0.087017 -0.086735 -0.053033 -0.027719 0.052241 0.037043 0.077867 -0.125649 0.167934 0.049730 0.259948 -0.372890 0.122747 0.097927 0.207948 -0.384886 0.103504 -0.037294 -0.116202 -0.169041 0.009215 0.072153 -0.155440 -0.066875 -0.229173 -0.055088 0.080815 -0.121669 -0.098083 -0.041778 0.233322 0.146629 0.090633 0.066568
very 0.005579 0.114225 -0.147904 -0.091520 0.005944 0.064675 0.064135 -0.055504 0.248754 0.260381 -0.117530 0.155931 -0.068742 0.002879 -0.064451 -0.048223 0.160958 0.194989 -0.175374 -0.359382 0.175141 0.016243 -0.211887 -0.012303 0.130575 -0.194332 -0.046730 -0.044327 0.086566 0.091893 0.021223 -0.198963 0.150743 -0.243805 -0.155835 0.179088 0.125572 0.046556 0.267112 -0.003634 -0.002858 -0.025096 -0.086732 0.150932 0.058840 0.030422 -0.003011 -0.031319 0.225859 0.190290
like 0.061647 0.314706 0.251317 -0.185582 0.191431 -0.168484 0.119628 0.014665 -0.006702 0.151337 -0.085529 0.126637 0.063659 -0.163094 0.010948 0.123875 -0.034892 0.056271 0.084902 0.004348 -0.110525 0.177087 0.170198 0.095128 0.039470 0.053655 -0.260221 -0.125397 -0.129452 -0.061141 0.230460 0.000095 -0.068527 0.119449 0.030924 -0.040649 -0.049916 0.179997 0.106580 0.104119 -0.030676 -0.021085 -0.298596 -0.228159 0.263784 -0.114938 0.160457 -0.025021 -0.121140 -0.166704
did 0.039123 0.373091 0.089459 0.036624 -0.075573 0.035522 0.082272 0.066305 0.081453 0.232120 0.015441 0.085069 -0.185044 -0.080243 -0.205450 0.064538 -0.011691 0.109553 0.164865 0.049354 -0.002253 0.054745 0.069937 -0.039167 0.149826 0.194998 0.121180 -0.242627 -0.063604 -0.005073 -0.100700 -0.002611 0.085050 -0.215492 -0.346484 -0.126293 0.028002 0.018494 -0.208282 -0.111509 -0.123484 0.075196 -0.169902 -0.121788 0.088058 -0.087334 0.136257 0.172010 -0.111224 0.300333
time 0.100273 -0.104197 0.124398 0.124491 -0.034437 -0.048279 0.046267 0.101618 0.071670 0.085388 0.106611 0.128662 -0.048060 -0.053261 -0.149707 -0.360927 0.231012 -0.229882 -0.072259 -0.124429 0.000000 -0.159179 0.159667 -0.075877 0.134339 -0.031281 0.098642 0.130908 0.087863 0.130160 -0.099337 0.041819 -0.213386 0.022411 -0.052011 0.144211 -0.049577 -0.022462 0.194657 0.019406 -0.002956 -0.211653 -0.313873 0.036175 -0.370796 0.081973 0.137111 0.019412 0.012911 -0.222099
its -0.105354 0.144865 -0.120952 -0.061153 -0.051623 -0.063903 -0.055336 0.127916 0.030215 0.032559 -0.119391 -0.218893 0.188788 0.046775 -0.193126 0.016113 0.125360 0.280609 -0.235954 -0.008029 0.059128 0.217631 0.196352 -0.247342 0.080324 -0.106543 0.081444 -0.299754 -0.083105 -0.294864 -0.065460 0.108000 -0.154840 -0.128094 -0.004828 0.043187 -0.057874 0.027919 -0.168354 -0.064377 -0.246635 -0.109948 -0.045109 0.126647 -0.168971 0.112408 0.150483 -0.044692 -0.136083 -0.068854
than 0.186814 0.241533 -0.162016 -0.045871 -0.086748 0.015560 0.162139 0.094988 0.059381 0.105285 -0.018439 0.015526 -0.067998 0.164511 0.045834 0.023923 -0.086320 -0.341404 -0.101540 0.226370 -0.107597 -0.252565 0.123608 -0.177431 -0.176471 -0.139337 -0.142833 0.050839 -0.046532 0.006351 0.177823 0.326004 -0.045048 0.054629 0.031695 0.134639 0.095879 -0.015431 -0.017458 -0.188541 0.222574 -0.124484 -0.036921 0.038158 0.206099 -0.188396 -0.120355 -0.136065 0.063644 -0.110165
other -0.151780 0.034211 0.037067 0.138739 0.083300 -0.068730 -0.239800 -0.203224 0.037121 0.093274 0.093445 -0.019669 -0.133108 0.041758 0.052151 0.013354 -0.056967 -0.062036 -0.256638 -0.198614 -0.158214 0.072586 0.011642 0.048541 0.005069 0.213764 -0.010724 0.085248 0.153615 -0.046670 -0.054444 0.039876 0.027196 -0.226041 -0.003661 0.335783 0.197398 -0.067120 -0.022306 0.329986 -0.228556 -0.136423 -0.196266 0.180840 0.108285 0.125410 0.216124 -0.016955 -0.201005 0.007647
before 0.238427 0.171423 0.201163 -0.223820 0.238641 -0.064474 -0.126398 -0.432765 -0.046725 0.065434 -0.003781 -0.235509 -0.066602 0.005683 0.056085 -0.163128 -0.065686 -0.128133 -0.090832 0.036281 0.079941 0.046992 0.000744 -0.048351 0.019174 -0.190486 -0.176327 0.029729 -0.274700 0.041585 0.052164 -0.038746 0.078228 -0.110617 -0.002164 -0.124067 -0.019754 0.171262 -0.020318 0.103216 0.091036 0.128032 0.107827 0.083149 -0.184736 0.080504 -0.039332 -0.332171 0.023599 -0.024129
about -0.128832 0.047063 0.222723 0.270792 0.090949 -0.030337 0.032997 0.183609 0.075066 -0.181218 -0.236628 -0.094055 0.095602 0.074851 0.014029 0.074991 0.131751 0.052728 0.108604 0.078875 0.117022 -0.101051 -0.100834 -0.001750 -0.092099 -0.202504 -0.051410 0.061566 -0.024620 -0.037948 0.088052 0.052273 0.053708 -0.303606 -0.025547 -0.009426 -0.130908 -0.213569 -0.045132 -0.113453 -0.120355 -0.046867 -0.563783 0.032529 -0.024659 0.042182 0.133618 -0.132676 0.017975 0.049610
see 0.186874 -0.080493 0.060203 0.151585 -0.239831 -0.111504 0.157856 0.189037 -0.092878 -0.176331 0.110902 0.071562 -0.091478 0.109091 -0.126570 -0.045335 0.078446 0.134384 0.070147 0.266460 0.139325 -0.048743 -0.036516 0.044112 0.120849 -0.038122 0.110220 -0.031202 0.013071 -0.336769 -0.003842 -0.298065 -0.004626 0.178226 0.037637 -0.088831 -0.193909 0.060284 0.083851 -0.027036 -0.142144 0.146417 0.298854 -0.240988 -0.055735 0.086845 -0.172789 0.133455 0.013186 0.107118
such -0.324175 0.004690 0.128158 -0.059159 0.124541 0.056254 0.012696 0.109550 -0.031109 0.146547 -0.027197 0.160249 -0.138761 0.011502 0.255071 -0.020009 -0.165773 -0.189246 -0.026806 0.142331 -0.150522 -0.027758 -0.050086 -0.183391 0.190111 0.142398 -0.142577 -0.008530 0.111110 -0.100116 -0.138044 0.147354 -0.107157 0.355239 -0.033451 -0.300142 -0.181799 -0.056960 0.214173 0.153871 0.117404 0.100690 -0.126803 0.162985 -0.021590 0.095031 -0.031007 -0.051895 0.098202 0.050133
must -0.192360 -0.085568 -0.352220 0.061701 -0.010307 0.176809 -0.255130 0.156295 0.062518 -0.288188 -0.003125 0.059325 0.177255 0.114940 -0.170794 -0.001999 0.140141 0.277366 0.016088 0.055303 -0.074789 0.024444 0.107012 -0.022665 -0.028481 -0.092757 0.068583 -0.258407 0.106128 0.118951 0.014197 0.049121 -0.150635 -0.118896 -0.160835 -0.111408 -0.134887 0.003635 0.137445 0.016569 0.030763 0.147570 -0.111930 -0.001211 -0.275354 0.145076 -0.128255 0.087139 0.131012 -0.172744
know 0.160859 -0.050345 -0.096541 0.140074 -0.094778 -0.143401 0.037603 0.128657 0.154496 0.015957 0.056082 -0.112847 0.246346 0.054107 -0.172788 0.083510 -0.203731 0.071634 -0.009231 0.084609 0.214902 0.322741 -0.106235 0.207374 -0.006273 0.036037 -0.042563 -0.252504 -0.084027 -0.082315 -0.024497 -0.118399 -0.262442 -0.164796 0.224081 0.037140 0.116407 0.144903 0.230257 -0.089313 -0.006637 0.012605 -0.082492 0.034882 0.171478 -0.219292 0.036019 0.081057 -0.041638 0.249644
should -0.000060 0.114273 0.180804 0.199396 0.141637 0.132065 -0.253870 0.051271 0.103855 0.172865 0.057976 0.089699 -0.003486 0.283738 0.039651 -0.084806 0.111137 -0.052119 -0.070831 -0.158637 0.334594 -0.019703 -0.074260 -0.128401 -0.002676 -0.105671 0.025304 -0.060838 -0.250981 0.164213 -0.071966 0.055252 0.003843 -0.338380 -0.143562 -0.143160 -0.207359 -0.130726 -0.186880 0.023420 0.117859 -0.145568 -0.045240 0.006773 0.085720 0.157222 0.055748 0.057912 0.170782 0.138541
may -0.028513 0.038313 0.095497 -0.089679 -0.070415 0.105844 0.022298 0.223557 -0.097981 -0.240507 -0.054360 0.054969 -0.200333 0.207208 0.305459 0.260762 -0.049513 -0.114610 0.264868 0.114563 0.005002 -0.053554 0.038027 0.112272 -0.052567 -0.084828 -0.161195 -0.139605 -0.101415 0.021976 0.045411 0.265916 0.026480 0.051671 0.021753 0.122990 0.262908 0.066832 -0.180938 -0.020679 -0.049056 -0.155845 0.257409 -0.098859 0.032627 0.266330 -0.060197 -0.167452 0.094091 0.019506
how -0.037230 0.240255 -0.004219 -0.164396 0.169736 -0.078505 -0.322016 -0.116489 0.046837 0.258752 -0.055300 -0.180139 -0.181336 0.202946 0.017740 -0.069645 0.122745 0.066922 0.231228 -0.168466 0.078665 0.054639 0.033432 0.180259 -0.119470 0.007702 -0.121212 -0.185471 0.034448 -0.174182 -0.009686 -0.031738 -0.294658 0.012103 -0.074026 0.123710 -0.029308 0.038877 0.112696 0.148132 -0.031190 -0.140587 0.110432 0.091960 0.017784 0.119594 0.288203 0.092150 0.199308 -0.073489
well 0.003893 -0.126710 -0.023057 0.267996 -0.001132 0.285350 0.256128 0.252774 0.124686 -0.111424 -0.041550 -0.060888 0.024183 -0.118679 0.288255 0.194853 -0.068061 0.149865 0.150908 0.074309 0.046285 -0.078785 -0.210935 -0.029264 -0.207994 0.203807 -0.131712 -0.036722 -0.002202 -0.016441 -0.108495 -0.167163 0.052139 0.100547 0.051039 0.250485 -0.179504 0.090957 -0.043598 -0.019791 0.026894 0.123284 0.089064 0.022286 0.057370 0.136853 0.059391 -0.222028 0.100277 0.220683
our 0.065116 0.003242 -0.127516 -0.004195 -0.079349 0.016558 -0.084400 0.131406 -0.148648 -0.057781 -0.025569 -0.080032 -0.281261 0.256028 0.080730 0.028818 -0.205647 -0.153534 0.138786 -0.051997 0.021871 -0.240211 -0.159536 0.072522 -0.056513 -0.233570 -0.064828 0.198218 -0.064143 -0.019941 -0.039136 0.029155 0.214311 -0.137441 -0.002802 -0.292277 -0.087092 0.121275 -0.049493 0.123292 0.270901 0.138613 0.210010 -0.080757 0.039115 -0.089001 0.181373 -0.009252 0.280403 0.157054
can 0.270391 -0.087406 0.072289 -0.102701 -0.043146 0.111084 -0.042178 -0.019600 -0.095986 -0.109807 0.097215 -0.055789 -0.121299 -0.199127 0.059113 0.015415 -0.049446 0.039107 0.076861 -0.037051 0.213857 -0.037995 0.167032 -0.181160 -0.063097 0.004975 -0.045868 -0.244309 0.206672 0.268997 0.071670 0.018158 0.080587 -0.112950 -0.185815 0.189357 -0.070793 -0.020872 0.234925 0.261966 -0.189474 0.088659 -0.119010 -0.180919 -0.249059 0.144159 0.082757 -0.211813 -0.089211 -0.193987
little -0.072363 0.206470 -0.035245 -0.147108 0.058596 0.103342 0.033106 -0.081614 -0.014762 0.092589 -0.274246 -0.003966 -0.037400 0.101673 -0.331916 -0.070427 0.036995 0.270067 0.214325 -0.278579 -0.033514 0.105691 -0.101437 -0.170654 0.118013 -0.024560 -0.382245 -0.133606 0.077200 -0.023115 -0.110749 0.084462 -0.000213 0.063215 0.016115 -0.059071 -0.043069 0.085490 0.170768 -0.003322 0.016612 0.004932 -0.190978 -0.056764 0.172068 -0.092407 -0.049507 0.330438 0.038546 -0.071804
am 0.132376 0.369793 0.112043 -0.041745 -0.177976 -0.078785 0.093669 -0.045412 0.153772 -0.024299 -0.135956 -0.147743 -0.277737 -0.281805 0.198941 0.116351 -0.067585 -0.056815 0.018580 0.182716 0.064999 0.110730 -0.065939 0.025353 0.017031 -0.148010 -0.049818 0.162010 -0.029309 -0.015144 -0.010428 -0.047606 0.027179 -0.293800 0.119691 0.087153 0.088395 0.145243 0.034162 -0.097517 0.006801 -0.177905 0.102688 -0.153126 -0.218989 -0.154680 -0.085599 0.140792 0.171008 -0.220407
these 0.085213 0.244615 0.272360 -0.142540 -0.068220 -0.102251 -0.115576 0.246569 0.195200 0.047708 0.141203 -0.099657 -0.192532 0.004880 -0.034290 0.179429 0.169596 0.090390 0.225760 -0.275964 -0.064567 -0.047338 0.248562 -0.150415 0.081430 0.151967 -0.066404 0.154856 0.033137 -0.045442 -0.015984 0.044913 0.202132 -0.048055 -0.176879 0.098762 -0.031233 -0.107523 -0.003971 0.012751 0.135415 -0.187234 -0.147162 -0.140599 -0.122876 0.155763 0.015097 0.048358 -0.159134 0.176086
upon 0.100284 -0.075913 -0.028693 -0.030674 -0.050091 -0.219315 -0.110694 0.191624 -0.061075 -0.089388 -0.102581 -0.019212 -0.146023 -0.217767 -0.368664 -0.097045 0.212743 -0.097614 -0.185909 0.031292 -0.079325 0.151953 0.050839 0.103812 0.126028 0.219238 0.104897 -0.047604 -0.097772 0.025014 -0.163145 0.329153 0.124085 -0.197238 0.004002 0.076441 -0.103411 0.251146 0.058388 -0.075356 0.023546 0.085321 0.212370 0.065365 -0.047304 -0.114790 -0.113288 -0.086687 0.205529 0.111733
down 0.141766 0.043523 0.172088 0.147836 0.050106 -0.163873 -0.130263 0.077425 0.105479 0.065941 0.165510 0.313867 -0.178681 0.104730 -0.064836 0.008763 -0.065098 0.098054 0.073344 -0.022569 -0.066411 0.293213 -0.113822 0.005834 0.081168 0.169199 -0.033392 -0.220141 0.062109 -0.028761 -0.139588 0.110632 0.177444 0.065678 0.062772 0.041478 0.053089 0.023182 0.014436 0.552710 0.099021 -0.022524 0.010905 0.075285 0.092560 -0.209755 0.048499 0.013354 0.121439 -0.069637
two -0.232834 -0.176749 -0.078048 0.005514 -0.037418 -0.022453 0.129805 -0.101349 0.074626 -0.007155 0.172793 0.181389 0.003274 -0.013572 -0.141944 -0.220352 -0.077693 0.245392 0.050160 -0.106407 -0.213763 0.066577 0.160389 0.004044 -0.018287 0.228325 0.027112 0.180580 -0.218363 0.094816 -0.086458 0.052712 0.204385 0.234936 0.038460 -0.095222 -0.155331 0.072391 -0.012788 0.151953 -0.075090 -0.143139 0.038972 -0.008165 -0.086532 0.259562 0.020682 0.228329 -0.332414 -0.087495
over -0.154392 -0.115976 -0.104652 0.125385 -0.172622 -0.014389 0.083741 0.224301 0.114937 -0.119247 -0.246932 -0.125118 0.189648 -0.318542 0.127131 -0.093499 -0.106411 0.248543 -0.029810 0.129583 0.185956 0.016830 0.125944 0.129490 0.048499 0.016194 0.072310 -0.048248 -0.089338 -0.033992 -0.138912 0.146421 -0.114042 0.031451 -0.120402 0.129816 0.131416 -0.076669 -0.191791 -0.185484 -0.101654 -0.142532 0.230683 -0.049841 -0.148225 -0.032128 0.068259 -0.116312 0.202875 -0.235841
us 0.006507 0.093393 0.019687 0.175043 -0.072489 -0.176456 0.115721 -0.024831 -0.005658 -0.020226 -0.026194 0.130514 -0.103977 -0.203383 0.010158 0.210709 -0.082033 -0.074853 -0.131813 0.079962 0.022281 0.117073 0.314423 -0.007948 0.056297 -0.142800 -0.401153 0.002871 0.022006 -0.124440 0.019734 0.119911 0.053668 -0.097141 0.067917 -0.069867 0.138131 -0.125568 -0.023954 0.103087 -0.001499 0.423875 0.329352 0.078271 -0.239987 0.014506 -0.005772 -0.071021 -0.036157 -0.064611
after 0.102198 -0.058360 0.239747 0.040396 0.386727 -0.027413 -0.033656 0.037413 -0.094307 -0.048813 0.105842 0.023897 -0.144201 0.058023 0.108811 0.260705 0.086730 -0.146306 -0.007667 0.364811 0.161632 -0.013123 -0.201158 0.009162 -0.021850 -0.024213 0.123655 0.013747 0.063725 -0.088110 0.030192 -0.107346 0.073068 0.015310 0.005097 0.093031 0.169608 -0.111934 -0.102591 -0.037611 0.053343 -0.383175 -0.080003 0.081989 -0.102817 -0.161607 -0.038540 0.265320 -0.191635 0.042569
himself -0.104803 -0.082810 -0.061866 0.127390 -0.108648 0.122741 0.170952 0.003076 -0.201956 0.111995 0.247805 0.149305 -0.055369 -0.148328 0.003878 -0.031098 -0.167581 -0.013178 -0.028427 0.188941 -0.026716 0.088792 -0.307069 -0.016735 0.013556 -0.216012 0.068902 -0.110155 -0.057461 -0.062506 -0.169960 0.060405 0.016404 0.110820 -0.122587 0.191057 0.037629 0.140912 0.147226 0.208007 0.261270 -0.123538 -0.105988 0.105260 -0.027196 -0.307521 -0.057930 0.299218 -0.055618 0.155141
old 0.030813 0.107688 -0.110523 -0.059454 0.055264 -0.161483 -0.183563 -0.038492 0.243721 0.148228 0.321628 0.010499 0.055943 0.031970 -0.017725 -0.015759 0.067596 -0.145815 -0.080597 0.079725 -0.147264 0.339479 -0.074404 0.050756 0.000258 -0.190440 -0.127282 -0.210944 0.122210 -0.072897 -0.047074 -0.028297 0.004650 0.071357 0.009896 -0.135682 -0.012440 0.088298 0.121566 -0.008097 -0.260762 0.159236 0.175178 -0.146719 0.356262 0.000085 -0.006620 -0.256116 -0.137671 0.101477
again -0.120083 0.191617 -0.082466 -0.184786 0.018822 0.073324 -0.192631 0.130217 0.057977 0.041405 0.113146 -0.212628 0.005642 -0.001811 0.144882 0.001180 0.096567 0.001047 0.130701 0.051648 -0.019995 0.091561 -0.003143 -0.045817 0.056666 -0.333098 -0.157149 -0.076512 -0.008677 0.171073 -0.005857 0.123102 0.010808 -0.107124 -0.004429 -0.362932 0.114216 0.072641 -0.367057 -0.301507 -0.087578 0.063291 0.092193 -0.136932 0.202205 -0.184606 0.109728 -0.117949 -0.084495 0.022767
shall -0.017117 0.120578 -0.049948 -0.021719 0.112107 -0.091427 -0.357452 -0.305546 -0.210175 0.052908 -0.012233 -0.017881 -0.023267 0.156459 -0.105571 0.008335 0.144604 -0.188667 -0.153212 -0.222086 -0.087480 -0.066827 0.046334 -0.135485 0.058188 -0.012836 -0.162526 -0.051965 0.066043 0.026282 0.039231 -0.282649 -0.032490 -0.265231 0.131849 -0.077496 -0.118008 0.073707 0.262127 -0.177246 0.029301 -0.179166 0.047696 0.186085 -0.220478 -0.120333 -0.065537 0.010231 0.031561 0.150706
first 0.176900 0.002525 0.100486 -0.110705 0.209807 0.097120 -0.108243 -0.082753 -0.121919 0.048543 0.333493 0.056189 -0.283014 -0.040862 -0.122465 0.056630 -0.176926 -0.077706 0.118403 0.057983 -0.074696 0.028841 -0.168355 -0.287812 -0.035285 -0.300077 0.061312 -0.176889 0.033091 -0.104918 -0.170571 0.112273 0.066609 -0.112748 -0.198310 -0.088039 -0.087935 0.115873 0.055884 0.151471 0.023680 -0.041571 -0.127945 -0.045453 -0.063726 -0.036338 0.002675 -0.060190 0.245824 0.297812
come -0.084748 -0.169204 0.262765 -0.141715 0.130725 0.012356 -0.248543 -0.132393 -0.158266 0.143203 0.058821 0.109865 0.262687 0.094569 0.282488 -0.022597 -0.031653 -0.021989 -0.250812 0.011342 0.106288 -0.230282 -0.091271 0.071370 -0.187756 -0.063219 -0.177467 -0.035225 0.151341 -0.065788 -0.199522 -0.090830 -0.086691 0.020884 0.140192 0.308058 -0.075338 -0.031024 0.134690 0.112787 0.168974 0.059620 -0.052664 -0.126948 -0.188964 0.091630 -0.005164 -0.073403 -0.083961 -0.044211
where -0.153885 0.171066 0.314791 0.037628 -0.046307 -0.002667 0.138976 -0.073009 -0.056542 0.136348 0.033995 0.148238 -0.040535 -0.070608 -0.092782 0.157788 0.298901 -0.121390 -0.148554 -0.032663 -0.231764 -0.073214 0.111049 0.034608 -0.121447 0.287587 0.183290 -0.243599 -0.010458 -0.057386 -0.211101 -0.091047 -0.004451 0.323100 -0.052963 0.254797 -0.085074 -0.077105 0.151544 -0.079716 -0.032918 0.043822 -0.009597 0.068990 -0.142819 -0.059228 0.118939 -0.011210 0.058112 -0.155316
mr 0.053037 0.035710 0.031682 -0.247117 0.265415 -0.116529 0.042717 0.050878 -0.000655 -0.155043 -0.041146 0.022549 -0.095765 0.025422 -0.025345 0.130091 -0.038752 0.140636 -0.169524 -0.055228 -0.149159 -0.004553 -0.124937 -0.103471 0.252721 -0.174089 -0.015073 -0.098011 0.012274 -0.142698 0.016301 -0.079155 -0.089767 -0.241531 -0.178367 -0.226701 0.104162 0.180000 -0.034834 -0.205545 0.051984 -0.234618 -0.199814 0.091320 0.007849 -0.419308 -0.126558 0.147184 -0.055164 -0.011788
good -0.117155 -0.090431 0.008434 0.117254 -0.132049 -0.128602 -0.105341 -0.187860 0.089988 -0.023337 0.026517 0.122275 0.192027 0.025041 -0.009108 -0.150621 -0.013594 0.036732 -0.239466 -0.307315 0.089795 -0.354177 -0.011720 -0.037916 0.176710 -0.188288 0.196027 0.098041 0.115800 -0.046151 0.028545 0.073045 -0.301391 0.086935 -0.140861 -0.269826 -0.201830 0.128627 0.058370 0.047314 0.068935 -0.033506 0.040872 -0.038998 0.071270 0.144431 -0.137503 -0.190354 0.147612 0.092880
say 0.085428 -0.199793 -0.312900 0.033509 0.048689 0.165734 -0.135291 0.191349 0.044560 0.067512 0.074933 -0.163169 -0.054993 -0.173166 -0.034485 -0.007579 -0.200508 -0.076027 -0.070858 0.291725 -0.263241 0.223761 0.184323 0.264311 -0.097685 -0.129976 0.218271 0.020552 0.046696 -0.058171 0.156144 -0.007197 -0.104551 0.029756 -0.079714 -0.104039 -0.032816 -0.025300 -0.034266 -0.128918 -0.234592 0.060064 -0.119094 0.076506 -0.144213 -0.017915 0.113380 -0.125076 -0.229414 -0.052175
made 0.104310 0.005095 0.017232 -0.139776 0.093293 0.081742 -0.106381 -0.071304 0.043316 -0.211390 -0.021824 0.196648 0.061734 -0.107665 -0.078354 -0.132825 0.087742 0.013010 0.126969 -0.184487 0.081780 -0.182643 0.185290 -0.109992 -0.175201 0.247633 -0.003708 0.140999 -0.137346 0.181577 -0.131855 0.148158 0.153689 -0.073932 0.121062 -0.189484 -0.106949 -0.083913 0.221096 0.040458 0.055185 0.422765 -0.189829 -0.128886 -0.139608 0.033850 0.112002 -0.061111 0.080513 -0.196281
own -0.058736 0.040044 0.123085 -0.104227 0.009351 0.047643 0.169370 -0.047524 0.056107 0.207435 -0.040321 0.114225 0.098478 0.198690 0.119566 -0.274428 0.090449 0.174728 -0.094887 -0.103614 0.204871 0.038072 -0.246287 -0.128101 0.087708 -0.080570 0.131579 0.065754 -0.003201 0.164964 0.250133 0.238503 -0.024907 0.016332 -0.057385 -0.215513 0.059447 0.244335 0.090657 -0.111694 0.013929 -0.104791 0.028351 -0.000242 -0.068705 0.210744 0.025054 0.116952 -0.027861 -0.404725
never 0.027386 0.166751 0.053917 0.185600 -0.095155 0.008604 -0.103829 -0.084717 -0.312691 -0.144988 -0.006691 -0.133065 -0.302708 -0.033847 0.007782 0.024520 -0.104085 -0.213137 -0.274266 -0.189172 -0.016756 -0.329020 -0.060886 -0.042538 -0.164510 0.119838 0.109333 0.116758 0.130915 0.247915 0.011849 0.095124 0.061587 0.004680 -0.130340 0.158351 -0.064739 -0.098546 -0.160598 0.042792 -0.075825 0.022328 -0.078349 0.162481 -0.077218 0.173657 0.174720 -0.148729 0.131081 -0.093517
much -0.029505 0.334725 0.189619 -0.004817 0.214060 -0.005206 -0.062170 -0.212076 -0.093095 -0.159603 0.034692 0.216152 0.088597 -0.000208 0.087458 0.126996 -0.086856 0.113484 0.041456 0.077790 0.178829 -0.068283 -0.090816 0.242689 0.246775 -0.152550 0.138546 0.169101 0.023293 -0.076907 -0.277182 -0.061951 -0.176492 -0.075588 -0.034505 -0.011811 0.060245 0.053758 -0.256149 0.033083 -0.183558 0.063488 -0.148246 0.109127 0.187789 0.158093 0.130000 -0.044752 -0.159883 -0.062525
go 0.030854 0.115888 0.013725 -0.073813 0.060834 -0.222150 -0.039406 -0.119572 -0.022177 0.293361 0.124011 -0.082542 -0.136736 -0.172070 0.217872 -0.083417 0.148507 0.237656 0.027608 0.114395 -0.187349 -0.051160 -0.101767 0.021794 -0.168895 -0.011965 -0.078651 0.029038 0.163954 -0.061151 0.207857 -0.293421 0.006557 0.158476 0.083606 0.050516 0.093884 0.018308 0.032188 -0.027867 -0.136116 0.079917 -0.275509 0.178255 -0.122862 -0.054590 0.006908 -0.089589 0.398020 -0.014946
came -0.203441 0.144846 0.010474 0.001044 0.086852 -0.080057 0.254596 -0.030174 -0.002570 -0.344225 -0.338080 -0.308755 -0.105237 0.159212 -0.117664 -0.219674 -0.032003 0.117435 0.046630 0.118628 -0.072638 -0.036571 0.048809 0.021410 0.020807 -0.229755 -0.111308 0.011254 -0.062054 -0.039768 -0.096268 0.255976 0.038037 -0.158620 0.121620 0.103796 -0.102144 0.079979 -0.185375 -0.005450 0.027824 0.122791 -0.028284 0.056240 -0.086084 -0.176560 -0.224235 -0.013982 0.148765 -0.101538
life 0.106349 -0.009856 0.049848 0.021499 -0.050706 -0.014307 0.056527 0.034799 -0.077740 0.170583 -0.173601 -0.267159 0.054775 -0.048328 -0.106925 0.051183 0.154314 -0.150748 -0.076041 0.000088 -0.057192 -0.081900 -0.207695 -0.034723 -0.233681 -0.086537 -0.156889 -0.113820 0.111724 -0.151194 -0.177222 0.195018 0.164931 0.154609 0.168432 -0.236588 0.035872 0.048388 0.045864 -0.067504 -0.005100 -0.060503 -0.224388 0.146287 0.086778 -0.127782 0.143040 0.258917 -0.298395 0.299605
day 0.142356 -0.180962 -0.077252 -0.032631 0.256089 0.144123 0.056759 -0.239484 -0.019094 0.160306 0.092258 0.007823 0.045492 -0.121849 0.165204 -0.233228 -0.095141 0.077881 0.252581 -0.026918 -0.007658 -0.030435 -0.068243 -0.278803 -0.194558 -0.164300 0.347154 -0.188465 -0.054036 -0.075472 0.012257 0.158508 0.002657 0.167801 -0.181444 0.126250 0.038458 -0.175059 -0.116968 0.263845 0.019064 -0.049796 -0.087757 0.025681 -0.044113 0.084285 0.003568 0.155841 -0.018303 -0.068252
here 0.144988 0.039824 -0.320856 -0.120980 -0.331112 -0.079334 0.208569 0.002710 0.251207 -0.166858 0.135926 0.073879 -0.015030 0.020923 0.126078 -0.086055 0.031046 -0.016192 0.063930 -0.157775 -0.091329 0.013164 0.174664 0.145293 -0.320255 -0.109822 -0.060236 0.086975 0.049806 0.015719 0.023713 -0.176380 -0.132960 0.010427 -0.026506 0.002518 -0.030543 0.129494 0.182020 -0.014102 0.004707 0.120794 -0.048431 -0.095617 -0.079687 -0.231764 0.354114 -0.063010 -0.128427 0.096962
great -0.105612 0.027027 -0.102176 0.078539 -0.444768 0.024513 -0.050056 0.110256 0.063751 0.383920 0.063360 -0.026841 -0.231394 -0.089577 -0.060100 0.087869 0.148363 0.004693 0.068555 0.020710 -0.331471 0.229400 -0.030802 0.018428 0.068993 0.139878 -0.070118 0.092064 -0.131145 0.047457 -0.028198 0.260721 0.063205 0.029131 -0.237106 -0.104774 -0.187749 -0.085492 -0.082590 0.104390 0.011192 -0.062624 -0.059364 -0.120149 0.097991 0.177765 -0.052861 -0.117611 -0.016993 0.001256
eyes 0.063318 -0.054866 -0.180741 0.213109 0.072535 0.006361 0.049426 0.131160 -0.027127 -0.053995 0.010321 -0.119344 -0.083431 0.220940 -0.017824 0.163596 0.206034 -0.082486 -0.187864 0.093583 -0.030307 0.035963 -0.002578 -0.066107 -0.043619 0.198176 -0.017622 -0.006752 -0.234474 -0.091118 -0.002025 0.167368 -0.096565 0.123416 -0.201612 -0.072626 0.013733 0.201014 -0.284815 -0.409128 0.072278 -0.134269 -0.130571 -0.019792 -0.135419 0.106784 -0.152644 -0.209021 0.219513 -0.105742
hand 0.145968 -0.116155 -0.067527 -0.007187 0.037120 0.147401 0.025993 0.100891 0.067644 0.173127 -0.188339 -0.068718 0.144442 -0.057967 0.100398 0.146489 0.047585 -0.021945 -0.063973 0.163341 0.079305 -0.019608 -0.047144 -0.211746 -0.181778 0.033169 0.164176 0.276085 -0.114708 0.109879 -0.002320 -0.055910 0.142126 0.102511 0.002470 0.152005 0.043116 -0.029678 0.327028 0.304272 0.182061 0.002867 -0.013233 -0.088416 0.280646 -0.057706 -0.098098 -0.170874 -0.117941 -0.333303
still -0.020270 -0.169586 -0.086752 0.102647 0.102459 0.081822 0.001700 0.012023 0.013788 -0.035551 -0.199521 0.054555 0.007621 -0.101576 0.162332 0.276608 -0.075878 0.100118 0.211256 -0.118362 0.181463 0.094207 -0.188768 0.153340 0.079660 -0.006812 -0.149204 -0.028736 0.120989 0.112821 -0.259751 -0.236217 -0.104978 0.029673 0.047222 0.056091 0.065543 -0.208478 -0.097114 -0.004502 0.037868 0.022643 0.319485 0.119364 0.239704 0.300424 0.210349 -0.126265 -0.070809 -0.129240
went -0.034745 -0.225635 -0.111155 0.016440 0.046506 0.273178 0.207953 0.184547 0.184348 0.015424 0.037174 -0.102775 0.004534 0.100754 0.099669 0.093996 0.133951 0.258296 -0.085759 -0.295098 -0.175314 0.030697 -0.066366 -0.033567 0.268316 0.075809 0.150131 0.068785 0.002744 -0.087805 -0.078637 0.059463 0.064041 -0.065809 -0.177008 0.168816 0.026171 -0.183987 -0.030746 0.033116 0.168250 -0.112005 0.129991 -0.017228 -0.172888 -0.286261 -0.051872 -0.271778 -0.022860 0.124237
way -0.007675 0.128313 0.015825 -0.050715 0.106563 0.075441 -0.183495 0.249950 0.330156 0.049883 -0.053200 -0.017840 -0.086659 -0.158812 -0.027951 -0.050021 -0.216006 0.017324 0.003522 0.107060 -0.146666 -0.143277 0.076078 0.090125 -0.111018 0.187268 -0.116735 0.161252 0.018518 -0.052341 -0.064656 -0.029670 0.033517 -0.037139 -0.076975 -0.247181 -0.089271 0.049326 0.168476 -0.113100 -0.025305 0.235894 0.157458 -0.140437 -0.121770 0.135469 -0.062229 0.276936 0.082239 0.406009
without -0.245990 -0.090935 -0.021678 0.082946 -0.125590 0.146974 0.088083 -0.113956 0.097683 0.120543 0.182192 -0.095789 0.152499 -0.058169 0.043780 0.017788 -0.029399 -0.103465 0.050983 -0.234487 0.003373 -0.008955 -0.174715 -0.264287 0.200675 0.118473 0.173478 0.240444 0.071551 0.214857 -0.136970 0.181671 -0.016532 -0.317557 0.025080 -0.178518 -0.034110 0.137960 -0.207922 -0.002018 -0.017309 -0.102761 0.099391 -0.219609 0.234685 -0.058037 -0.136118 -0.017584 -0.016265 0.109536
long -0.078671 0.031903 -0.111390 -0.036955 -0.198997 0.124510 -0.163074 0.150817 -0.007379 0.085569 -0.069064 0.232707 0.086957 0.292862 0.013578 0.139331 0.069309 -0.084487 -0.091521 -0.087728 -0.008561 0.141507 0.140971 -0.109234 0.140685 0.337073 0.024493 0.095025 -0.257309 -0.009284 0.004300 -0.065948 -0.173237 -0.182047 0.250978 0.153265 0.343520 0.173201 0.068246 -0.026898 -0.021917 0.187758 -0.004673 -0.036791 0.003533 0.023801 -0.073669 -0.076153 -0.084488 0.206551
men 0.006704 0.142435 0.033816 -0.203799 -0.058472 -0.114513 -0.113762 0.194070 -0.016259 0.132846 0.244447 0.041511 0.345313 0.065874 -0.170884 -0.028816 -0.094056 -0.384709 -0.116058 -0.340241 -0.103003 0.109411 -0.159314 0.116034 0.000158 0.062855 -0.220574 -0.033425 -0.008443 -0.076610 -0.048888 0.069014 0.041043 0.100053 0.124018 -0.045684 0.044140 0.085716 0.058283 0.080600 -0.034698 0.054329 0.052737 -0.082363 -0.119111 0.276541 -0.164160 -0.131385 0.159918 0.003562
those 0.024655 -0.016322 -0.121616 0.048749 0.008805 0.080711 0.080967 -0.062793 0.060623 -0.039191 0.079283 -0.000172 -0.238653 -0.135216 0.021158 0.082240 0.134318 0.176320 0.142208 0.095996 -0.365578 0.076049 0.303333 0.154842 0.187294 0.158221 0.056620 -0.054037 0.131238 -0.191348 0.036451 0.059457 -0.048667 0.085312 -0.116615 -0.375564 -0.069464 0.204664 -0.037568 0.067651 0.221315 -0.059803 -0.047584 0.112170 -0.101215 -0.132989 0.019768 0.297152 0.078596 -0.069052
yet 0.007507 0.081854 0.149414 -0.168607 0.075856 -0.034318 -0.006997 0.276132 -0.243716 -0.146742 0.116569 -0.136258 0.233234 -0.054183 -0.202694 0.040658 0.257823 -0.146992 -0.072781 0.070082 -0.214658 0.010942 -0.170380 0.078596 0.072412 -0.098823 0.175416 -0.042646 -0.198683 -0.062233 0.006124 0.084841 0.157529 -0.046848 0.110239 0.068467 -0.027314 0.013624 -0.145487 0.257723 -0.124228 -0.207708 0.007038 0.285546 0.041482 0.171350 0.179684 -0.114909 -0.056648 -0.126159
thought 0.194923 0.395414 -0.159043 0.129095 -0.113287 0.126148 -0.132855 0.062381 -0.046525 0.093021 0.085525 0.109215 0.158760 0.045970 -0.005979 0.160484 -0.027581 0.072877 -0.101053 -0.026911 0.015907 -0.001009 -0.387649 -0.052842 0.094092 -0.016381 0.079219 0.037358 0.065358 0.026208 -0.301197 0.064124 0.003422 -0.091485 -0.236419 -0.037238 -0.193061 -0.129257 -0.161910 -0.005985 0.157707 0.332740 0.016841 0.079729 0.147189 -0.009177 -0.113654 -0.089436 0.066860 0.089833
most -0.087044 0.165192 -0.088877 0.219640 0.067434 -0.235299 -0.101446 0.217464 0.104406 0.016335 -0.011997 -0.266264 0.281007 0.154922 -0.252573 -0.216746 0.159671 -0.090742 0.034250 0.031189 0.105844 -0.092423 -0.183797 0.122455 0.052875 0.010457 0.182397 0.007968 -0.050899 0.001736 -0.042890 0.095731 -0.003045 -0.125638 0.298066 -0.024813 0.017387 0.006921 -0.141192 0.081595 0.159805 -0.016844 0.033943 -0.076627 -0.206057 -0.027917 -0.036011 0.218801 0.033058 0.287714
yes -0.204967 -0.040765 -0.123650 -0.255047 -0.029185 0.167672 0.010479 0.040722 0.208077 -0.152153 -0.146937 0.072425 0.093479 0.216200 -0.017756 0.099221 -0.189259 -0.198336 0.112859 0.008890 -0.034219 0.034455 -0.164998 0.086058 -0.055038 -0.117788 0.084495 -0.207760 0.065872 -0.148511 0.161589 0.046531 -0.043301 0.182806 -0.163595 0.146771 -0.086195 0.026301 -0.202982 -0.070745 0.107992 0.154142 -0.196979 0.248625 -0.184217 0.337805 0.019480 0.008724 0.102332 0.080961
through -0.057633 -0.005124 -0.275078 -0.046552 0.225757 0.157672 0.000880 0.072535 0.004649 -0.106127 0.316612 0.132422 0.074111 -0.252851 0.186209 0.071766 0.283674 -0.205658 -0.035096 -0.183452 0.142624 -0.075846 -0.293296 0.037072 -0.100853 -0.140895 0.041678 0.016653 -0.068984 0.099429 0.207912 0.139396 -0.004058 0.048297 -0.032224 0.178593 -0.164945 0.079437 -0.065726 0.134839 0.046375 -0.025311 -0.125182 -0.072008 0.054450 0.175301 0.199560 -0.074777 0.105951 -0.116817
away -0.034943 -0.081262 0.052767 0.032383 -0.063029 -0.027454 0.062462 -0.054070 0.193139 -0.368801 0.249805 0.045123 0.036405 0.103586 -0.195902 -0.035950 0.084297 0.016668 -0.017656 0.088735 0.006800 0.121699 0.128018 0.218855 -0.280978 -0.321184 -0.157382 -0.080359 0.150018 -0.177231 0.341985 0.051970 -0.063929 -0.049919 -0.015692 -0.262473 -0.063171 0.058339 0.138422 0.101701 -0.003177 -0.044346 -0.031857 0.061133 0.092985 0.170897 -0.004593 0.140171 -0.164124 -0.043219
might -0.136078 0.035345 -0.016316 0.377823 -0.132314 0.251121 -0.218971 0.076349 0.036216 -0.170196 0.052023 -0.136022 -0.241576 0.058163 -0.171444 -0.164697 -0.018496 -0.097065 0.046906 -0.051136 0.216841 0.056383 -0.262774 -0.042667 0.084133 0.190945 -0.207405 -0.016385 0.113925 0.051338 -0.032241 0.173945 -0.002604 -0.135887 0.012352 0.008267 -0.002693 0.062002 0.255931 -0.033251 0.039484 0.124054 -0.029209 -0.317141 -0.025064 -0.087253 -0.021274 0.047017 0.162574 0.137387
same -0.094793 0.180935 0.194687 0.008280 -0.112234 0.014229 -0.159180 -0.019881 0.103139 -0.021392 -0.039324 -0.151323 0.245011 0.196933 0.045923 0.091561 0.299652 0.252483 0.015935 0.107722 -0.060410 0.241450 -0.052909 -0.102396 -0.056043 0.032930 0.007709 -0.028030 -0.089582 0.193369 -0.124005 -0.049120 -0.195004 -0.066335 -0.131376 0.016329 0.251948 -0.218891 0.061276 0.080078 0.364470 -0.156421 -0.176524 0.000190 -0.001852 0.001409 -0.116618 -0.034542 -0.183772 0.097121
even -0.086318 -0.004202 0.046163 0.126750 0.128714 0.026811 0.307319 -0.043904 -0.032567 0.067403 -0.124724 0.079637 0.217665 0.110006 -0.097019 -0.054322 -0.085367 -0.133884 0.263211 -0.065454 -0.256890 -0.048271 -0.001543 0.028725 0.327429 -0.165583 -0.000050 -0.069758 -0.088582 0.103338 0.114349 0.125180 0.007810 -0.160414 0.032455 0.034042 -0.038357 0.051477 0.247917 -0.057971 -0.307780 -0.004874 0.115756 0.310144 -0.149130 -0.036205 0.186898 0.007013 0.084685 0.199063
being -0.019762 -0.023578 0.074617 -0.171687 -0.014171 0.036185 0.022145 -0.042396 -0.380990 -0.090427 0.152634 0.235734 -0.118567 -0.100842 -0.191407 -0.028890 -0.086509 -0.070378 -0.104914 0.105547 0.036539 0.404556 -0.188890 0.027141 0.059390 -0.197052 -0.119267 -0.018441 -0.128063 0.087487 -0.156462 -0.131524 0.020050 0.067251 -0.073362 -0.091802 -0.012794 0.070002 -0.002134 -0.174026 0.060041 -0.001403 -0.438495 0.124354 0.010210 -0.008080 -0.095524 -0.017019 -0.164542 -0.073765
think 0.048335 -0.084487 -0.018189 -0.032007 -0.152300 0.107113 0.021327 0.214218 -0.194428 -0.115759 -0.086569 0.021341 0.139156 -0.030158 -0.021003 -0.118976 -0.085170 -0.156295 -0.052592 -0.262004 0.073820 -0.118903 0.191836 0.203600 0.180868 0.096031 -0.173261 0.194734 0.226598 0.162571 -0.024829 0.303308 -0.038351 -0.132509 -0.085431 0.080442 -0.122925 -0.000295 0.057805 0.029659 -0.095139 -0.032763 -0.188244 0.077645 0.222477 0.100214 0.362475 0.035980 0.179721 0.068281
too 0.004422 0.180212 -0.035975 0.154160 0.211402 0.094872 -0.127113 0.030594 -0.002165 -0.095261 0.146076 0.082425 -0.099106 0.236142 -0.165920 -0.233651 -0.222160 0.091757 -0.092299 0.148634 -0.106883 -0.035474 0.123545 0.017141 -0.148678 0.062278 -0.110373 0.412949 0.009155 0.302960 0.076904 0.060999 0.167388 -0.113368 -0.004559 0.039428 -0.009889 -0.128540 -0.157777 0.025590 -0.220649 0.081346 0.033006 0.180187 0.085019 -0.203195 -0.050377 -0.109430 -0.085883 -0.126617
while -0.080863 -0.398934 -0.102041 0.099293 0.075670 -0.060118 0.051958 0.009879 -0.021567 -0.141171 -0.233906 -0.031287 0.052258 0.179293 -0.198349 -0.166306 -0.185295 -0.025331 0.083778 -0.158274 0.064322 0.067171 0.071943 0.053179 -0.100326 -0.204316 -0.254279 -0.035166 -0.289153 0.134407 0.112971 -0.094374 0.093443 -0.090672 -0.244920 0.204098 0.236626 -0.049692 0.093895 -0.020099 -0.014907 0.110044 0.060158 -0.084932 0.112866 0.011958 0.030765 -0.163135 -0.214990 -0.055057
looked 0.127424 0.132812 -0.066354 0.276924 0.205105 0.118179 0.069485 -0.203584 0.037353 0.047087 -0.117046 -0.013769 0.105779 -0.175815 -0.040592 -0.221381 0.233817 0.067981 0.145166 -0.030677 -0.060351 -0.023437 0.211395 0.111487 -0.130626 -0.012759 0.032165 -0.115822 0.021351 0.206437 0.140717 0.040440 -0.089868 0.088981 0.277577 0.157384 0.026608 0.198802 0.226813 0.068752 0.006117 -0.072472 0.337490 0.028656 0.034348 -0.030281 -0.010242 0.065009 -0.278871 -0.123399
last 0.387848 -0.062931 -0.073657 -0.004013 -0.100840 0.075949 -0.162621 0.065179 0.026776 -0.016999 0.229243 -0.121127 0.028942 0.049489 0.270924 0.214715 0.238233 -0.220612 -0.110194 0.013002 -0.193970 0.158397 0.015066 -0.016400 0.071258 -0.166498 -0.188181 0.036417 0.046014 0.012298 -0.036411 0.039434 -0.013142 -0.116057 -0.116707 -0.089360 0.005504 0.226059 0.037103 0.001962 0.091562 -0.121091 -0.266678 0.056653 -0.258737 -0.282358 0.116583 0.007089 0.019353 0.032671
let -0.179028 -0.237961 0.079927 0.117452 -0.009057 0.177272 0.360504 -0.262633 -0.109209 0.006832 -0.066178 -0.032962 -0.179597 0.129365 0.046739 0.071250 -0.034033 -0.124634 0.009717 -0.004791 0.269488 -0.049361 0.020497 -0.198481 -0.035215 -0.053066 0.157943 0.005248 -0.191915 -0.066149 -0.148439 -0.018186 -0.209418 0.124646 0.168891 0.251082 -0.067201 0.087265 -0.057455 -0.110197 0.250627 0.085816 0.123154 0.153892 0.056588 -0.091388 0.205893 0.050772 -0.052354 -0.125898
face 0.093288 -0.137151 -0.214612 -0.070016 -0.023603 -0.066630 0.228299 -0.052790 0.009354 0.117760 0.084762 0.003915 0.148642 0.176622 -0.176282 -0.209595 -0.073198 0.061449 0.001947 -0.046727 -0.197261 0.127017 -0.040142 -0.035083 -0.090044 0.186038 0.032814 -0.053126 0.107936 0.147932 -0.201893 -0.068150 0.275240 0.085887 -0.101524 0.174673 -0.057996 0.137466 0.072193 -0.082466 -0.082851 -0.101133 -0.280459 0.238774 0.243633 0.179149 -0.092619 0.129484 0.132404 0.268480
nothing -0.071038 -0.055690 -0.093810 0.053053 -0.093729 0.086259 -0.092109 0.087922 0.187447 0.094275 -0.103746 0.210935 -0.093448 0.065087 0.042806 -0.124582 -0.305084 -0.167519 -0.308618 0.171342 -0.116164 -0.028933 -0.055383 -0.232607 0.350538 -0.107512 -0.057220 -0.042471 -0.210608 0.265285 0.222007 0.065130 -0.004645 -0.047092 0.001780 0.176442 0.093693 -0.022251 0.037506 0.093384 -0.089539 -0.093534 0.086275 -0.126982 -0.128984 0.105481 0.080992 -0.244027 -0.006800 0.078398
every -0.010915 -0.033588 -0.004606 0.018393 -0.250080 -0.150638 0.085661 0.026493 0.035390 0.167309 -0.045648 -0.187569 -0.024395 -0.177983 -0.011614 0.013031 -0.141154 -0.139079 0.144842 0.052845 0.027550 0.091958 0.080515 -0.039454 0.061948 0.393637 -0.170902 -0.046175 0.137396 -0.171251 0.191035 -0.266991 0.148083 0.217768 -0.012574 -0.131649 0.070517 -0.035045 0.222844 -0.014743 -0.018771 0.177982 0.073048 -0.106459 -0.168191 -0.135302 0.124394 -0.277259 0.042559 -0.217382
just 0.028671 -0.073149 0.216438 0.004435 -0.319945 0.028877 0.050203 -0.075202 0.079508 0.126322 0.248151 -0.074313 0.027068 0.104810 -0.096062 -0.009801 0.029577 -0.191687 0.065098 0.098455 0.067302 -0.226318 0.060469 -0.112780 -0.248897 0.196694 -0.183773 0.067267 -0.059294 -0.110563 0.252516 0.096001 -0.023363 0.011151 0.098752 -0.146569 -0.243437 0.030371 0.180046 0.031624 0.193007 0.134033 0.006130 -0.015151 0.022082 0.183798 0.199038 0.040058 -0.098101 0.328193
though -0.041081 -0.117214 -0.032723 0.004701 -0.085920 0.059428 -0.027302 0.005961 0.056150 0.015889 0.045261 0.001259 -0.039282 0.147685 -0.207231 -0.108569 0.126228 0.028602 0.004430 0.001575 0.109417 0.062549 0.296150 0.033126 0.221522 -0.101096 0.013851 -0.254891 -0.407632 0.041361 0.028863 0.203128 -0.121472 -0.100945 0.175009 -0.222979 0.310676 0.078715 -0.224751 -0.084407 -0.000353 0.254224 -0.039192 0.163877 -0.055199 0.069724 0.088517 -0.217233 -0.072836 -0.073859
saw 0.158667 -0.013420 0.016086 0.067051 0.064022 0.072247 0.131547 0.070403 -0.200977 -0.034721 -0.172389 -0.036088 0.050256 0.139187 0.196673 0.066928 0.048047 -0.243833 0.085750 -0.310467 -0.208732 -0.128907 -0.146336 0.193297 -0.299945 0.071534 -0.186152 -0.053425 0.084853 -0.073275 0.020858 -0.025458 -0.048063 -0.187714 -0.084898 -0.065067 -0.350180 -0.093171 -0.091044 -0.193190 -0.060429 -0.156520 -0.141624 -0.173192 0.016153 -0.140309 0.125918 0.059564 -0.158758 0.034543
make -0.349202 0.095220 0.053278 0.139256 0.004465 0.066251 0.259007 0.006151 0.117239 -0.030459 0.219868 -0.008203 0.117066 0.124501 -0.039837 0.033292 -0.160783 0.251328 -0.084950 -0.033489 -0.213746 -0.053428 -0.202749 -0.230572 0.128918 0.014028 -0.069901 -0.030538 0.199413 -0.090195 0.043545 0.018085 0.097524 -0.216926 0.076008 0.067676 0.102107 -0.330671 -0.052009 -0.099456 0.150262 -0.077687 0.054721 -0.236003 -0.025581 0.135297 0.059109 0.025690 -0.058027 0.232883
head 0.105872 -0.155049 0.172223 -0.063398 0.142657 -0.052824 -0.036993 0.032679 -0.301853 0.060828 0.068205 -0.039649 -0.050266 -0.123191 0.024443 -0.036484 0.192269 0.026308 -0.119885 -0.003734 -0.144553 0.041924 0.287324 0.235401 0.079168 0.081830 0.085720 0.210764 -0.056173 -0.173912 -0.422037 -0.181847 -0.078039 0.001278 -0.019703 -0.063952 -0.067749 0.242126 0.134453 -0.115928 0.122685 -0.114816 -0.081817 -0.118402 -0.229630 0.080852 0.152285 -0.119867 0.102510 0.035070
back -0.216859 0.084948 0.204107 -0.097422 0.136253 -0.216679 -0.287856 -0.135061 0.010764 0.212300 0.165363 -0.068144 -0.118463 0.022893 -0.080484 0.185840 -0.113828 -0.099266 0.239188 -0.086943 0.003885 -0.275893 -0.098071 0.031380 0.254895 -0.052689 0.058653 -0.179926 -0.001383 -0.062106 -0.228288 0.028297 -0.063425 0.051911 -0.143923 -0.093112 0.049335 0.031037 0.009332 0.154618 -0.082646 0.119610 -0.043312 0.077845 0.311742 -0.083943 0.222148 -0.015425 -0.029588 0.115428
another -0.214855 -0.074667 0.161086 -0.262161 0.020691 0.109089 -0.208468 -0.042647 -0.040096 -0.046776 0.037037 -0.204623 -0.140198 0.093519 0.022131 -0.175634 0.085375 0.107838 0.122553 -0.029417 -0.050478 0.030313 0.007200 0.214781 0.173770 0.057090 -0.205982 0.182639 -0.124688 0.011989 -0.084013 0.073285 0.016172 -0.255430 -0.014443 0.037659 -0.140274 -0.022128 0.192078 -0.060657 -0.130212 -0.121354 -0.020188 -0.258968 0.275618 -0.026058 0.173611 -0.347122 0.112541 0.020469
young 0.287766 0.322991 0.162935 -0.248179 0.094996 -0.060161 0.334419 -0.062082 0.001096 0.114094 0.005168 -0.119448 0.013809 -0.014960 -0.139596 -0.111666 -0.096683 0.018731 -0.020634 -0.127561 0.072724 0.063544 0.029473 -0.147801 -0.167255 0.019044 0.033551 0.209198 0.033831 -0.044044 0.087433 -0.153088 -0.069787 -0.102287 0.058143 -0.073821 -0.082287 -0.241678 -0.032918 0.413661 0.131351 -0.013675 0.040270 -0.086176 -0.122640 0.118383 0.168911 0.140707 0.073829 0.004007
seemed -0.040077 0.111006 0.203041 0.178691 0.107370 -0.167128 0.295897 -0.141321 -0.074921 0.106193 -0.059375 0.191668 0.172312 0.301552 0.115266 0.053648 0.120836 0.113275 0.197501 -0.136434 -0.084271 0.158648 0.022326 -0.041688 0.081938 0.264299 0.034697 0.124934 -0.139913 -0.153028 0.010462 -0.012790 -0.190382 -0.048354 -0.067444 0.177545 -0.075527 -0.077941 0.018810 -0.113762 -0.239674 -0.068518 -0.014908 0.200339 -0.234770 0.125490 -0.016956 -0.173833 0.110014 0.004289
work -0.167896 0.006343 -0.142046 -0.166381 -0.129048 0.206008 -0.004688 0.140291 0.054109 -0.169293 -0.099244 -0.132403 -0.041334 0.083518 -0.176745 -0.195720 0.004355 -0.038774 0.023029 -0.099552 0.006255 0.017934 0.107965 -0.248636 -0.209433 -0.046145 0.076298 0.175567 -0.059251 -0.064604 -0.012706 0.235272 0.396189 0.081023 0.294560 0.092178 0.231823 -0.026028 -0.236963 -0.034000 -0.212985 -0.089294 -0.011073 0.110476 0.130441 0.004392 -0.136658 -0.018753 0.059920 0.021115
take -0.136354 -0.227377 -0.065693 -0.110438 0.098925 -0.042881 0.065798 -0.156894 0.122051 0.036768 0.099244 0.132859 0.028597 0.176142 -0.137124 0.237312 -0.170038 -0.076281 0.107361 0.077992 -0.173225 -0.044068 0.076631 -0.100765 0.042110 0.036421 0.098753 0.140797 -0.138717 0.197106 0.194666 -0.146326 0.140852 -0.048895 0.122871 0.104126 0.047120 -0.048588 0.013527 0.146770 0.213001 -0.048793 -0.254766 -0.162537 0.289162 0.176246 0.201773 -0.315849 0.002210 0.052990
room 0.114911 0.070142 0.229926 -0.007239 0.013168 0.082686 -0.172716 0.033076 0.066207 0.311419 0.213914 0.116890 0.145664 0.135409 -0.153639 -0.229052 -0.052220 -0.170989 0.111608 0.178873 -0.089117 0.145941 -0.019492 0.385801 -0.260074 0.057454 -0.080009 0.004622 -0.221028 -0.022979 -0.014284 0.122295 0.065760 -0.058175 0.143291 0.099824 -0.067471 0.006923 0.147989 -0.003563 -0.004140 -0.267486 0.036370 0.068012 -0.056221 0.194794 0.041542 -0.110144 0.115924 -0.084619
house -0.056843 -0.336506 0.003350 0.067023 -0.180531 -0.166758 0.091546 0.026152 -0.145526 -0.102188 0.125396 0.070752 -0.052545 0.263742 0.040538 0.050176 0.278541 0.099397 0.232616 0.215757 -0.021023 -0.119226 0.151058 0.180352 -0.070042 0.035912 0.256290 0.042594 -0.276968 0.104569 0.013909 -0.140626 0.125296 -0.165794 -0.115865 -0.129604 0.080051 0.063646 0.208517 -0.040975 0.080898 -0.159071 -0.133392 -0.086717 -0.031044 -0.035349 0.008864 0.020652 -0.224416 -0.044765
project 0.121103 0.064994 0.177212 0.041370 -0.079343 0.026172 0.132183 -0.159910 0.090297 0.192905 0.015447 -0.261497 -0.113411 -0.149501 -0.152694 -0.252746 -0.050144 0.157542 -0.155700 0.158476 -0.013017 -0.021081 -0.166091 -0.197318 0.111501 -0.050438 0.061842 -0.175189 -0.004363 -0.304044 -0.033541 -0.075101 -0.005510 0.021110 -0.191902 -0.020650 -0.037577 -0.160240 0.152348 0.021982 -0.056411 0.047891 -0.066325 -0.305383 -0.042089 -0.178864 -0.356825 -0.025403 -0.004385 -0.125046
once -0.188599 -0.112262 -0.195933 -0.028679 0.078000 -0.111689 -0.099992 -0.066151 0.050687 0.199029 0.046882 0.109955 -0.183439 -0.172242 0.169366 -0.278266 0.101435 0.082220 0.306188 -0.002281 -0.010209 -0.228564 0.048073 0.027593 0.157142 -0.102679 -0.187920 -0.036089 -0.126550 0.116043 0.071304 0.165041 0.245486 -0.076987 -0.074618 -0.127870 -0.023039 -0.196401 0.206918 0.057626 0.041369 0.011482 -0.085313 0.097774 0.141930 0.223672 0.201195 0.035977 -0.071740 -0.211579
many 0.100490 0.104312 0.232221 -0.334322 0.080777 0.065592 0.009077 -0.042534 -0.344105 -0.236955 0.098370 -0.090904 0.130355 0.184598 -0.077416 0.210217 0.000233 -0.103581 -0.180228 -0.055595 -0.150497 0.065382 0.048660 0.150374 -0.035919 0.181813 -0.210219 -0.021641 0.026864 -0.108970 0.159127 0.186616 -0.046553 0.232444 -0.007810 -0.089783 -0.006601 -0.048689 -0.065551 0.091211 -0.186225 -0.100907 0.151071 0.143020 -0.095575 -0.058397 0.232150 0.035576 -0.081976 0.122284
prince -0.209889 -0.124685 0.147064 -0.030673 0.132289 0.054998 0.159994 -0.158322 -0.033793 -0.323520 0.214852 -0.152800 0.152624 -0.009331 0.044503 -0.224551 -0.148115 0.006619 -0.098540 0.163050 0.192219 -0.208960 -0.059754 -0.172255 0.087551 -0.107486 -0.155286 0.123336 -0.052177 0.124053 0.063197 0.044585 0.239575 0.048388 -0.036420 -0.134867 0.014121 0.101697 -0.070753 -0.068215 0.060425 -0.139437 0.021039 0.062506 -0.307953 -0.104602 0.070042 -0.199857 0.069137 0.241805
look 0.191023 0.216780 -0.200295 -0.073112 -0.086418 -0.175560 0.028807 0.210313 0.135284 0.058164 0.154966 0.083173 -0.076801 0.121986 0.069948 0.198020 -0.092858 0.154850 -0.097754 0.032285 0.245585 0.026444 0.156328 -0.088259 0.043921 0.084510 -0.071449 0.039160 0.232339 -0.018510 -0.221114 -0.001477 0.093376 0.035797 0.018654 0.077749 -0.012558 0.063467 -0.028429 0.113388 0.214078 -0.295818 -0.191103 0.229244 0.069311 -0.046913 -0.284076 0.072241 -0.147914 0.208231
left -0.047424 -0.096466 -0.080608 0.027491 -0.123693 -0.241598 0.282706 -0.210653 -0.209789 -0.007601 -0.086275 0.161852 0.138616 0.177865 0.025194 0.146748 0.136944 -0.081482 0.081159 0.010783 -0.003093 -0.183367 0.154724 -0.048770 -0.141964 -0.005835 0.070033 -0.050034 0.184326 0.033482 -0.223815 0.251811 0.162616 0.115470 0.243196 -0.134451 -0.174416 -0.053672 0.113045 0.109887 -0.137987 -0.220788 -0.173729 0.007604 0.038394 -0.141356 -0.200894 -0.002757 0.167411 -0.034882
heard -0.135385 0.047339 -0.157237 -0.109277 0.019154 -0.041125 -0.199893 -0.062201 0.198966 -0.129128 0.004513 0.004605 0.045399 -0.071430 0.104128 -0.172882 -0.128883 0.046567 -0.040590 0.133205 0.057618 -0.131959 0.019087 0.067699 -0.115715 -0.195733 0.276726 -0.047161 -0.076951 -0.215472 -0.183911 -0.012310 -0.035230 -0.368471 -0.204959 -0.012612 -0.039697 0.156734 -0.090056 0.003822 -0.392951 -0.079048 -0.016049 0.192701 -0.127325 -0.111498 0.077207 -0.133097 0.218286 -0.023292
off -0.111106 0.084622 0.018249 -0.026986 -0.278952 0.095533 -0.190478 0.026081 -0.014083 0.095491 -0.287988 0.184617 -0.215025 -0.211245 -0.194925 0.032443 -0.049064 0.304119 -0.051585 -0.046900 -0.040059 0.041807 0.109001 -0.030453 0.080051 -0.230566 0.116874 0.085188 0.039264 0.199698 0.106451 0.092427 -0.065040 0.019677 0.249322 -0.017257 -0.132149 0.172077 0.123758 -0.161610 0.260052 -0.030458 0.082253 0.179173 -0.051607 0.023336 0.208287 -0.089906 -0.074518 0.135467
tell 0.129673 -0.118328 0.018036 -0.242088 0.066979 0.195980 0.169961 -0.136585 -0.228936 -0.090364 0.176232 -0.322374 0.069756 0.013500 0.067633 -0.213549 -0.038087 0.045813 0.021242 -0.239687 -0.097826 0.016956 0.110615 0.020242 0.166997 0.002463 0.265681 0.044150 0.144297 0.155997 -0.127027 -0.028871 0.133883 -0.129284 0.067353 -0.120777 -0.232852 -0.225683 0.062325 0.052906 -0.245417 -0.037616 0.005867 -0.027041 0.109678 0.022856 0.034922 -0.069147 -0.220958 0.164702
count 0.287968 0.057427 0.109581 -0.166946 -0.074881 -0.008189 -0.060957 0.044570 0.225857 0.179454 -0.203603 0.002073 -0.090069 0.163481 -0.026430 0.267197 0.056607 0.096383 -0.111242 -0.123100 0.059288 0.165618 0.229720 -0.013260 0.068473 -0.039602 -0.138307 0.134342 -0.236094 -0.171123 0.015158 0.057241 0.186858 -0.075512 -0.169285 0.155125 0.041390 0.108152 -0.167247 -0.116568 0.051918 0.157312 -0.036163 0.200795 -0.229606 -0.065933 0.162294 -0.184801 0.136884 0.146173
asked -0.253922 -0.000810 0.032359 -0.209105 -0.072276 0.036756 0.036546 0.245322 -0.185247 -0.128479 -0.060147 0.152610 0.128437 -0.096648 0.093087 -0.065366 -0.094476 -0.001604 0.210105 0.145187 -0.053542 -0.079380 0.233395 0.099838 -0.068777 0.201321 0.135480 -0.048022 0.008791 0.008699 -0.140783 -0.279396 -0.142042 0.000663 0.169125 0.069156 -0.102999 0.087005 0.021712 -0.165477 -0.063628 -0.109789 0.386518 0.162822 0.017614 -0.085454 0.157987 -0.256359 -0.055914 0.037120
took -0.107845 -0.142278 -0.014319 0.001819 -0.079893 -0.187652 -0.081488 0.165782 -0.117988 -0.007908 -0.018055 -0.105899 0.174203 0.241817 0.204784 0.207538 0.042102 0.081918 0.020010 0.030008 0.110821 -0.164309 -0.050328 -0.122497 -0.012324 0.030463 -0.027352 0.021420 -0.043303 -0.081314 -0.128842 -0.033286 0.099870 -0.347362 -0.168551 -0.175754 0.267202 -0.109757 -0.000994 -0.107432 0.181810 0.114022 -0.132482 0.005937 0.227072 0.052600 -0.093155 0.368655 -0.070174 0.212915
door 0.030010 -0.127591 -0.026045 -0.052518 0.004401 -0.024230 0.075188 0.131624 -0.046016 -0.064925 -0.082008 0.017454 -0.087104 -0.217681 0.024414 0.304042 0.388741 -0.036600 0.090541 -0.034211 -0.052439 -0.004315 -0.112125 0.075606 0.219040 -0.184620 -0.181907 -0.113608 0.056353 0.108211 0.035927 -0.075085 0.179753 -0.166621 -0.124234 0.166712 -0.146770 -0.096355 -0.069132 -0.144686 -0.418276 -0.098261 0.060609 0.150579 0.037386 -0.120419 0.021419 -0.074919 0.260868 -0.028474
why 0.064751 0.127906 0.086368 -0.014244 0.166984 -0.054183 0.132630 0.148504 0.036687 0.195695 0.001948 -0.058121 -0.013920 0.141048 0.083898 -0.396646 0.183836 0.212522 0.167717 0.009579 -0.114936 0.067631 -0.214946 0.008717 -0.128675 -0.199639 -0.047682 -0.011478 -0.251456 -0.118614 0.005159 -0.117864 -0.057333 0.146600 0.102392 -0.359019 -0.032550 -0.169086 0.061046 0.192845 -0.149991 -0.173268 0.072453 0.019040 -0.064638 0.106974 -0.106373 -0.139406 0.082072 -0.081243
under -0.049764 -0.093606 0.231254 -0.044864 0.042534 0.213429 0.017126 0.082626 0.082354 -0.154265 -0.053424 -0.100608 -0.037174 0.259132 -0.253628 0.134841 -0.095954 0.176280 0.001404 -0.252559 0.051916 0.060858 0.159451 0.046074 -0.013513 0.013584 0.381221 0.034671 -0.062830 0.228515 0.066860 0.239864 0.061969 0.158476 -0.117365 -0.035155 -0.052399 0.031553 0.061308 -0.158727 0.043588 -0.173036 0.046881 -0.008821 0.093606 -0.192245 -0.216380 0.086509 0.237632 0.117394
found 0.148946 0.028558 -0.010255 0.008635 0.301265 0.077144 0.144110 -0.060645 0.263306 -0.042444 -0.167466 -0.120790 0.210096 0.085592 -0.083657 0.029582 0.114843 -0.173846 0.110866 -0.233781 0.052457 -0.166150 0.058930 -0.108573 0.136319 0.027087 0.064057 0.101125 -0.065964 -0.133356 -0.004072 0.213492 -0.203700 -0.185921 -0.140291 0.309847 0.044612 0.101120 -0.126295 0.092349 -0.341845 0.077692 -0.037732 0.174812 -0.064280 -0.056575 0.005996 0.185779 -0.000139 0.000295
ever 0.073059 0.144611 -0.089671 -0.157193 -0.118731 -0.135362 0.251977 -0.171294 -0.021722 -0.117985 -0.200988 0.104405 0.172584 0.244794 -0.198790 -0.025410 -0.120915 -0.225288 -0.053702 0.128923 0.142538 -0.039094 0.127553 -0.105514 -0.146094 0.096681 -0.028855 -0.061758 0.037784 0.310969 0.129904 -0.166433 0.040216 -0.001732 0.074378 0.062345 0.019404 0.077615 -0.157050 0.082319 -0.096445 0.247070 -0.213422 -0.183704 0.089744 0.241015 0.104614 -0.077875 0.048678 -0.154824
night 0.092170 -0.271827 0.056430 0.026141 0.163095 0.126286 0.214486 -0.055644 0.057577 0.107726 0.021612 -0.129175 0.163126 -0.174876 0.139523 -0.200846 -0.023715 -0.012563 -0.142788 -0.061872 0.219871 0.262866 -0.069604 0.136807 -0.167856 0.046435 -0.011562 -0.001146 -0.083247 0.068836 0.118792 0.015755 -0.071488 -0.147103 0.241786 -0.128652 0.115167 0.253389 0.105896 0.017246 0.008261 0.022627 0.143796 0.076888 0.241730 -0.219804 -0.087896 0.029308 0.293507 0.176592
always 0.016711 -0.185998 -0.076893 -0.084723 -0.096166 0.274915 0.193727 -0.002756 -0.132004 -0.011652 -0.164164 0.200326 0.133070 -0.223671 0.100786 -0.031691 0.255046 -0.065774 0.007113 0.102234 0.043706 0.090027 0.030343 -0.066561 -0.088319 -0.024816 -0.042010 0.111701 -0.236366 -0.277547 -0.185132 0.068305 -0.156584 -0.281856 -0.089640 0.096816 0.025372 0.140152 0.023326 0.150924 0.006423 0.050698 0.254243 -0.274251 0.010976 -0.010127 0.075316 0.177251 -0.176534 0.021194
right 0.173622 -0.295573 -0.017583 0.041438 0.131628 -0.048230 -0.031101 0.125447 0.378359 -0.211891 0.174501 0.249432 -0.076367 -0.036789 0.113466 0.119365 0.024926 -0.004068 0.180290 0.014856 -0.063718 0.185833 -0.100474 -0.124912 -0.129868 0.019570 -0.013340 -0.202901 0.191029 0.084805 0.051942 0.154403 0.103849 0.188882 0.100215 0.137490 0.050487 -0.012208 -0.198854 0.072680 -0.155385 0.185330 0.042883 0.183814 0.101135 -0.112620 0.198976 -0.108735 0.039420 -0.098251
father 0.002599 -0.179944 0.184081 -0.122623 0.052388 -0.088290 0.229482 0.023150 0.011436 -0.008172 0.060529 0.053339 0.204156 -0.122393 -0.191010 0.330408 0.001218 -0.060885 -0.110109 -0.164770 0.166037 0.119335 -0.110240 0.100398 -0.137037 -0.040399 -0.121206 0.109316 -0.008867 0.054887 0.261755 0.036571 0.338926 -0.235518 -0.101989 -0.044227 0.152729 -0.017317 0.132774 0.211068 -0.108361 -0.029327 0.111216 0.010013 0.003800 0.213618 -0.147628 -0.204234 -0.083891 -0.095417
whom 0.047206 -0.050295 -0.199363 -0.008036 0.215438 -0.140081 0.149603 0.114557 0.266993 -0.120656 -0.298521 -0.031293 -0.091695 0.016248 -0.096931 0.073181 -0.071967 0.005698 -0.143288 0.010744 -0.018751 0.041297 -0.049927 0.174482 -0.040209 0.046725 -0.030432 0.207760 -0.057378 -0.061083 0.247392 -0.129243 0.052577 0.164054 0.123806 0.016385 0.246329 -0.156975 -0.137705 -0.177856 0.154934 -0.070776 -0.214790 0.076050 0.200086 -0.223486 0.124423 0.057835 -0.282265 -0.101281
something -0.181404 0.114446 -0.152498 0.067562 -0.069126 0.013327 -0.090001 0.149726 -0.214368 0.048300 0.118077 -0.092665 0.003401 -0.032846 0.060900 0.172759 -0.057478 -0.217482 -0.089226 0.092840 0.106482 -0.184739 0.164560 -0.032437 0.067323 -0.005162 -0.036539 0.129366 -0.309640 -0.138620 0.234958 0.217557 -0.250885 -0.012049 0.061313 0.309220 0.016258 -0.012633 0.108251 0.162867 -0.043711 0.149186 0.180309 0.100111 0.191742 0.232184 -0.159497 0.005659 -0.138452 -0.032422
dear -0.358101 -0.063936 -0.096549 0.046345 0.138505 -0.071045 -0.078758 0.068807 0.046764 -0.255999 -0.010390 0.048491 -0.296243 -0.091764 -0.036355 0.093595 0.037455 0.061013 -0.035101 0.011103 -0.026660 0.069599 -0.071631 -0.021007 -0.217517 0.341955 0.124378 0.271099 -0.073222 0.001402 -0.154636 -0.117777 0.023877 0.050912 0.169417 0.044221 -0.094775 0.086165 0.203690 0.016205 -0.008954 0.063387 -0.195176 0.053318 0.113799 -0.118814 -0.169428 0.257397 -0.214361 -0.160117
because 0.257028 0.014435 -0.188902 -0.028264 -0.175971 0.011983 -0.225450 0.075040 -0.167103 0.053774 -0.184983 0.155840 -0.286588 0.091417 0.027872 0.020548 -0.053998 0.000399 0.166284 0.107796 0.181185 0.203302 -0.043341 0.059040 0.018247 -0.118498 0.035225 0.081207 -0.008181 -0.019325 -0.147524 -0.027979 -0.278215 0.053207 0.331626 0.029085 0.256447 -0.116448 0.098316 -0.063451 -0.183923 0.084210 0.116781 -0.116609 0.142082 -0.010893 0.125131 0.145589 -0.120695 0.194438
having 0.016423 0.177839 -0.075388 -0.036973 0.022013 -0.093756 0.064692 0.110138 0.184372 -0.189208 -0.034990 -0.052641 -0.129151 0.155531 -0.090042 0.142774 -0.147735 -0.031183 -0.139990 -0.143232 0.141984 -0.160644 -0.015948 -0.032938 0.006119 -0.133173 0.223992 -0.256032 0.052289 0.200126 0.058376 -0.294169 -0.065281 -0.287107 -0.161864 0.057850 0.207274 -0.234338 -0.095022 0.169976 -0.085329 0.040409 -0.004053 -0.301820 -0.077031 -0.093957 -0.129690 -0.161671 -0.077861 -0.002346
dont 0.130830 0.184482 0.017600 0.031797 0.063973 0.005441 0.163759 -0.087849 -0.148114 -0.043555 0.059299 0.080742 -0.211989 -0.083305 0.118467 -0.058593 0.064511 0.032556 0.180624 -0.245519 0.032546 -0.008161 0.186301 -0.117693 -0.206089 -0.223719 0.197567 -0.012007 0.029998 0.009413 0.057962 0.015644 0.033811 0.256616 -0.204238 -0.053641 0.005079 -0.024411 -0.003366 0.118512 0.000940 -0.066904 0.146522 -0.173970 -0.266221 -0.089383 0.271143 0.262535 -0.311641 0.143692
give 0.036412 0.020185 -0.250125 0.033832 0.134758 -0.183642 0.175058 0.211960 0.016936 -0.183083 -0.014527 0.059314 -0.068401 0.096333 -0.056084 -0.108907 -0.091207 -0.089064 0.319683 0.025570 -0.015435 -0.046924 0.018807 0.036294 0.144289 0.365440 0.011501 -0.187852 0.194928 0.052059 -0.106035 -0.007619 -0.089571 0.157540 0.175541 0.259691 0.257355 -0.165215 0.203780 0.063258 0.018400 -0.044526 -0.067479 -0.044020 -0.049839 -0.002797 0.029628 0.290169 -0.052330 -0.079528
round 0.022465 0.209475 -0.306303 0.062028 -0.311498 0.089546 -0.223074 -0.219385 0.031742 -0.000940 -0.111702 0.097902 -0.030818 -0.008511 0.023138 -0.156843 -0.012025 0.136216 -0.043828 -0.124529 -0.292017 0.144290 0.191818 -0.148916 0.333485 0.152253 0.047846 0.027667 -0.125992 0.111013 0.125595 0.035741 -0.157366 -0.162970 -0.188514 0.196916 0.039202 -0.083011 -0.136932 -0.019568 -0.099176 -0.041893 0.044203 -0.011506 0.012330 0.110471 0.152256 0.073407 -0.103370 0.058316
place 0.094175 0.033407 0.056534 -0.022875 -0.039451 0.167757 -0.083931 0.228199 -0.483531 -0.113623 0.149504 -0.322602 0.095486 0.071335 0.157078 0.051082 -0.085522 0.031198 -0.157911 0.062725 0.135596 0.045453 -0.117932 0.049809 0.001338 0.154475 0.143488 -0.208548 0.130903 0.113860 0.028141 -0.052084 -0.083261 0.012973 -0.087499 -0.123608 0.095847 -0.055752 -0.185681 -0.139650 0.048014 0.184072 -0.115474 -0.147930 -0.273091 -0.035484 0.080105 0.040293 0.147992 -0.117513
three -0.173607 0.146100 0.075967 -0.016286 0.261083 -0.245994 0.021640 -0.013328 0.056529 0.040036 -0.157727 0.227179 -0.049358 0.061764 -0.091697 0.061229 0.223585 0.015735 0.258801 0.122915 -0.080363 -0.121808 0.077161 -0.188953 0.327465 -0.137810 0.125557 -0.172196 0.025037 0.099103 0.027700 0.003163 0.050108 -0.195336 0.074241 -0.185391 0.117862 0.119601 -0.273482 0.091865 0.113201 -0.023056 -0.213705 -0.150642 -0.099672 -0.197213 -0.005968 0.059997 -0.007858 0.095440
chapter 0.072256 0.000415 -0.028972 0.252461 0.019542 -0.109350 -0.108362 0.075546 0.107841 -0.098810 -0.139113 -0.150915 -0.012747 0.094785 0.054442 -0.114042 0.014081 -0.101906 -0.203456 0.159712 -0.097498 -0.081790 -0.059260 -0.051243 -0.151421 0.019820 -0.391322 0.312699 0.192693 -0.081185 -0.143342 0.026599 -0.100643 0.080583 -0.036222 -0.024254 0.311875 0.070377 -0.017019 0.081654 -0.079136 0.015542 0.027418 0.057612 0.052846 0.113516 0.216714 -0.026038 0.211698 -0.355438
quite 0.125475 -0.255760 0.077396 0.240186 -0.086846 -0.179535 0.152818 0.010826 -0.071823 -0.103656 0.061666 0.004963 -0.099110 -0.056101 -0.210878 0.045814 0.239689 -0.344624 0.121519 0.068334 0.015839 -0.216503 0.088040 -0.142631 0.082104 -0.018063 -0.020236 0.025240 -0.041242 0.106580 0.071489 -0.259191 0.099157 0.044368 -0.113181 -0.160268 -0.085315 -0.051164 -0.132452 0.095763 0.183505 -0.219431 -0.045440 -0.138641 0.212194 0.114918 0.246829 -0.086829 0.150526 0.094519
whole 0.059177 0.126850 0.136007 0.009245 0.258599 0.066633 -0.194593 -0.203882 -0.021985 0.207725 0.177486 0.128518 0.184574 -0.028782 0.015974 -0.152299 -0.099348 -0.077095 -0.046886 0.089224 0.152860 0.162814 -0.111524 -0.111843 -0.078743 0.100207 -0.047615 0.365091 0.083902 0.107537 0.084200 0.274062 0.012368 -0.045036 -0.026285 -0.027813 -0.154374 0.205804 -0.028089 0.066971 -0.176549 -0.088972 -0.051780 0.200400 -0.295172 -0.160569 -0.099826 -0.011842 0.158241 -0.050877
people -0.334549 -0.056444 0.021638 0.196188 0.186953 0.139403 -0.079513 -0.287502 -0.052394 -0.140331 -0.001236 0.031324 0.059792 0.296293 0.103436 0.057479 0.224832 -0.149369 -0.029920 0.026721 0.031235 0.031711 -0.011358 -0.033983 0.043486 0.044047 -0.121233 -0.102571 0.126087 0.068706 -0.261875 0.130338 -0.020834 0.017859 0.159989 -0.103948 -0.209137 -0.278328 0.131674 0.135283 0.188196 -0.067525 0.110848 0.006939 -0.137959 0.093023 0.172882 -0.050098 0.140134 0.186376
seen 0.094486 0.064161 -0.072111 0.260285 -0.148845 -0.064956 -0.116402 -0.081713 -0.066777 0.185883 -0.149844 -0.139489 0.072297 0.101390 -0.059293 -0.209883 -0.073927 0.222648 -0.049716 0.072131 -0.086173 -0.141323 0.138504 -0.124926 -0.172008 -0.375217 0.085853 0.167783 -0.152743 0.101243 0.028992 -0.016464 -0.100269 -0.225542 -0.012635 0.035587 0.241431 -0.210618 0.070650 -0.108179 0.150500 0.102770 -0.212367 0.092894 -0.217142 -0.037643 -0.024683 0.067160 0.122261 -0.143706
mind -0.079242 -0.012265 0.064237 0.013987 -0.146110 0.111841 0.056481 -0.019175 -0.099742 -0.272096 0.183562 0.109160 0.149753 -0.083788 0.047989 0.086159 0.238560 0.248866 -0.096421 -0.179118 -0.223626 -0.006596 -0.128067 0.133451 -0.149005 -0.129419 0.261434 -0.060824 0.067701 0.112133 -0.233244 0.206929 -0.233226 -0.030670 -0.094972 0.049001 -0.043052 -0.056972 -0.035472 0.081584 0.064850 0.157215 -0.063848 -0.108136 0.280806 -0.219682 0.084156 -0.048309 0.217239 -0.070512
oh 0.032358 -0.026821 0.137095 -0.164221 0.069921 0.167305 0.148597 0.159639 -0.030486 -0.023474 0.051303 0.071876 0.151711 -0.078076 0.009169 0.014085 0.215812 -0.252781 0.275883 -0.180098 0.064516 0.191056 0.244808 0.003447 0.143606 0.160907 -0.149741 0.046220 0.116103 -0.066593 -0.093458 0.143013 0.039445 -0.050486 0.117339 0.078971 -0.099936 0.082448 0.009153 0.113524 0.097189 -0.084552 0.173625 -0.192538 -0.197896 -0.010829 0.327952 0.282981 -0.093643 -0.148973
felt 0.046445 0.113357 0.079015 0.144123 -0.208703 -0.021364 0.030284 0.054691 0.015707 -0.074900 -0.243529 0.295139 0.116261 0.135010 0.023446 -0.077865 0.099562 0.151724 0.158560 0.014860 -0.040699 -0.040568 0.142608 -0.292531 0.168754 -0.097567 0.145685 0.080486 -0.218217 -0.114706 -0.015449 0.267320 -0.138240 -0.036685 -0.049511 0.084488 -0.168953 -0.068040 -0.116583 -0.044504 0.011686 0.051582 0.250165 -0.157827 -0.198588 -0.245358 0.070695 -0.202446 0.086025 -0.177891
pierre 0.016087 0.223105 -0.132794 0.175130 -0.058085 0.053855 -0.140477 -0.137251 0.034835 -0.013809 -0.084861 -0.181858 -0.300067 -0.010686 0.169899 -0.263517 0.130705 -0.093729 -0.113240 0.037019 -0.020893 0.164037 0.074647 0.005305 0.170901 0.044186 -0.160145 0.025688 0.008947 -0.094448 -0.163491 0.130611 0.104777 0.159308 -0.365579 0.049217 -0.147719 -0.007839 0.168319 0.069367 0.046441 -0.116903 0.110500 0.085077 0.041887 0.348669 0.126894 -0.159196 0.044722 0.117978
put 0.248257 -0.032375 0.180033 -0.144196 0.123918 0.182706 -0.108370 0.115317 -0.204263 0.015764 0.062862 0.300636 0.181201 0.087584 -0.057659 0.087267 0.124147 0.166726 0.019977 -0.076493 0.082305 0.063809 -0.177274 -0.156620 -0.049947 0.135752 0.048090 0.117721 0.107507 -0.058189 -0.021812 -0.027092 -0.080432 -0.074985 -0.113753 -0.050065 0.208662 0.156649 0.132809 -0.079654 0.030087 0.123167 -0.075395 -0.116702 0.275626 0.194703 0.066507 -0.192512 -0.368869 -0.081479
replied -0.006523 -0.056984 0.028566 0.065429 -0.164696 0.120467 -0.253376 0.069244 0.053649 -0.099483 -0.118999 -0.000410 0.078618 -0.204399 0.040065 -0.140719 -0.076185 -0.034015 -0.224977 0.098421 -0.296405 -0.022142 -0.097509 -0.103211 0.022907 -0.169947 0.048060 0.047115 0.019266 0.173599 0.076267 -0.130418 -0.147251 -0.211405 -0.364996 0.362309 -0.000696 -0.011709 0.194702 0.158971 -0.052926 0.158155 -0.115546 -0.220953 -0.029095 0.097063 0.141574 -0.035471 0.048555 0.059537
nor 0.244170 -0.068772 -0.140917 -0.015475 -0.080543 0.016764 0.033502 -0.025554 -0.093420 -0.011875 0.064894 -0.287795 0.045394 -0.046828 0.027294 0.019753 0.057572 0.051360 -0.167234 -0.029890 -0.043783 0.110805 0.060277 0.011829 -0.071267 -0.044652 0.037161 -0.101489 -0.025761 0.096700 0.199691 -0.016537 0.364039 -0.054928 0.025349 0.087861 -0.227468 -0.023353 -0.082451 -0.071933 -0.259852 -0.075365 0.061685 -0.099094 -0.139589 0.508151 0.206328 -0.255671 -0.047112 0.034138
moment 0.148348 -0.036325 0.197680 0.091419 -0.026299 0.139057 0.252734 0.126069 0.046862 -0.090838 0.046590 0.293742 -0.177133 -0.034699 -0.106266 -0.053616 0.110342 0.073192 0.060654 -0.037449 0.017008 0.106098 -0.077595 -0.128682 -0.002685 0.002157 -0.199561 0.356089 -0.155560 0.010480 -0.096038 -0.037792 0.103466 -0.022127 0.168013 0.067782 0.324879 -0.053346 -0.036317 -0.138102 0.086351 -0.172575 0.149498 -0.043866 0.105928 -0.268486 0.167227 0.117396 -0.069399 0.247401
began 0.256494 0.060192 0.217333 -0.107348 0.163434 0.148240 -0.223721 0.113853 0.028050 -0.127754 -0.151714 0.126231 -0.160293 -0.053994 0.115745 -0.180547 -0.234048 -0.025939 0.254010 -0.135732 -0.048125 0.022058 0.203865 0.069606 -0.082378 0.073673 0.134146 0.330002 0.088333 0.170355 0.072657 0.204845 0.041650 0.061764 -0.217229 0.004749 0.051474 -0.028811 0.178276 0.127894 0.060415 -0.065462 -0.107850 0.010449 -0.033534 -0.124173 -0.047112 -0.025888 0.112931 -0.249834
hands -0.088091 -0.060045 0.189669 -0.121038 -0.038212 -0.133729 -0.054806 -0.119832 -0.025044 0.042444 -0.051655 -0.126426 -0.153214 -0.013452 0.132429 0.116936 0.047707 0.153193 -0.121022 0.242134 -0.214084 -0.077715 -0.073376 0.081468 -0.126155 -0.020389 -0.030136 0.271541 -0.221414 0.016465 -0.132526 0.303093 -0.328459 -0.008275 0.181398 -0.189383 0.135342 0.158904 0.050255 -0.261628 0.080297 0.179527 -0.145960 -0.151310 0.087133 0.141884 -0.073006 0.064819 0.031870 0.018204
thus 0.146422 -0.085712 -0.197158 0.100357 0.224549 0.217966 -0.050223 -0.022592 0.052664 -0.165117 -0.034321 -0.226449 -0.145866 0.033247 -0.100270 -0.038625 -0.076074 0.088286 -0.021988 -0.130717 0.065542 -0.026702 0.181010 -0.227147 -0.075652 -0.057808 -0.243480 0.125357 0.131549 0.049131 -0.258490 0.179586 0.088995 -0.124137 -0.120073 -0.015479 0.134359 -0.035892 -0.043155 -0.028420 -0.048743 -0.026510 0.105398 -0.069896 0.173374 -0.068049 0.344552 -0.088710 -0.012502 0.375504
