1200 10
<pad> -0.059260 0.317820 0.431626 -0.501299 0.113979 -0.058503 0.057847 -0.411287 0.293793 0.427370
<start> 0.256123 -0.197298 0.087512 0.818044 -0.233544 0.146457 0.236677 0.009408 0.016302 0.293696
<end> -0.160683 0.367260 0.181316 -0.364590 0.554448 0.094899 -0.059750 -0.225746 -0.427540 -0.346064
<unk> -0.153801 -0.204041 -0.354727 0.023505 -0.051348 -0.056192 -0.289892 0.341647 -0.620892 -0.463119
the 0.294223 0.430559 -0.590194 -0.322755 -0.147895 0.433306 0.123018 -0.019720 0.159291 -0.158207
and 0.308577 0.193855 0.067507 0.441833 0.240628 0.096553 0.710632 -0.116586 -0.155456 -0.156494
of 0.145603 -0.023567 0.445517 0.305429 0.290041 -0.107575 0.422220 -0.299514 -0.270845 -0.499440
to 0.139210 0.151874 0.173910 0.703668 0.475215 0.093907 0.156010 -0.391862 -0.040011 -0.134231
a 0.347327 0.415561 -0.616831 -0.113081 -0.111931 0.476946 0.065561 -0.085312 0.244285 -0.046329
in 0.209764 -0.034265 0.372128 0.363855 0.327737 -0.036261 0.221503 -0.428432 0.004806 -0.583929
i 0.238461 0.347361 -0.149057 0.703256 -0.058288 0.026047 -0.378372 -0.041946 0.372073 0.133357
he 0.448169 0.093852 -0.134154 0.661599 -0.276954 0.097092 -0.402856 0.016810 0.256129 -0.142296
that 0.180670 -0.269542 -0.143937 0.671028 -0.116563 0.447539 0.291153 0.259107 -0.168927 0.170567
his 0.227218 0.418004 -0.683637 -0.162898 -0.034746 0.250203 -0.007506 -0.081247 0.374729 -0.262415
was 0.161442 -0.549974 -0.435705 0.170568 0.499220 -0.101060 0.402050 0.137078 -0.090694 -0.064628
it 0.255995 -0.147139 -0.303448 0.515768 -0.277588 0.413899 -0.453644 0.267547 0.168061 0.025825
you 0.122754 0.346954 -0.248789 0.596341 -0.052571 -0.042366 -0.492442 0.126506 0.419850 0.085062
with 0.193887 0.092519 0.189782 0.434403 0.468230 -0.046864 0.306056 -0.336577 -0.135270 -0.530569
is 0.095445 -0.603241 -0.321386 0.417329 0.472357 0.060076 0.287754 -0.016368 -0.163519 0.111636
as 0.134310 -0.383484 -0.193871 0.714920 0.400249 0.258675 -0.063277 0.232830 0.017200 0.024145
not 0.123974 -0.148964 -0.165064 0.823506 0.034407 0.217488 -0.108868 0.284044 0.195467 0.278874
for -0.105077 -0.157877 0.078102 0.591814 0.615842 0.148123 0.401927 -0.081773 -0.182490 -0.068961
had 0.041041 -0.407198 -0.160267 0.449397 0.638364 0.090339 0.358541 0.081681 0.218296 0.078035
but 0.316089 -0.196256 -0.082754 0.700151 0.074579 -0.086665 0.510966 0.261812 0.024442 0.144933
at -0.016243 -0.180505 0.169867 0.548184 0.184137 -0.011153 0.514738 -0.521701 -0.088321 -0.239798
be -0.276998 0.092038 -0.622495 0.186807 0.180736 -0.142396 -0.190621 0.353402 0.515750 0.110609
on 0.249080 -0.022924 0.368853 0.458576 0.303020 -0.146210 0.243018 -0.374813 -0.259657 -0.456926
her -0.047851 0.369028 -0.798579 -0.014788 -0.085517 0.201036 -0.226209 -0.106813 0.256900 -0.214057
my 0.377325 0.367869 -0.659419 0.024033 -0.187762 0.316696 0.011865 -0.042865 0.366987 0.119055
him -0.268582 0.126442 -0.561923 0.042663 0.053254 -0.144644 -0.352155 0.419596 0.351244 -0.383330
have -0.182403 -0.135903 -0.224777 0.523983 0.408899 -0.100611 0.248550 0.253490 0.214790 0.522465
by 0.154912 0.089878 0.229228 0.471218 0.320863 0.066273 0.369025 -0.339789 -0.139645 -0.560275
this 0.302390 0.087396 -0.577726 0.077117 -0.235551 0.688656 -0.025895 0.101850 0.141024 -0.018910
which 0.029247 -0.116963 -0.196323 0.512777 -0.247838 0.303259 0.484599 0.383618 -0.173531 -0.340520
me -0.320121 0.207897 -0.676475 0.291648 0.140321 -0.175644 -0.297024 0.289908 0.295971 -0.029510
all 0.127224 -0.295559 -0.555419 0.124341 0.282670 0.128539 -0.217117 -0.093087 -0.644596 -0.043066
said 0.148565 -0.577347 0.211421 0.492524 0.194072 0.161200 0.522428 0.018385 -0.119147 0.074515
she 0.513738 -0.112160 -0.237649 0.535543 -0.129585 0.029916 -0.308537 0.068743 0.504421 -0.090298
from 0.181050 0.140427 0.197322 0.398719 0.465773 -0.191112 0.244997 -0.243508 -0.250296 -0.559297
or 0.049391 0.372518 -0.010304 0.230878 0.362440 0.369000 0.497658 -0.192698 -0.192136 -0.417249
they 0.199257 0.380058 -0.380408 0.501679 0.010349 -0.150122 -0.526550 -0.302770 0.088670 0.140570
so 0.148941 -0.163607 -0.346033 0.759563 0.179192 0.282844 -0.280569 0.231454 0.089582 0.042784
are -0.258157 0.008561 -0.318696 0.608766 0.393958 0.157646 0.267660 -0.061673 -0.038243 0.451706
one 0.049385 -0.309899 -0.450418 -0.279552 -0.390158 0.329880 -0.244427 0.248167 -0.392391 -0.277126
were -0.122913 0.016525 -0.513759 0.626101 0.088385 -0.181116 0.477153 0.127559 -0.165113 -0.121120
what -0.068023 -0.250798 -0.220333 0.711654 -0.072927 0.209182 -0.066879 0.242214 0.257829 0.445518
when 0.133167 -0.277017 -0.290005 0.784004 0.244790 -0.215533 0.083203 0.111935 -0.252832 0.130422
no 0.149162 0.118453 -0.570130 0.417960 -0.413847 0.010429 0.240697 0.152522 0.344314 0.304702
if -0.133051 -0.440134 -0.271405 0.633908 0.304003 0.069311 0.156640 0.180522 0.133134 0.375161
there -0.021456 -0.163537 -0.024290 0.593306 -0.452946 0.466205 -0.423648 -0.038115 0.128630 -0.002437
who 0.155086 0.216694 0.069209 0.701434 0.052207 0.334725 -0.411740 0.132916 0.088873 -0.348474
we 0.084225 0.543154 -0.188066 0.591393 -0.282897 0.132963 -0.399023 0.025083 0.114103 0.205420
will -0.143706 -0.147380 -0.156233 0.661418 0.463771 0.113142 0.233645 0.012753 0.043070 0.459622
an 0.327475 0.449267 -0.643835 -0.115736 -0.090283 0.450453 -0.025305 -0.013043 0.123160 -0.187431
then -0.290870 -0.590776 -0.482126 0.348960 0.192490 -0.062764 0.075800 0.027706 0.051178 -0.202178
their 0.395700 0.464734 -0.611523 -0.108786 0.081168 0.258597 -0.029437 0.108888 0.227454 -0.321889
would 0.187976 0.066292 -0.048969 0.722720 0.526155 0.055177 -0.019444 0.247701 0.008595 0.306302
them -0.256220 0.145924 -0.697188 -0.029929 0.097060 0.122369 -0.561190 0.215731 0.110662 -0.167258
been -0.059113 0.389295 -0.449655 0.529885 -0.324920 -0.100405 -0.342285 0.310638 0.173955 0.049175
do -0.254974 -0.057757 -0.199421 0.456091 0.240883 -0.133390 -0.082260 0.231224 0.239036 0.699798
your 0.265681 0.367805 -0.710128 0.043814 -0.075998 0.375735 -0.022156 0.138906 0.343529 -0.043651
now 0.050158 0.007130 -0.387709 0.155356 0.212122 -0.399729 -0.143902 0.408371 0.073409 0.222392
out 0.195133 -0.185519 -0.186665 -0.017884 -0.301246 0.457545 -0.443161 -0.079218 -0.589232 -0.204910
more 0.355003 0.258094 -0.249657 0.350201 -0.032240 0.113403 -0.455856 -0.256427 -0.472514 0.126911
up -0.230433 -0.078374 -0.102827 0.308156 0.260165 0.212681 -0.600721 0.196773 -0.088405 -0.560914
man -0.177385 -0.536133 -0.033747 -0.115722 -0.069078 -0.221259 0.205500 0.257184 -0.563243 -0.371371
into 0.091486 -0.147695 0.301370 0.327667 0.400635 0.065929 0.189515 -0.396248 -0.428026 -0.478261
some 0.371161 0.066504 -0.670848 -0.301466 0.186996 0.491184 -0.018260 -0.030806 0.048732 -0.188039
could -0.001482 -0.371220 -0.411186 0.514624 0.069644 -0.089725 0.386587 0.248510 0.383051 0.239678
has -0.205469 -0.190652 -0.254985 0.339082 0.805782 0.109078 0.276131 -0.055116 0.003660 0.027428
only 0.154300 -0.268925 -0.413934 0.538497 -0.366547 -0.409628 0.294156 0.209619 -0.097383 -0.021162
any 0.391091 0.237697 -0.527925 -0.275375 -0.004317 -0.002939 0.143851 0.263583 0.539235 -0.234281
very -0.145014 -0.186489 -0.052239 0.243640 0.318506 0.715387 -0.336715 0.211108 -0.171604 -0.242698
like 0.004180 -0.283395 -0.073634 0.542661 0.038442 -0.056196 0.508658 0.484813 -0.146082 -0.316023
did 0.033799 -0.126768 -0.080003 0.553051 0.322379 -0.041719 0.099577 0.290756 -0.028085 0.685281
time -0.158387 -0.243947 0.148802 -0.070055 0.000341 -0.154734 -0.627074 0.503330 -0.326911 -0.318414
its 0.295473 0.655252 -0.570911 0.030789 -0.082732 0.003556 -0.019585 -0.001625 0.005396 -0.386239
than -0.190640 0.276188 -0.114383 0.112976 0.293102 0.150582 0.765879 0.259376 -0.224659 0.088912
other -0.277698 -0.471858 -0.066002 -0.195196 -0.409650 0.084847 0.130546 -0.145488 -0.582598 -0.321240
before -0.230711 -0.208310 -0.175481 0.410196 0.471110 0.022219 0.265570 -0.254195 -0.485674 0.330969
about 0.015562 0.145869 -0.298103 0.086416 -0.289871 -0.123724 0.333699 0.283598 -0.236303 0.045368
see -0.648782 -0.116450 -0.072728 0.416777 0.151574 -0.324512 -0.139818 0.299380 0.203052 0.328189
such -0.056345 0.388599 -0.102426 0.154515 0.315910 0.429582 0.047868 0.696794 -0.132972 -0.144080
must -0.040394 -0.085241 -0.358739 0.598321 -0.141102 -0.219630 0.283223 -0.335214 -0.146264 0.470849
know -0.239382 -0.237000 -0.076116 0.450060 0.075470 -0.236657 0.050066 0.302614 0.057823 0.720376
should -0.104633 -0.219205 -0.173162 0.663168 0.447243 0.312576 0.111952 0.175641 0.094877 0.348008
may 0.186040 0.121182 -0.386881 0.478369 0.404493 -0.068268 -0.186126 -0.254269 -0.091912 0.416073
how -0.345576 0.104071 -0.106301 0.503769 -0.062050 -0.129799 0.343903 0.433406 0.523077 0.064577
well -0.142337 0.083876 -0.083363 0.822784 -0.173259 0.181489 -0.241372 0.131295 0.122413 0.367602
our 0.259648 0.138466 -0.652770 0.024923 -0.271285 0.503968 -0.067440 0.048756 0.046782 -0.387281
can 0.351620 0.052689 -0.072343 0.602192 0.283193 -0.229349 0.079754 0.303529 0.110036 0.511913
little -0.254354 -0.456313 -0.055398 0.095920 0.217943 0.546218 0.269954 0.210853 -0.381633 -0.325395
am 0.044709 -0.350835 -0.365936 0.315008 0.100063 -0.127678 0.228249 0.322586 0.120176 0.666559
these -0.081718 0.550539 -0.464631 -0.130807 -0.037828 0.537451 -0.058323 0.041716 -0.049709 -0.398503
upon -0.048684 -0.337966 -0.122944 0.368005 0.595669 -0.353712 0.298050 -0.081097 0.080683 -0.388432
down -0.043989 -0.186418 0.235085 -0.386396 0.243144 0.260192 0.215729 0.165420 -0.380387 -0.030489
two 0.203503 0.195936 -0.207413 -0.075095 0.197248 0.193856 -0.272960 -0.507529 -0.666674 -0.057860
over 0.253001 -0.378311 -0.152183 0.225131 0.399994 -0.269863 -0.276022 -0.172363 -0.445162 -0.322703
us 0.161545 0.501545 -0.235584 -0.213059 -0.108924 -0.087439 0.345970 0.681777 -0.079140 0.097278
after 0.182923 -0.038828 0.577531 0.108787 0.238206 0.373518 0.252788 -0.306871 -0.054891 -0.260413
himself 0.030050 -0.205165 -0.565701 0.024362 -0.083893 -0.017117 -0.093757 0.150984 0.433670 -0.511307
old -0.141556 -0.152275 0.400586 0.074545 0.009912 0.552055 0.033924 -0.436121 -0.167599 -0.183542
again 0.264333 0.280872 -0.161495 0.535822 -0.057912 -0.579654 -0.294432 0.183635 -0.277382 0.000548
shall 0.152244 -0.038061 -0.054289 0.304070 0.630969 -0.204858 0.066285 0.229673 0.005247 0.618630
first -0.367308 -0.516174 0.335305 0.021023 -0.190391 0.089409 0.213031 0.221687 -0.153141 -0.564151
come -0.446995 -0.130478 -0.344197 0.129709 -0.018014 0.135155 0.056647 0.606116 0.066853 0.503752
where -0.022833 0.019425 -0.021961 0.433206 0.437235 -0.274600 0.319250 0.264336 -0.544990 -0.063339
mr 0.550068 -0.375097 -0.266353 -0.068616 0.057082 0.154576 0.648316 -0.070826 0.052401 -0.159787
good -0.261773 -0.480513 -0.089592 -0.009898 -0.480197 0.176399 -0.291939 0.322078 0.099570 -0.060432
say -0.194462 -0.385103 -0.319948 0.106087 0.148553 -0.121095 -0.319936 0.446794 0.126049 0.586652
made 0.263435 -0.380793 0.057693 0.442445 0.352678 -0.132691 -0.063765 0.054190 -0.022778 -0.138820
own 0.226705 -0.312568 0.026799 -0.020105 0.057186 0.302524 -0.733651 0.246269 0.013251 -0.394695
never -0.316269 0.036641 -0.313241 0.630301 -0.423555 0.420687 -0.110947 0.115781 -0.092439 0.112054
much 0.182079 -0.539111 -0.217565 0.105039 0.437801 0.601730 -0.131782 0.049820 0.042842 0.205804
go -0.568212 0.018495 -0.340588 -0.023260 -0.328831 -0.142843 -0.196887 0.480901 0.388401 0.104081
came -0.150385 -0.056925 -0.206629 0.165595 -0.084952 -0.449693 0.111961 -0.211629 0.627065 -0.204227
life 0.301767 0.226099 -0.161214 -0.326026 -0.193460 -0.176745 0.029107 0.133013 -0.716917 -0.229564
day -0.154286 -0.410514 0.495858 -0.245010 -0.276753 0.089027 -0.004476 0.462199 -0.227611 -0.274412
here 0.190171 0.119749 -0.034141 0.153550 -0.070368 0.024043 -0.540255 0.297290 -0.520214 0.185210
great 0.027037 0.207379 -0.132630 -0.302565 0.144700 0.058323 -0.610694 -0.105445 -0.331137 -0.573026
eyes 0.448616 -0.207773 -0.167732 -0.278691 -0.162826 -0.530479 -0.205521 0.069381 -0.320629 -0.437886
hand -0.141660 -0.434073 -0.215238 0.095320 0.042450 -0.260991 -0.251633 -0.064228 -0.723545 -0.273073
still 0.069679 -0.286359 -0.531838 0.020202 0.161483 0.082705 0.567857 -0.004218 -0.455895 0.256178
went 0.088240 -0.151167 -0.278742 0.117376 -0.019170 -0.758768 0.105543 0.156405 -0.057804 0.065440
way -0.353326 -0.480590 0.327883 0.064913 -0.455012 0.081630 0.329932 0.221653 -0.063994 -0.208839
without 0.356595 0.102651 -0.017465 0.337240 0.357034 -0.093897 0.360048 0.403600 0.264194 -0.291940
long 0.193422 -0.516328 -0.106309 0.023539 0.143143 0.308693 0.220347 0.175475 0.413598 0.024534
men -0.338555 -0.294290 -0.352099 0.380896 0.027804 0.064731 -0.486091 -0.112069 -0.171922 -0.135863
those 0.225460 0.002174 -0.441048 -0.352167 -0.164567 0.423218 0.070219 0.358484 0.289487 -0.454351
yet -0.108838 -0.045187 -0.436882 -0.266723 0.177342 -0.153467 0.031884 -0.089938 -0.047890 0.291783
thought -0.140049 -0.390625 -0.116169 0.380538 0.123104 0.213768 -0.080195 0.735184 -0.002143 0.248072
most 0.243266 0.021710 0.025509 0.371147 0.173581 0.076023 -0.243737 -0.225083 -0.483070 -0.650086
yes -0.042831 -0.447081 0.010738 0.278489 -0.481139 0.152728 0.451229 0.133047 -0.110432 0.481963
through 0.319527 0.334752 0.511886 0.098911 0.162717 -0.399998 0.093809 -0.178708 -0.070892 -0.530844
away 0.247160 -0.329567 -0.061020 -0.014549 -0.493977 0.025919 0.134580 0.397332 -0.068634 -0.435641
might 0.148742 -0.489936 -0.171473 0.245746 0.710670 0.098561 0.116081 -0.168990 0.103146 0.283913
same -0.439012 -0.537852 0.315499 0.081676 -0.034291 -0.394393 0.078166 0.086807 -0.273124 -0.407726
even 0.250348 0.176111 0.396721 0.273234 0.092981 0.376082 -0.276009 0.203905 0.201023 0.081939
being 0.070757 0.459466 -0.171047 -0.353629 -0.059304 -0.068386 0.166111 -0.052567 -0.074327 -0.659529
think -0.105595 -0.513109 -0.109997 0.097893 0.194050 0.067205 0.177216 0.353866 -0.000291 0.710609
too -0.072046 0.035818 -0.515485 -0.115265 -0.409882 0.175053 0.210488 -0.146187 -0.115717 -0.198592
while 0.165477 -0.026979 0.171046 0.361803 0.435479 -0.041605 -0.340550 -0.019932 0.254340 -0.662707
looked 0.140927 0.310188 0.112374 -0.165558 -0.667469 0.118198 -0.227121 -0.032849 -0.001713 -0.195062
last 0.556175 -0.073832 0.430425 0.267940 -0.339952 -0.181101 0.033620 0.093811 -0.318649 -0.407293
let -0.519298 0.414331 0.064345 0.386900 0.352169 0.070807 -0.353984 -0.130068 0.027642 -0.239895
face -0.061147 0.094421 0.368464 0.319151 -0.415530 0.039465 -0.266028 0.288989 -0.258927 0.264075
nothing 0.139449 -0.395355 -0.052444 0.130356 -0.383860 0.629506 -0.158378 0.362501 0.267971 0.180042
every 0.382217 0.166382 -0.754759 -0.106432 0.284597 0.064204 0.326664 -0.011608 -0.134283 0.185864
just -0.438122 0.075449 -0.220191 0.408078 0.419978 -0.113907 0.229288 0.543074 -0.025178 0.217115
though 0.255407 -0.482445 -0.454803 0.216887 -0.441113 0.067957 0.257950 -0.164286 0.357136 0.127609
saw -0.195326 -0.852097 0.118891 0.049814 0.304179 0.110660 0.228956 0.041069 0.116743 -0.215996
make -0.245625 -0.150250 -0.027414 0.065354 0.031747 -0.045563 -0.477120 0.702909 0.322303 -0.113866
head 0.283517 0.027257 0.148157 -0.057163 -0.250105 -0.441369 -0.218086 -0.442777 -0.623495 -0.057377
back -0.301345 -0.227047 0.148852 0.158011 0.216895 -0.056439 -0.040598 -0.580743 0.115644 -0.357386
another 0.586663 0.050284 -0.544513 -0.192285 0.197311 0.311988 -0.160207 -0.199806 0.000433 0.342127
young -0.215146 -0.195590 0.508032 0.464805 0.017961 0.162707 -0.284380 -0.081845 -0.144358 -0.190625
seemed 0.068541 0.460072 -0.142881 -0.528709 0.131303 -0.004025 -0.459134 0.347156 -0.026307 -0.267247
work 0.080138 0.271077 0.138409 0.323804 -0.155774 -0.440406 -0.406666 -0.035799 -0.474705 0.303079
take -0.135982 -0.146330 0.032731 -0.419518 -0.021402 0.136944 -0.551374 0.520696 0.124678 -0.053266
room 0.014042 0.162723 0.608111 0.099591 0.017923 -0.438962 -0.208958 0.245976 -0.153697 -0.522146
house -0.467856 -0.098009 -0.015624 -0.200525 -0.213944 -0.402379 0.014882 0.211788 -0.633592 -0.277226
project -0.196983 -0.303939 0.358093 -0.281938 -0.400519 0.412342 0.076738 -0.458486 -0.056148 -0.333776
once -0.036839 0.352585 0.113699 0.084828 0.072202 -0.095261 -0.243631 0.375059 0.004069 -0.515813
many 0.319063 0.172658 -0.512274 -0.013585 -0.258918 0.091540 -0.363303 -0.203021 -0.593749 -0.067463
prince -0.145035 -0.157894 0.023701 0.298745 0.056250 -0.268279 -0.051147 0.722139 0.122762 -0.093698
look -0.385696 0.078713 -0.386979 0.128248 -0.492762 -0.442315 -0.060073 -0.044276 -0.433810 -0.215519
left 0.084621 -0.322870 -0.107568 0.312064 -0.225492 -0.131719 -0.364848 0.242354 -0.566603 -0.220471
heard -0.453174 0.001805 0.173084 0.165850 0.135994 -0.302821 0.161191 -0.015023 -0.094915 -0.055469
off 0.108269 0.166524 0.160462 -0.057352 0.340575 0.118284 -0.181238 -0.688871 -0.375398 -0.191516
tell -0.254591 -0.240258 -0.036659 0.410263 0.299616 -0.038980 -0.408860 0.177563 0.083769 0.640936
count -0.093852 -0.575650 0.460295 -0.126213 -0.158094 -0.214437 0.009790 0.213882 -0.511750 -0.230508
asked -0.184461 -0.386009 -0.178116 0.651336 0.045765 -0.268131 0.163804 0.134601 -0.238748 0.358987
took -0.581593 -0.351321 0.108182 0.095800 -0.174528 0.193483 0.050388 0.246066 -0.304477 -0.482669
door -0.231701 -0.412984 0.536820 -0.132074 -0.092686 -0.391734 0.031228 0.142928 -0.388852 -0.364130
why -0.180867 0.047429 0.257011 0.682393 -0.183020 0.005430 0.149424 0.327032 0.102430 0.509839
under 0.200912 0.088426 -0.045744 -0.045934 -0.085877 -0.327565 -0.063665 -0.275474 -0.658445 -0.284308
found -0.540337 0.168026 -0.023260 0.346417 -0.189355 -0.263351 -0.027865 -0.054326 -0.186205 -0.345413
ever -0.105900 -0.134839 0.088519 0.536199 -0.079513 -0.032852 -0.069742 0.413933 0.118252 -0.112708
night 0.222512 -0.671903 0.163481 -0.116606 -0.277052 -0.297109 -0.103343 -0.211529 -0.168835 0.218701
always 0.079343 -0.017845 -0.342875 0.237759 0.604764 -0.057652 0.078643 0.609930 0.266530 0.027120
right 0.032709 -0.381832 -0.119305 0.099806 0.159276 -0.434032 -0.722348 0.068834 0.166258 -0.243660
father -0.272977 -0.152742 0.211353 0.362248 -0.058416 -0.302668 -0.273663 0.072369 0.011948 -0.396414
whom 0.049954 0.203723 -0.151053 0.322699 0.279680 0.049529 -0.284217 0.548565 -0.333465 0.505329
something 0.465456 -0.525948 -0.330705 -0.181133 0.165779 0.208796 -0.111540 0.337393 0.376675 0.157169
dear -0.526411 0.030535 -0.158712 0.671600 0.242379 0.179030 -0.259038 -0.244622 -0.029222 -0.164605
because 0.583803 0.106333 0.090357 0.058181 0.170116 -0.193825 0.187575 0.559221 -0.310142 -0.025892
having 0.041819 0.015384 -0.215444 -0.338499 0.215166 -0.111492 0.216018 -0.088313 0.317149 -0.362744
dont 0.134048 -0.061094 -0.029565 0.558777 0.541983 0.064245 -0.297662 0.372941 0.010139 -0.235693
give -0.069579 -0.177644 -0.143854 0.105395 0.483238 -0.429716 -0.175602 0.262397 -0.284731 0.576848
round 0.070548 -0.667935 0.001480 -0.119189 -0.361541 0.251498 0.070584 -0.194472 -0.006676 -0.503597
place -0.263734 -0.127014 0.317666 -0.251410 0.135864 -0.081023 -0.223563 0.504325 -0.325228 -0.492525
three -0.586320 0.373413 -0.334485 0.215154 -0.224854 -0.113571 0.308265 -0.185399 0.181332 -0.294776
chapter 0.312991 0.401599 -0.026866 0.453158 -0.301940 0.316352 0.411078 0.113953 0.150915 -0.372242
quite -0.179343 -0.159679 -0.434267 -0.240820 0.180965 -0.103222 0.462650 -0.052259 0.422969 0.107013
whole -0.341563 -0.256413 0.089538 0.001436 0.271392 -0.377536 0.017764 0.136130 -0.669923 -0.348733
people 0.059614 -0.193189 -0.078358 -0.380652 -0.286379 -0.579696 -0.035581 0.555540 0.010546 -0.128527
seen -0.303501 0.417250 0.051366 0.032055 -0.134840 0.022229 -0.476295 0.011134 -0.156778 0.441969
mind -0.309901 -0.447032 -0.188498 -0.155260 0.089389 0.376070 -0.643674 -0.186171 -0.210092 -0.035807
oh -0.061124 -0.244653 -0.037339 0.338941 -0.239385 0.389790 0.381044 0.006677 -0.217920 -0.042237
felt -0.160058 -0.020420 0.190141 -0.264153 -0.039883 -0.397428 0.223449 -0.281259 -0.276383 -0.053071
pierre 0.372070 -0.225598 0.741076 -0.127212 -0.320254 -0.087087 0.174284 0.125840 -0.207257 0.126772
put -0.527869 0.412732 -0.253771 0.063454 -0.503845 -0.320569 0.218663 0.006218 -0.221753 0.170084
replied 0.437590 -0.339535 0.267620 0.152988 0.107964 -0.479118 0.551684 -0.201873 -0.085833 -0.061704
nor 0.372148 -0.047662 0.124023 0.057132 0.330644 0.149894 -0.074736 -0.572760 0.271682 -0.486200
moment 0.006505 -0.272858 0.393473 0.344935 -0.272897 -0.387307 -0.541513 -0.074133 -0.150647 -0.322939
began -0.552423 -0.223383 0.040676 0.139775 0.008244 0.335763 0.179810 -0.110804 0.546128 -0.150214
hands -0.420316 0.009988 -0.179630 0.098504 -0.288387 -0.049231 -0.197236 0.236343 -0.654657 -0.414820
thus 0.371975 0.555838 0.046440 0.239504 -0.100351 0.098135 -0.031026 -0.203018 -0.230275 0.210408
myself -0.617106 -0.082201 -0.362681 -0.006826 0.333242 0.139600 -0.528042 -0.030768 0.104208 -0.243871
world -0.298831 -0.158052 0.217177 -0.406115 -0.374378 -0.313525 0.106651 -0.020352 -0.468874 -0.451051
sir 0.341397 -0.593042 -0.056345 0.143069 0.282335 0.219804 -0.333865 -0.081302 0.199501 0.373573
soon -0.217164 -0.038559 -0.585484 0.412668 0.321168 -0.008812 -0.429051 -0.137327 0.220129 0.288030
each 0.512596 0.624738 -0.427373 -0.076228 -0.008555 0.114421 -0.069626 0.371208 0.021481 0.044604
both 0.297346 0.457407 0.175176 -0.302589 -0.000227 0.298020 0.245397 0.447426 -0.063463 -0.095001
done -0.172303 0.202204 -0.286001 -0.034370 -0.314969 0.009207 -0.629311 0.577095 0.079959 0.099883
things 0.688949 -0.004810 -0.242182 0.073075 -0.331353 -0.364390 0.152829 0.202078 -0.233416 0.140851
new 0.058236 -0.075519 -0.341236 -0.234506 0.157454 -0.251069 -0.269018 -0.550543 0.217496 -0.242134
get -0.657723 0.254259 -0.017254 0.204911 0.323315 -0.200127 -0.402786 0.390694 0.000742 -0.023063
knew -0.063031 -0.690880 -0.199286 0.557391 -0.232128 -0.230777 0.039555 -0.221270 -0.051332 0.089501
told -0.375151 -0.587610 -0.354944 0.312955 0.169625 -0.279068 -0.145698 -0.023517 0.284888 0.282396
far 0.259403 -0.292185 -0.528190 0.077901 -0.248217 -0.182174 0.410810 -0.278855 0.375704 0.282437
love -0.015566 -0.439485 -0.357217 -0.150735 -0.241774 -0.010943 0.129649 -0.094165 -0.411215 0.634532
cannot -0.544880 0.237837 -0.409441 0.610404 0.121611 0.253638 -0.097460 -0.030774 0.075517 0.101583
words 0.338633 -0.254788 0.132532 0.283179 -0.044263 -0.308661 0.260746 -0.172428 -0.067833 0.342120
heart 0.274748 -0.043229 0.309929 -0.228005 -0.406137 0.217253 -0.182547 0.523520 0.055163 -0.162545
also -0.406642 -0.291730 -0.417008 0.261063 0.067279 -0.150072 0.474251 0.204458 0.341748 -0.311106
against 0.308369 0.205136 0.048975 0.584183 -0.186978 -0.315794 0.198349 -0.291750 -0.195635 -0.470803
m 0.479399 -0.402045 -0.353989 -0.196176 0.328090 0.448791 -0.126583 -0.324938 -0.007187 0.116282
part -0.096196 -0.175230 -0.082028 -0.340091 -0.240681 -0.020075 0.500541 0.697720 -0.155803 -0.132823
going 0.235306 0.016183 -0.145022 0.164863 -0.122129 -0.275080 -0.604508 0.595229 0.290425 0.038726
state 0.073030 -0.341653 0.205166 -0.101833 -0.248962 0.109334 -0.643654 0.346400 -0.097137 -0.455875
god 0.175955 -0.073612 -0.147860 -0.328368 0.369311 0.340485 -0.449896 -0.203412 0.423096 -0.010851
side -0.282563 0.075634 0.266362 -0.568467 -0.184664 0.016275 -0.014059 -0.262260 -0.043049 -0.107059
better -0.115758 0.283659 0.649666 0.015024 -0.063494 -0.109240 0.072663 0.314781 0.216977 -0.002080
voice -0.073091 -0.259133 0.070674 -0.529528 0.376274 -0.038251 0.327866 0.226956 -0.130902 -0.033310
friend -0.582653 0.171723 0.245905 0.255269 -0.264392 -0.142648 -0.298859 0.156824 -0.351442 -0.421571
thing -0.045523 -0.546226 0.271692 0.194881 0.400833 -0.014209 -0.241167 0.361750 -0.410437 0.253712
turned 0.151572 -0.191148 -0.028792 0.528694 0.153902 0.037643 -0.481511 0.491163 0.091755 -0.145354
true 0.207675 -0.506723 -0.043242 -0.118746 0.075407 0.670035 0.387021 0.144560 0.160608 0.181719
cried 0.113360 0.109630 0.374721 0.344734 -0.494673 0.093191 -0.063430 0.044150 0.009013 0.095075
between -0.374414 -0.124193 -0.057113 0.130192 0.031181 -0.258245 0.160899 0.069120 -0.562038 -0.633073
gutenbergtm 0.415446 0.539790 -0.018669 0.096431 -0.402294 0.031868 -0.324338 0.340164 -0.022344 -0.178111
years 0.227718 -0.388098 -0.517339 -0.188444 -0.500537 0.019993 -0.009508 -0.487630 0.025706 -0.069640
miss 0.141770 0.442915 -0.114876 0.078121 0.023034 0.070093 0.469812 -0.336924 -0.184287 -0.623014
name 0.034027 -0.314875 0.108397 -0.074666 0.312836 -0.094164 -0.061793 -0.138090 -0.027326 -0.118317
light -0.218715 0.309083 0.310825 0.497252 0.066383 0.008727 0.005804 0.153140 -0.500059 0.087643
stood -0.006474 0.100128 0.018156 0.064293 -0.079325 -0.554485 0.314592 0.488966 -0.316075 -0.402119
does -0.019433 -0.084876 0.039235 0.330353 0.769233 0.133348 -0.390806 0.209764 -0.031751 -0.271606
got -0.027953 -0.600844 -0.399373 -0.182999 0.346354 -0.120797 -0.166901 -0.381009 0.359905 -0.090055
few -0.367925 -0.194423 -0.274414 -0.014670 0.097807 -0.328484 -0.147102 -0.663880 -0.196375 -0.364562
morning -0.322310 0.006771 0.591046 -0.107031 -0.000154 0.138532 0.524557 0.296971 -0.216525 0.202233
full 0.262320 -0.057820 -0.252502 -0.208283 -0.659106 -0.362254 -0.224988 0.139792 -0.254577 -0.346165
find -0.060834 0.022674 0.062959 0.324081 0.241145 -0.291735 -0.768708 -0.122023 -0.119244 0.350802
looking 0.147399 -0.184785 0.358174 0.393633 0.478599 0.001916 -0.348862 0.154306 0.260821 0.085424
poor -0.328929 -0.455321 -0.096509 0.019502 0.070808 -0.021834 -0.070755 0.318018 -0.114581 -0.341303
gave 0.300307 0.173617 0.461523 -0.220255 0.094534 0.057978 -0.348817 0.126618 -0.432012 -0.214443
whose -0.061006 0.390543 -0.066314 0.443907 0.182926 0.146769 0.591290 0.117985 0.430116 -0.195644
de 0.301045 0.325043 0.023087 -0.028794 0.144496 0.504972 0.453074 0.393888 -0.371955 0.165308
thy -0.280520 -0.182834 -0.507968 -0.356639 0.223585 0.265317 0.469649 0.122743 -0.077191 0.374876
death 0.152144 -0.254830 -0.156456 -0.020118 -0.453054 -0.301361 -0.495680 0.274364 -0.030376 -0.284588
however 0.332533 -0.658431 -0.019633 -0.427742 -0.032761 0.131654 -0.005695 0.014835 0.075059 -0.034848
sat -0.138601 -0.385324 -0.087212 -0.384222 -0.400442 0.417585 -0.273695 0.068651 0.474163 0.038224
question -0.385075 0.207185 0.432178 -0.172673 0.098027 -0.499155 0.087347 -0.022769 -0.275435 -0.467604
order 0.082003 -0.210206 -0.639989 -0.178134 -0.209325 -0.527700 0.081813 -0.161897 -0.250820 -0.141068
days -0.134926 -0.210926 -0.000636 -0.202605 -0.187658 -0.402508 -0.196904 0.215097 0.555539 -0.080063
anything -0.099257 -0.096405 0.043912 -0.434646 0.537696 -0.087257 0.035057 0.271960 0.319300 -0.126663
almost -0.219270 0.364729 -0.287162 -0.051982 0.356568 0.273757 0.226702 -0.213838 -0.636994 0.077039
white -0.146131 -0.343564 0.080389 0.059384 0.026638 0.117078 -0.581365 0.171476 0.140676 -0.457956
since -0.354017 -0.340456 0.022797 0.463550 0.008778 0.411737 0.154279 -0.306370 -0.367375 0.347414
son -0.384608 -0.276453 -0.064101 -0.033319 -0.114379 -0.156236 0.481238 0.127722 -0.608377 0.283775
word 0.227901 -0.545418 -0.298459 0.118016 -0.158663 -0.005908 -0.018057 0.178210 -0.145997 -0.088785
alone -0.117565 -0.156683 0.084852 -0.112329 0.016823 0.286956 -0.001035 -0.208224 0.094958 0.379858
whether -0.590279 -0.017089 -0.313258 0.089344 0.394357 0.244658 -0.187704 0.080974 0.425744 0.199212
others -0.294733 -0.326729 -0.641124 -0.056374 -0.052510 -0.193052 0.006396 -0.199341 0.417018 -0.069805
till 0.009267 -0.063490 -0.202549 0.398336 -0.604684 -0.279946 0.300601 -0.444807 0.216434 0.063569
passed 0.267253 -0.480104 -0.197958 -0.160084 -0.323854 0.086878 -0.332689 -0.153359 -0.233707 0.218110
called -0.375608 0.380086 -0.005938 0.289606 0.258266 -0.131121 -0.116056 -0.236662 -0.048766 -0.587020
mother -0.516029 -0.070624 -0.078724 0.266886 0.340129 -0.697243 -0.124559 -0.026219 0.144285 -0.103925
set 0.149385 0.472560 -0.337357 -0.085168 -0.191303 0.195904 -0.130151 0.035993 -0.159520 -0.270744
home 0.275697 0.403680 0.159239 0.114638 0.077081 -0.569958 -0.218325 0.160134 0.146236 0.390307
perhaps 0.490365 -0.223500 -0.029060 0.172730 0.429551 0.376275 0.030526 0.407140 -0.079994 0.108926
next 0.431553 -0.724673 -0.038317 -0.030777 -0.297472 -0.025398 -0.061504 -0.370209 -0.223642 -0.076873
end -0.190196 -0.281775 0.511612 -0.211977 -0.377486 -0.058536 -0.324160 0.270128 -0.503557 -0.013206
among 0.461698 0.089051 0.381999 0.057116 0.490361 -0.024947 0.379037 0.146571 -0.463083 0.095027
want -0.501857 0.335679 0.282117 -0.076255 0.135382 0.271052 0.190806 -0.166751 0.195085 0.097042
rather -0.164617 -0.602897 -0.186698 0.475418 -0.124194 0.424686 -0.013861 0.135849 0.226407 -0.287297
indeed 0.437185 0.005655 -0.032251 0.008307 -0.523025 -0.465011 -0.126205 0.330988 0.018456 -0.023660
arms 0.219897 -0.219597 0.162173 -0.133585 0.374823 0.207638 -0.009863 0.109617 -0.112625 -0.482523
already 0.376435 0.349918 -0.028376 0.379527 -0.017966 -0.042184 -0.246721 0.712512 0.141737 -0.001470
speak -0.464837 0.223276 -0.114731 -0.322163 -0.334723 0.077918 -0.459328 0.323411 -0.375041 0.205630
hear -0.541937 -0.076232 0.097984 0.333266 -0.435866 0.406710 0.106218 0.151147 -0.254811 -0.248179
herself 0.241188 -0.258691 -0.446372 0.473965 -0.175542 0.195959 -0.433153 0.055483 0.078353 0.344886
leave -0.395958 0.106031 -0.205285 -0.183914 0.335820 -0.454533 -0.376581 0.121109 -0.487508 0.205979
taken 0.379804 -0.020074 -0.126602 0.430306 -0.055474 -0.638606 -0.117315 -0.023764 -0.236008 0.204363
soul 0.094304 -0.764291 -0.091366 -0.015366 -0.466492 0.139106 0.001274 -0.079005 0.156741 0.306313
french -0.043520 -0.052585 0.119879 -0.318445 0.282497 0.660163 0.363387 0.140147 -0.427756 0.170863
wish -0.430353 -0.061090 -0.183021 0.091749 0.083560 -0.000786 -0.328858 0.658857 0.132866 0.449704
brought -0.403546 -0.386838 -0.344655 0.328981 0.050249 -0.402626 0.266862 0.394489 0.137580 -0.223666
behind 0.019134 0.075263 0.204914 0.191395 -0.653982 -0.004529 0.293643 0.400901 0.054853 -0.075923
enough -0.116624 0.113354 0.111499 0.108646 0.509628 0.282023 -0.461530 -0.230848 0.192310 -0.356933
monte 0.434357 0.233199 -0.044390 -0.004503 -0.685869 0.192836 0.442349 0.042907 0.216680 0.054148
general -0.199914 -0.041557 0.272189 0.599168 -0.101008 -0.192213 0.024682 0.267061 -0.369377 -0.135272
black 0.270195 -0.131639 -0.034559 -0.310975 0.197839 0.258065 -0.226590 0.727777 -0.148544 -0.320248
air 0.120446 0.377974 0.027471 -0.310425 -0.086727 -0.404111 0.506856 0.107965 -0.454081 0.078643
fire 0.474042 -0.118108 0.582488 0.006323 0.211390 -0.164186 -0.235760 -0.382098 0.199198 -0.082167
towards -0.180697 0.018670 0.159373 0.170941 0.140725 0.148719 0.582675 -0.440993 -0.567472 -0.118964
small -0.302555 0.113998 0.232973 -0.214906 0.351847 0.483929 0.273804 0.180158 -0.451129 -0.355074
thou 0.080771 0.349944 -0.044635 0.134862 0.417929 -0.472251 0.466604 0.256495 -0.411722 0.000881
cristo 0.406813 -0.514593 -0.258284 -0.240887 -0.415917 0.245486 -0.280561 -0.073849 0.239129 0.264918
natásha -0.243142 -1.937384 0.786597 -1.166903 -1.974634 -1.373283 1.003762 -0.988917 -0.524268 -1.240744
half -0.276087 0.268816 0.038287 -0.116407 -0.117525 -0.542589 -0.135889 0.144560 0.336678 -0.289949
lay -0.247972 -0.265498 0.067220 -0.594829 -0.172674 -0.004137 -0.049494 -0.386449 -0.241349 -0.360376
really -0.386105 -0.141438 0.219709 -0.054707 -0.029864 0.129185 0.164796 -0.052677 -0.050275 0.251993
child 0.224672 -0.679655 -0.199176 0.005922 -0.499720 0.097216 0.232776 -0.106118 -0.183897 0.039401
returned -0.731126 0.020713 -0.248267 0.068442 0.423365 -0.329846 0.216827 -0.077394 -0.137412 -0.134108
woman 0.009939 0.064062 0.146013 -0.249668 -0.068289 -0.654250 -0.187884 0.536053 -0.068119 -0.340383
best -0.276735 -0.147476 -0.059500 -0.054086 0.186219 0.617564 0.096087 0.417297 -0.279508 -0.176269
near 0.556807 -0.023302 0.637398 -0.271300 -0.112106 0.178911 0.199280 -0.075844 -0.011218 -0.292065
understand -0.194777 0.303611 -0.103405 0.098190 -0.315692 0.174662 0.009166 -0.304104 0.076434 0.309030
princess -0.438305 0.136162 -0.331178 0.255908 -0.054935 0.272030 -0.289620 0.413269 -0.513439 0.111582
andrew 0.921259 0.199617 0.203027 -0.750827 -1.451098 0.226107 1.843772 0.233785 1.627402 0.642662
within -0.252243 -0.234424 0.280807 0.034175 -0.308607 -0.115263 0.154707 0.080786 -0.199615 0.011679
dead -0.268883 -0.028131 -0.175556 0.252552 -0.219412 -0.807386 0.090196 -0.125653 -0.143255 -0.184382
believe 0.175850 -0.520843 0.005869 -0.043734 0.145540 -0.483291 0.080540 -0.199427 0.393690 0.489655
often 0.018696 0.383013 0.029650 -0.238498 -0.269844 0.498961 0.062376 0.127020 0.281449 -0.440325
read -0.252329 -0.129849 -0.415088 0.245430 -0.408999 -0.175687 0.349286 0.531166 -0.056516 0.006156
answered -0.020238 -0.628389 0.230926 0.517404 -0.067999 0.371450 0.139229 0.114854 -0.249009 0.213925
king -0.369687 -0.378242 0.108076 0.379609 0.142025 -0.031572 0.163694 0.517140 -0.496124 0.048205
power 0.114291 -0.273183 0.348476 0.019094 0.256870 -0.277770 0.245338 0.361692 0.302365 -0.058325
gone 0.176881 -0.576125 -0.180947 0.443238 -0.353635 0.122057 -0.305088 0.234644 0.041195 0.343199
together 0.140878 0.168429 -0.050478 0.194255 -0.603777 -0.388729 -0.200577 -0.446837 -0.296627 -0.036031
madame -0.052194 0.243330 -0.023910 0.162031 0.404677 0.521582 -0.298803 0.143162 -0.302398 0.523410
use 0.346339 -0.463677 0.028159 -0.066046 -0.378074 0.156633 0.088577 -0.045971 0.014644 -0.477187
hope -0.345664 0.205329 -0.316678 -0.041195 0.204598 -0.635323 0.378257 0.134733 -0.071293 0.352498
given 0.338073 -0.010881 0.075808 0.454532 -0.308328 -0.207300 0.226021 0.585832 -0.261732 0.269098
ask -0.167367 0.301998 -0.033781 -0.177809 0.362732 0.175137 -0.496374 -0.213630 -0.003888 0.057817
either -0.359136 0.328497 -0.093960 0.446374 -0.271590 -0.013418 -0.647306 0.157989 -0.109273 -0.081494
course 0.009900 -0.299817 -0.061918 -0.364289 0.535141 0.486946 -0.262948 0.102030 0.069171 -0.035728
wife -0.596644 0.212457 -0.029721 0.211271 0.336741 -0.306579 -0.128385 0.116846 0.245567 -0.397204
suddenly 0.398944 -0.004890 -0.168816 -0.400849 0.444297 -0.371887 0.060144 0.360925 -0.039236 0.200584
nature 0.451110 -0.474267 0.177175 0.213829 0.170287 0.141043 -0.171456 0.132329 -0.366638 0.279055
mrs 0.227212 0.388764 -0.012707 0.630900 0.120245 -0.338478 -0.016716 0.477786 0.184665 -0.085409
present -0.383036 -0.011153 0.254814 -0.154083 -0.054706 -0.470558 -0.603902 -0.166224 -0.292853 -0.006380
everything -0.188327 0.450704 -0.304624 0.168442 -0.025079 -0.235652 -0.556830 0.472297 -0.027470 -0.224011
rest -0.095053 -0.400831 0.075611 0.175013 -0.044939 -0.148768 0.282788 -0.393916 -0.683164 -0.257430
letter -0.249382 -0.617060 0.302111 -0.277371 -0.060847 0.228574 0.178133 0.244493 -0.401801 -0.281982
open 0.209979 0.031380 0.176959 -0.103749 0.680150 0.050738 -0.024685 0.085549 -0.481046 0.276063
less -0.152277 0.303913 -0.080001 0.176817 -0.092965 -0.375369 0.155754 -0.148085 -0.709561 -0.156320
kind 0.352922 0.169870 -0.410285 -0.175657 -0.552042 0.016704 -0.007333 0.037743 -0.166213 -0.559703
villefort 0.123218 0.109607 -0.016416 -0.059320 0.141910 0.119619 -0.326147 0.281170 -0.576296 0.063750
table -0.068352 -0.324639 -0.270065 0.071315 -0.310125 -0.347205 -0.255465 0.132918 -0.710618 0.085323
ill 0.190866 0.173447 -0.200112 0.349283 0.362160 -0.421869 0.449552 -0.136644 -0.375735 0.137296
times -0.033008 -0.420776 0.159953 -0.216831 -0.243744 -0.155524 -0.154720 -0.131905 -0.140540 -0.476615
works 0.155381 0.097559 0.280828 -0.598158 0.180795 0.534141 0.061030 0.151969 -0.105873 0.217856
fear -0.090408 -0.069015 -0.094732 0.149677 0.009955 -0.483068 0.275229 0.302896 -0.117531 0.376712
along -0.428448 0.095211 0.173976 0.371383 -0.177937 0.272935 0.015257 -0.166786 0.320935 0.213207
war 0.568116 0.480282 0.205088 -0.060996 -0.067220 0.007989 -0.416123 -0.006192 0.266190 -0.214484
whale -0.494213 -0.494188 -0.026064 -0.103013 -0.165283 -0.168726 -0.110131 -0.479187 -0.436364 0.103525
fell 0.051254 -0.033158 0.075152 -0.163321 0.466392 0.037597 -0.726623 -0.003638 0.133913 -0.219897
large 0.499449 -0.071103 0.038170 -0.004184 -0.529467 -0.008169 0.108067 0.209658 -0.293893 0.072620
business 0.133650 -0.497808 0.436214 -0.135837 0.110912 0.317236 -0.159437 -0.350005 -0.071081 -0.362163
matter 0.227050 -0.288700 0.562254 0.160261 0.050219 -0.180269 0.148009 0.309407 -0.541240 0.277474
least -0.265432 -0.092593 -0.350642 0.286778 0.482778 0.180305 -0.175841 -0.224635 -0.388528 0.212105
evening -0.556831 -0.139033 -0.119615 0.487266 -0.066993 -0.320376 -0.383244 0.131560 -0.383791 0.016270
themselves 0.270990 0.027860 0.285637 0.105685 0.189511 0.386404 -0.260778 0.462877 -0.047434 0.155214
keep -0.576424 0.247562 -0.416105 -0.477710 0.121548 0.040956 0.182814 0.168467 -0.127508 0.148758
case -0.038381 -0.163221 -0.069749 -0.263302 -0.136083 0.331317 -0.087189 0.464547 -0.137710 0.540669
bed -0.351206 0.115741 -0.024272 -0.441814 -0.115321 -0.330620 -0.177519 0.315618 0.071624 -0.639082
high 0.072807 -0.339372 -0.317703 -0.150695 0.165308 -0.048904 -0.008264 -0.784700 -0.209125 0.085547
certain 0.604049 -0.371176 -0.092913 0.211213 -0.191951 0.479945 -0.111686 -0.111380 -0.153807 0.228148
ah -0.003920 -0.114993 0.370988 0.491641 -0.146201 0.135624 0.177444 0.321644 0.129957 -0.428241
strange 0.183052 -0.121811 0.088659 0.374998 0.387189 0.322286 0.269421 0.386647 -0.156599 0.346400
help -0.045853 0.070438 0.471329 -0.180197 0.307865 -0.150284 0.088505 0.268319 0.259108 0.168946
sure -0.581261 -0.423153 0.150148 -0.036152 -0.083939 0.266691 0.049823 -0.127935 0.428702 0.240125
lost 0.192141 0.330702 0.212906 0.295663 -0.110986 0.299520 -0.038201 -0.215776 -0.526211 0.194872
danglars -0.188721 0.113525 -0.123039 0.098184 -0.647307 0.238346 0.182140 0.365237 0.391462 -0.318381
smile -0.073805 -0.224807 0.013207 0.002722 0.362752 0.085049 -0.157826 0.183802 -0.266606 -0.807515
water 0.131039 -0.095394 -0.536054 0.342501 -0.354199 -0.406305 0.276384 -0.076350 -0.271139 -0.200841
reason -0.179760 -0.086085 -0.222510 -0.131627 -0.352932 -0.384725 -0.187754 -0.663111 0.042478 0.044477
hour 0.306885 0.067658 0.293179 0.163430 -0.211784 -0.367331 -0.210087 0.382841 0.099228 -0.486599
manner 0.151577 0.026443 0.194700 -0.083149 -0.285758 0.310775 0.128994 0.453918 -0.367855 0.452179
until 0.356697 0.338576 0.391014 0.357333 -0.044397 -0.068509 0.337095 0.498104 -0.297971 -0.140607
dark -0.075649 0.322982 0.024717 -0.420656 0.369580 0.205947 0.188950 0.559040 0.148845 -0.051289
body 0.106937 -0.165965 0.055896 0.126085 -0.255034 0.545265 -0.061743 0.414811 0.212924 0.198566
therefore 0.014931 -0.361453 0.195102 -0.042828 0.374637 0.280514 0.240256 0.147202 0.253072 -0.503139
answer -0.304160 0.403666 0.088868 0.271484 -0.460120 0.279037 -0.079394 0.046757 -0.257904 -0.217497
sometimes -0.590405 0.002683 0.109351 0.526339 0.223447 0.361387 0.167965 0.105112 -0.229642 -0.159978
coming -0.310727 0.089548 -0.102414 0.058068 0.084324 -0.318424 -0.254517 0.586933 0.484237 -0.357627
certainly 0.042660 0.151323 -0.125431 0.529686 0.133000 0.086236 -0.380456 0.434754 -0.061328 0.561313
lord -0.012810 -0.641923 -0.547397 -0.215394 0.131374 0.107690 0.009688 -0.348625 0.122237 -0.012376
held 0.183118 -0.393703 0.519917 -0.119366 -0.259254 0.579154 0.011337 0.001107 -0.110327 0.066166
around 0.114314 -0.626612 0.394994 0.010963 0.256409 0.160055 0.217277 -0.389452 0.066120 -0.203724
friends -0.386548 0.429009 -0.099349 0.255498 -0.171528 -0.073510 -0.384872 0.282869 -0.184783 -0.417993
second -0.348288 -0.248486 0.460109 0.311094 0.452795 0.254828 0.012282 0.417758 -0.011172 0.086504
live -0.097325 -0.295999 0.244517 -0.670746 -0.178660 0.293591 0.045409 0.258706 0.149533 0.074168
mean 0.035325 -0.220108 -0.091882 -0.319601 -0.476739 0.451611 -0.220399 -0.174717 0.068977 0.394657
call -0.327184 0.217569 0.107115 -0.182518 0.213443 0.517631 0.194364 0.140386 0.342596 -0.245857
above 0.277592 -0.266376 0.620705 0.289742 -0.089925 0.291945 0.231897 -0.448191 -0.010548 -0.134739
person 0.050787 -0.237121 0.457228 0.227113 -0.579955 0.355698 -0.119406 0.091809 -0.308769 0.185349
sort -0.082331 0.363577 -0.006923 -0.261976 -0.273216 0.233886 -0.440056 0.125291 -0.223648 -0.635224
spoke -0.036978 -0.771799 -0.057469 0.117320 -0.121810 -0.077862 0.061234 -0.454978 0.064288 0.274433
country 0.449020 -0.175256 0.272420 0.238439 0.128974 -0.392242 -0.389497 -0.050414 -0.221705 -0.312222
received -0.209311 0.482796 0.123573 0.274580 0.034881 -0.355068 0.339902 0.388441 -0.429287 0.212406
yourself 0.085110 0.059347 -0.405678 0.199950 -0.574436 -0.239743 0.370679 0.326507 0.310804 -0.236564
money -0.304984 -0.553015 -0.208236 -0.128215 0.182985 0.061430 -0.035695 0.550146 0.008559 -0.447068
gutenberg -0.165381 -0.247968 -0.294570 0.320601 0.413029 -0.045685 -0.360373 -0.211494 -0.549638 0.041776
return -0.290020 0.063827 -0.519981 0.247934 -0.140052 -0.149750 -0.265282 -0.060175 0.234817 -0.047433
feet -0.070944 -0.295840 0.039644 0.068814 -0.186589 -0.459848 -0.421159 0.210320 -0.442735 -0.203299
human -0.555852 -0.205165 0.223513 -0.124297 0.220896 0.323513 -0.115329 -0.156820 0.124379 -0.417849
sent -0.705765 -0.019457 0.136422 0.103771 -0.337277 0.181047 -0.342744 0.014222 -0.204372 -0.267206
during 0.267354 -0.005539 0.164840 0.342423 0.384802 -0.618598 0.204749 0.075815 -0.296194 -0.343406
saying -0.297028 0.090441 -0.264836 0.372376 -0.404859 -0.461393 -0.271706 0.306446 -0.382911 -0.058284
feel 0.201875 -0.102240 -0.248945 0.815498 -0.362961 0.131874 0.045131 0.096074 0.104645 0.111623
ground -0.356173 -0.510244 0.251785 -0.525391 -0.314596 -0.130158 -0.100601 0.005394 0.089757 0.201663
arm 0.258500 -0.273091 0.125171 -0.290514 0.055387 -0.690036 -0.376316 0.071739 0.112622 -0.345630
sight -0.125836 -0.099690 -0.400161 -0.485137 -0.157069 0.131922 -0.469503 -0.029713 -0.345357 -0.442770
thousand -0.052548 0.265668 0.166525 0.401969 -0.448313 0.271335 -0.062427 0.201514 -0.171927 0.359475
army 0.553535 -0.042858 -0.155082 0.225682 -0.392844 0.169812 -0.314044 -0.111644 -0.071530 -0.174930
became -0.028980 0.592573 -0.051931 -0.218282 -0.112876 -0.431460 0.061022 -0.258263 -0.010249 -0.500130
sea -0.214392 -0.521387 -0.123479 -0.403256 0.205013 -0.329248 0.428985 -0.054368 -0.398439 -0.088512
four -0.014120 0.111221 -0.296363 -0.244289 -0.624950 -0.134346 -0.049917 -0.498548 -0.310554 -0.288626
continued -0.391879 -0.113243 0.051535 0.124686 0.113657 -0.282485 0.765257 0.247972 0.225011 -0.157621
happy 0.050601 -0.202381 -0.239971 0.439198 -0.318186 -0.074923 -0.307915 -0.493052 0.363524 0.358728
feeling -0.390339 0.070421 0.190174 -0.469774 0.087900 -0.095564 0.382208 0.444077 -0.323912 0.130594
entered -0.066694 -0.054265 0.423503 -0.054682 0.025851 0.256237 0.321573 0.073961 -0.796053 0.022016
used -0.059492 0.020975 -0.204493 -0.271998 -0.429360 0.161851 0.492912 0.491192 0.151954 0.401463
longer -0.324615 -0.029096 -0.019370 0.031425 -0.222034 -0.405320 -0.145569 -0.227280 0.583013 -0.060270
opened 0.428307 -0.545373 0.271266 0.016502 -0.399273 0.109301 -0.305506 0.042421 -0.354423 -0.225559
eye 0.463760 -0.167627 -0.053043 -0.133552 -0.507453 -0.178719 -0.265935 -0.448119 -0.182499 -0.376685
mary 0.298352 0.533361 0.178688 0.312084 -0.575395 0.131038 0.204998 0.291734 0.018582 0.145828
known 0.152036 0.007936 0.136459 0.583799 -0.218133 0.386861 -0.020206 0.299423 0.499582 -0.017458
family -0.197838 -0.027830 0.319276 0.154076 -0.566193 -0.241530 -0.477896 -0.253518 -0.317107 -0.083565
become -0.160494 0.363715 -0.196041 -0.613235 -0.226374 -0.033755 -0.207246 0.388749 0.113653 -0.169314
form 0.252198 -0.136752 -0.075554 0.156843 -0.121412 -0.148808 0.434168 -0.214622 0.542917 0.246513
idea -0.376695 0.226002 0.156232 -0.361910 -0.002806 0.079623 -0.145676 0.206689 -0.075574 0.281611
care 0.247758 0.316765 0.303659 0.309995 0.179440 -0.182799 0.241460 0.153343 0.318130 0.181233
ran 0.058009 0.052782 -0.561675 -0.495012 0.188249 -0.068080 0.149422 0.252973 -0.265998 -0.153378
terms 0.362900 0.177122 0.273052 -0.275848 -0.026573 -0.153102 0.233831 0.708366 -0.306893 -0.107208
itself 0.087699 0.280171 0.373197 0.046131 0.023724 0.351994 0.161393 -0.546926 0.309998 -0.248435
truth 0.101409 -0.238320 0.529177 0.343126 0.448206 -0.227686 -0.501533 0.139514 0.106167 -0.007636
point 0.041745 -0.570875 0.100741 -0.051186 -0.520810 -0.049476 0.057750 -0.375332 -0.130882 0.301822
appeared -0.536105 0.088528 -0.377307 -0.250474 0.422991 -0.223421 0.095902 0.233001 -0.300408 -0.342044
free 0.153648 0.101608 -0.241713 0.161619 -0.296924 0.511955 -0.166758 0.109585 -0.648492 0.266110
else 0.295246 0.232680 0.071655 0.097377 0.223796 0.257990 0.186895 0.052830 0.497687 0.545451
lady 0.173118 -0.282030 0.242816 -0.255189 0.526799 0.187529 0.036598 -0.027461 -0.651470 0.163286
close -0.085107 -0.337437 -0.132460 -0.137953 0.248009 -0.394231 -0.052233 0.749424 -0.001338 0.245672
states -0.072157 -0.595373 0.425295 0.460301 0.334662 0.232184 0.019351 0.081251 0.158900 0.022689
turn -0.102589 -0.412206 -0.158439 0.145353 -0.796697 0.171760 -0.233980 0.051596 0.193538 -0.105549
hair 0.261183 -0.228922 -0.536213 0.245497 -0.135247 -0.201360 -0.008422 0.343173 -0.167418 -0.571634
sound 0.290741 -0.280727 0.349205 -0.129778 -0.202345 -0.139491 -0.066054 0.465535 0.174754 0.302761
morrel -0.234718 -0.084498 -0.087868 0.013580 -0.531584 0.641465 0.105049 0.080670 0.118552 -0.159940
heaven 0.216039 -0.395237 0.207012 -0.159956 -0.290406 0.273494 -0.346726 0.232455 0.244170 0.340360
rose 0.183066 -0.093547 0.283580 -0.125703 0.350917 0.611981 0.108165 -0.026825 -0.004416 0.312844
ready -0.031241 0.236266 -0.211317 0.422839 0.358014 0.205138 -0.363333 0.499561 -0.213031 0.350060
window -0.137668 -0.192003 0.136698 0.295486 0.039789 -0.127397 0.086234 0.696430 -0.548246 0.164767
means -0.310580 -0.012913 -0.245721 -0.414874 -0.217249 0.448499 -0.171875 -0.255956 -0.539677 -0.189960
albert 0.306546 -0.159516 -0.493848 0.133910 -0.079418 -0.496735 0.046484 0.140602 0.583796 -0.054061
kept 0.120910 0.514594 0.246524 -0.185665 -0.032236 0.009220 -0.338425 -0.139029 -0.362782 0.341624
girl -0.155202 -0.154900 -0.155182 0.033717 -0.570663 -0.618317 0.172853 -0.364263 -0.110480 -0.206458
expression -0.089677 -0.084921 -0.102852 -0.668889 0.122910 -0.130132 0.225555 0.291221 -0.283994 -0.527615
taking -0.011210 -0.052911 -0.150144 -0.277019 0.131992 0.137528 0.254006 0.589003 -0.288455 -0.379462
five 0.419066 0.255237 -0.153656 -0.134506 -0.019799 -0.129740 0.121004 0.696401 -0.032640 -0.248521
hundred -0.039130 -0.080038 -0.244952 0.023870 -0.195951 -0.033571 -0.182088 -0.404085 0.455896 -0.534588
dantès 0.342581 -0.184835 -0.280089 0.548663 0.066858 0.126968 0.090086 0.127126 0.315216 -0.048024
subject 0.065562 -0.197153 0.383270 -0.147926 -0.338356 -0.236398 0.032277 -0.247806 0.291690 0.363544
doubt 0.250809 0.039598 0.054604 0.052860 -0.022462 0.318149 -0.636124 0.289816 0.045220 -0.282917
earth -0.145665 -0.494684 0.084095 0.036802 -0.263922 -0.511271 -0.361070 0.066499 -0.473226 -0.034860
blood 0.263560 0.166167 -0.554141 -0.246348 0.199945 0.463196 -0.095927 -0.197233 -0.089634 -0.187717
rostóv 0.436169 1.200077 0.559142 -1.779275 -2.217716 -0.995084 -1.172780 -0.456523 0.108240 -0.314097
boy 0.140899 -0.031940 0.261454 0.471466 -0.246816 0.395675 -0.566064 -0.377641 -0.022717 -0.086211
joe -1.054815 0.120371 -1.513308 -1.088151 0.338982 -1.371486 -0.400897 1.784654 -0.194266 -1.568362
children -0.652358 0.472095 -0.134522 0.091306 0.114230 -0.112522 0.349811 0.238579 -0.286635 0.142266
able -0.379752 -0.066580 -0.321888 0.335593 -0.104566 -0.086425 0.217398 0.724532 0.197853 0.073125
pleasure 0.590461 -0.087360 -0.066644 -0.264363 -0.303771 0.038552 0.435369 -0.011835 -0.396848 0.182331
moscow 0.464198 -0.030954 0.236331 0.565311 -0.244305 0.259911 -0.006117 -0.468915 -0.091621 -0.204790
electronic 0.004010 0.006625 -0.266789 0.053135 0.083280 -0.386049 -0.746355 -0.237844 0.155987 -0.338819
followed -0.247792 -0.508761 -0.346619 -0.219529 0.419733 0.154692 -0.124508 0.303392 -0.196973 -0.135319
added 0.088560 0.145994 -0.188804 0.075985 0.067948 -0.080479 -0.074309 -0.111553 0.536619 -0.174194
deep -0.094139 -0.054656 0.160976 0.182042 0.062115 0.303599 0.647874 0.125826 0.438712 -0.299716
ten 0.062831 -0.107188 0.021415 -0.109341 0.581044 0.350929 0.288444 -0.046788 0.138542 -0.122987
making -0.023310 0.365068 0.010476 -0.057250 -0.459858 0.337151 0.008606 0.635196 0.186419 -0.112121
several 0.057754 -0.059327 -0.509906 -0.192878 0.465409 0.500893 0.152349 -0.416649 -0.014980 -0.176180
cold 0.119190 0.077175 0.406195 0.416189 0.374663 0.000126 -0.048368 -0.141069 -0.509075 -0.096278
short -0.416962 0.467382 0.071970 0.056551 -0.042762 -0.119548 -0.699637 -0.052227 0.064861 0.019435
sister 0.135241 0.279766 0.481069 0.141289 -0.201282 0.367514 -0.124424 0.198734 0.045777 -0.578304
elizabeth 0.305865 -1.232188 -0.862602 1.301885 1.427490 0.383261 0.595221 0.522120 0.201753 -0.423704
daughter 0.030320 -0.298340 0.117064 -0.123224 0.180274 0.785699 -0.055626 0.221634 -0.131446 0.012428
chief 0.241111 0.083465 -0.062935 0.024098 0.236844 -0.194708 0.233923 -0.094629 -0.080432 0.700006
cause 0.199473 -0.399995 -0.010542 -0.083607 -0.342351 0.144276 -0.583735 0.384553 -0.312419 -0.262412
suppose -0.269904 -0.459421 -0.077086 -0.069854 0.195853 -0.505380 0.571985 0.189689 0.124064 0.181143
sleep -0.520485 -0.076237 0.181274 0.186676 -0.514891 0.277131 -0.097636 0.346586 -0.359316 0.229060
ye 0.450915 -0.124285 -0.257971 -0.277973 -0.477380 0.065824 0.388925 -0.261753 0.323505 -0.284172
past -0.294274 0.327983 -0.258868 0.396981 0.315422 -0.163021 -0.063796 0.384734 -0.066005 0.086330
possible -0.337813 -0.218917 -0.480656 0.475709 -0.052453 0.356801 -0.204637 0.109545 -0.393134 0.205278
talk 0.172679 -0.007310 -0.653035 -0.503365 -0.402798 -0.208178 -0.265891 0.056223 0.020024 -0.100616
forth -0.586855 -0.000982 0.050683 -0.168911 0.008635 -0.122753 0.288173 0.028314 0.586236 -0.167041
sun 0.347394 -0.055207 0.292770 -0.115593 0.365520 -0.125345 0.243721 -0.484747 -0.426401 0.376546
ought -0.132678 -0.203424 -0.692829 0.280855 -0.166901 -0.559572 -0.159595 -0.084735 0.091418 -0.011790
met -0.290893 -0.455878 -0.271003 0.347175 0.129047 0.330824 0.082622 -0.327593 0.428799 -0.073042
remember 0.014492 0.601948 0.278242 0.269447 0.117390 0.225452 0.235202 0.392317 0.045662 0.077253
change 0.111730 -0.403197 0.012313 0.267177 -0.078405 0.153501 -0.106501 0.392380 0.561486 -0.476271
strong 0.281726 0.566375 0.047776 -0.247999 0.095694 -0.127050 0.285385 -0.450591 -0.209203 0.197046
gods 0.000390 -0.107733 0.394990 -0.619043 0.045312 -0.174655 -0.481854 -0.031256 0.337460 -0.162067
seems -0.128020 -0.211975 -0.233829 -0.203652 -0.162359 0.143896 -0.190078 0.532304 0.091983 0.661294
standing 0.289311 -0.305809 -0.294401 -0.444377 -0.394468 -0.004332 0.248988 -0.401439 0.079048 0.136771
lips 0.443069 -0.196547 0.459594 0.072977 -0.570553 0.139174 0.135904 -0.069517 0.066540 -0.257243
hold -0.147053 0.121803 0.099364 -0.057977 -0.011570 -0.315425 -0.080103 -0.579812 0.418824 0.027179
town -0.191728 -0.335117 0.404342 0.444809 -0.469975 -0.416283 -0.133468 -0.094686 -0.051913 -0.249922
hard 0.494996 -0.527674 -0.050274 0.017521 -0.001650 -0.034598 0.407366 0.363030 -0.386647 0.109210
stopped -0.243075 0.182594 0.404147 -0.418569 -0.135895 0.306615 0.430586 -0.113548 0.012905 -0.085289
battle -0.195967 0.184499 -0.094600 0.011399 -0.292914 0.210251 -0.462577 0.597437 0.209871 -0.415302
law -0.115090 -0.166960 0.059068 0.746461 -0.079388 -0.170136 0.395013 0.157910 -0.002036 0.305394
neither -0.376522 -0.213648 -0.066549 -0.172962 -0.197073 0.145670 -0.116519 -0.488924 0.026671 0.466453
different -0.425675 -0.252420 -0.053225 -0.203138 -0.112106 0.377330 0.461513 0.026093 -0.535840 -0.234548
drew -0.335772 -0.632673 -0.078464 -0.220750 0.534003 -0.120249 0.230615 -0.100128 0.232505 -0.123324
knowledge 0.207047 0.033087 -0.064004 0.381040 0.404416 0.232520 -0.060074 0.305715 -0.661103 0.064970
thats -0.294508 -0.675434 -0.190295 -0.447758 0.126256 0.066864 -0.182670 0.150081 -0.269901 0.064699
beautiful -0.246589 -0.531532 -0.008424 -0.184631 0.406045 0.538363 -0.309425 0.063959 0.022363 -0.259049
women -0.106279 0.636955 0.201712 -0.372872 0.406074 -0.080977 -0.283044 -0.075336 -0.262668 -0.141380
fellow 0.369736 -0.015556 -0.243424 -0.169251 -0.057901 0.059208 0.342245 -0.257851 0.426181 0.238114
foundation -0.211559 -0.351096 0.119340 -0.156807 -0.558655 0.496599 -0.079989 -0.123989 -0.459070 -0.018108
nicholas 0.301117 0.177145 0.093011 0.036539 -0.355179 0.097895 -0.041355 -0.559292 -0.264059 0.587850
e -0.375815 -0.078700 -0.104963 0.021486 0.363666 -0.062815 0.576935 -0.220024 -0.287038 -0.096386
says 0.214531 -0.422262 0.100588 0.324035 0.164347 0.351840 0.217058 0.571031 0.368201 -0.031477
laid 0.292210 -0.388917 0.605760 -0.286294 -0.021651 0.409985 -0.166246 0.094994 0.009629 -0.001620
force 0.134708 -0.229572 -0.199398 0.539216 0.107919 0.412251 -0.200664 -0.311835 0.226885 0.262786
thee -0.364021 -0.221644 0.063442 0.376372 0.326274 0.543761 0.302854 -0.354519 -0.030909 0.006361
fall -0.353088 0.098546 0.162599 0.294886 -0.412380 0.122741 0.071211 -0.196533 0.597608 -0.276263
remained -0.422316 0.457820 -0.109875 0.207112 0.181363 -0.363256 0.224506 0.465709 0.164987 -0.031932
countess -0.253564 0.386374 0.575698 0.141010 -0.312197 0.145966 -0.312661 0.084271 -0.384940 -0.252062
art 0.068468 -0.279732 0.484244 0.487901 0.115732 0.153150 -0.248168 -0.113806 0.191677 0.373650
master -0.658094 0.130046 -0.001761 -0.290308 -0.067253 -0.237575 0.294260 0.243774 -0.442390 -0.250839
captain -0.161130 -0.486785 -0.154650 0.684971 -0.132187 -0.214981 -0.131815 0.002279 -0.374364 0.144256
road -0.483849 -0.244632 0.192766 0.361248 -0.224413 0.037090 0.253379 -0.398307 -0.060250 -0.510068
struck -0.055550 -0.388910 -0.365626 0.566661 0.074213 -0.251172 0.221984 -0.401585 -0.236640 -0.235729
red -0.029120 0.307563 -0.088062 -0.061651 -0.230833 -0.199136 -0.528770 -0.161676 -0.138955 0.363965
spirit -0.027982 -0.350536 0.253845 0.053567 -0.076423 -0.279010 -0.392711 0.369094 -0.307620 0.401532
minutes 0.145837 -0.045769 0.209610 0.342746 0.150442 -0.148732 0.146498 -0.310023 -0.406389 -0.153986
seeing 0.198682 -0.577895 -0.151343 -0.119634 0.331322 0.347606 0.088814 -0.190922 -0.312374 0.454826
horse 0.246447 -0.060569 -0.045275 -0.071254 -0.174946 -0.240821 -0.415717 0.420286 0.080946 -0.695369
emperor 0.287061 -0.244447 0.119960 0.404883 -0.385783 0.411405 0.056501 -0.178686 -0.456974 -0.319520
horses -0.086270 0.029001 -0.363858 0.385174 -0.243352 -0.588196 0.090594 0.096928 -0.525312 0.108849
strength -0.543006 0.039540 -0.608100 0.004374 0.146669 0.143863 -0.292218 -0.056298 -0.292313 -0.342796
age -0.099644 0.132332 0.239193 -0.180181 0.516388 -0.215465 -0.143686 0.188796 -0.196978 -0.421065
need -0.390548 -0.114000 -0.160952 -0.112901 -0.066354 0.479396 0.486012 -0.072369 -0.468352 0.316277
front -0.049965 0.251886 0.687790 -0.142581 0.186189 -0.036684 0.421044 -0.046663 0.063489 -0.208817
pale -0.144488 0.290523 0.173793 0.056666 0.340595 0.360539 -0.359723 -0.151037 0.058107 0.276557
bad -0.045033 0.143350 0.202461 0.313906 -0.149087 0.535370 -0.278265 -0.396807 0.379680 0.027942
bring -0.008902 -0.281113 -0.113297 -0.426914 0.284853 0.023551 -0.198984 -0.506798 0.388246 0.068898
jane -0.199909 0.234305 0.025803 -0.026834 -0.176584 -0.143022 -0.092056 0.362297 -0.140104 0.765972
book -0.645981 0.194780 0.080682 -0.385108 0.275629 0.392942 -0.016387 0.043633 -0.377641 -0.080280
turning -0.252354 -0.078381 -0.232595 0.071062 -0.358064 0.173518 0.040187 -0.506287 0.226127 -0.395795
sitting -0.574381 0.119980 -0.346702 0.576711 -0.037054 -0.223973 -0.267181 0.217588 -0.020951 -0.179088
mine -0.454851 -0.123057 -0.216305 0.263259 0.270430 -0.143101 0.119707 0.061739 0.448587 0.366354
doctor -0.164833 -0.223106 0.117247 -0.108072 0.572083 -0.105077 -0.413148 0.009493 -0.550733 -0.291755
justice -0.082900 0.529534 0.060133 0.282275 0.353627 -0.060921 -0.157999 0.046982 0.326563 -0.445655
number 0.275914 0.269160 -0.050572 -0.691474 -0.134246 -0.073320 0.125402 -0.028988 -0.574852 -0.015788
fact 0.382041 -0.199228 0.081275 -0.470683 -0.293794 0.391138 0.096432 -0.193578 0.225824 0.019428
hardly -0.256085 0.033372 -0.159380 0.162858 0.104617 -0.549385 -0.326784 0.190629 0.640805 0.040180
valentine 0.264413 0.023709 -0.377072 0.411954 -0.206812 -0.334303 -0.174700 0.481945 -0.084042 -0.032038
_ -0.268728 0.468434 -0.296046 -0.074716 0.122631 0.525601 0.158441 -0.297857 0.455478 -0.047183
tried 0.030048 0.253092 0.237439 0.161656 0.570841 0.320640 -0.482534 -0.207407 -0.046162 -0.037297
common 0.376697 0.131260 0.127540 -0.272712 -0.024330 -0.185966 -0.323696 0.718778 0.002858 -0.305843
husband -0.255148 0.394729 0.054945 0.506399 -0.099670 -0.235323 -0.487292 0.127663 0.034858 -0.446488
land 0.134104 -0.093931 0.407192 -0.263262 0.026088 -0.282327 0.270612 -0.208640 -0.072344 -0.649039
meet -0.662233 0.056202 -0.151815 0.064344 0.190035 -0.399702 0.116316 0.327490 -0.163515 -0.432881
silence 0.072235 -0.388567 -0.335701 0.042940 -0.341880 -0.072412 -0.540233 0.365903 -0.297115 0.047607
fine -0.288886 0.417675 0.005559 -0.362036 -0.276446 -0.491939 -0.194950 0.111337 0.074640 -0.003240
low 0.229367 -0.159546 -0.107096 -0.154749 0.097767 -0.537540 0.360688 -0.352992 -0.446645 0.154291
thoughts 0.154039 -0.033854 -0.047349 -0.129208 0.392076 -0.047161 -0.397382 0.554455 -0.218310 0.451363
happened 0.034031 0.423019 0.129997 0.258203 0.041513 -0.604572 -0.108628 0.214490 -0.233883 -0.315905
led -0.467919 0.009511 -0.281726 -0.135714 0.650327 -0.009218 0.272076 0.095271 -0.325362 0.226155
wished -0.323018 -0.022264 -0.358481 0.430277 0.355217 0.308045 -0.190122 -0.164169 -0.246191 0.007854
late 0.485555 -0.001518 -0.021998 0.417821 -0.096875 0.484921 -0.243032 0.012595 -0.530419 0.058249
across 0.328892 0.253554 0.409946 -0.258143 -0.032665 -0.078409 -0.024480 0.697702 -0.214187 -0.225164
ship 0.300326 -0.335023 0.042070 -0.386700 0.263789 -0.531218 0.008727 0.398649 0.083177 -0.358507
laws -0.196818 -0.006204 -0.404384 0.231173 0.038643 0.059055 -0.095052 0.422677 0.402781 0.005265
year -0.672287 0.288790 0.032668 -0.000191 -0.386979 -0.381525 0.160347 0.044894 -0.354170 0.120397
soldiers 0.569492 0.011873 0.209627 -0.007763 0.007352 0.068833 0.280592 0.382679 0.279269 0.081069
character 0.126016 0.123689 -0.669060 0.418178 0.089903 0.025411 0.120866 -0.012046 0.029161 0.254361
city -0.626035 -0.232620 0.269647 -0.368890 -0.188780 -0.359489 0.083290 -0.117882 0.162696 0.099784
wanted -0.287081 0.348643 -0.075427 0.119834 -0.100027 0.173852 -0.121274 0.563973 0.594918 0.218702
die 0.017988 0.378474 -0.003654 0.354763 -0.270266 0.019735 -0.749321 0.235073 -0.055879 0.192692
impossible -0.180135 -0.185899 -0.281973 0.637238 0.143855 0.379938 -0.331580 0.109659 -0.261491 0.303342
plain 0.539639 0.053810 -0.360827 0.070673 0.103123 0.227233 -0.478737 -0.140270 0.382231 0.002520
carriage 0.088909 -0.450303 0.216943 0.401016 -0.020661 0.065545 -0.031483 -0.040266 -0.324696 -0.162261
bear -0.051473 -0.612452 -0.121490 0.050993 0.162759 0.440078 -0.455456 0.252494 0.283116 0.182621
necessary -0.292512 -0.042474 0.186218 0.025292 0.134464 -0.048908 -0.148038 -0.331942 0.166463 -0.517414
officer -0.003398 0.217422 0.073702 -0.224787 0.407869 0.012026 -0.194766 0.251147 -0.646233 0.460033
opinion -0.145962 -0.135556 -0.403256 -0.237403 -0.422725 -0.246380 0.011920 -0.458255 -0.504775 0.192227
sense -0.108742 0.318804 -0.185677 -0.422697 0.188857 -0.053463 -0.372448 0.291863 -0.640763 -0.019683
view -0.151971 0.476339 -0.336610 0.186414 -0.389459 -0.650079 -0.079143 -0.023361 -0.049837 -0.125103
placed 0.336730 -0.290828 0.133263 -0.061843 0.536625 -0.500446 -0.050593 -0.187682 -0.030792 0.118299
pass 0.181907 -0.433422 0.120696 -0.038569 0.029871 0.268201 -0.652358 0.166471 0.283288 -0.395779
franz 0.663652 0.044190 -0.247437 0.059695 -0.316247 -0.341035 -0.358785 0.264350 -0.275063 0.044870
forward 0.066018 -0.098508 -0.119700 -0.360097 -0.351995 0.098164 0.566813 -0.086551 -0.114465 0.471359
doing 0.315142 -0.240573 -0.387473 -0.068880 0.268400 -0.467600 -0.225179 0.308087 -0.487502 -0.084413
gold 0.024461 -0.206094 -0.836691 0.180531 -0.087596 0.362912 -0.187347 0.193866 -0.055120 -0.074563
raised -0.111423 0.273109 0.115474 0.084887 0.477168 -0.243432 -0.007462 -0.580572 -0.253613 -0.210731
speaking 0.223194 -0.116074 -0.665527 0.137099 -0.412507 -0.092475 0.201055 0.429179 -0.200437 0.176047
position 0.529583 -0.453037 0.094123 -0.205752 0.013686 -0.543130 0.278248 -0.180987 -0.157822 -0.001137
brother 0.120298 0.107912 -0.134662 0.336978 -0.020931 -0.308142 -0.190376 0.519882 0.130776 -0.631735
show -0.670914 -0.088035 -0.013247 0.019739 -0.324039 0.436788 -0.101097 -0.444498 0.091336 -0.087123
except 0.038797 -0.087955 0.056898 -0.252503 0.077192 -0.172066 -0.139027 0.578512 0.098404 0.536406
carried 0.279099 -0.032909 0.243570 0.524501 0.107068 0.092046 -0.214601 0.315604 -0.393253 0.509837
terrible 0.295266 -0.414084 0.253667 -0.069443 0.466671 -0.276631 0.013019 0.127216 -0.095519 0.425238
stand -0.441838 0.431268 0.367851 -0.094082 -0.006848 -0.184724 -0.221112 0.234502 -0.303250 0.434709
besides 0.203083 -0.501174 0.003156 -0.484379 -0.158337 -0.252763 -0.040076 -0.246184 -0.127895 -0.266916
none 0.169527 -0.531692 0.008691 0.432229 0.029092 0.339862 -0.318135 -0.108111 0.372894 -0.186156
silent -0.279502 -0.513716 0.065976 0.235322 0.058137 0.269871 -0.115479 -0.036932 0.372300 -0.607100
wild -0.399435 0.076129 -0.057075 0.373755 -0.099607 -0.201843 -0.620880 -0.191939 -0.327745 -0.286620
moved 0.151596 0.062690 0.624290 -0.181003 -0.060742 0.009306 -0.276186 0.069270 0.517894 -0.336615
seem 0.486769 -0.429227 0.444773 -0.033094 0.242473 0.155526 0.154784 0.062607 0.252335 0.093930
living -0.734740 -0.024638 0.068148 0.027310 -0.027627 0.240519 0.249296 -0.152742 -0.181292 0.421572
tears 0.527169 -0.078432 -0.058756 0.159828 0.356398 0.160948 -0.696114 -0.171448 0.021255 -0.070425
please 0.104600 -0.277550 0.177759 0.258353 0.768842 0.139028 0.304684 0.027954 0.195991 0.142939
wall -0.303004 -0.252258 0.676338 0.391537 -0.094735 -0.241901 -0.025190 -0.156368 0.036059 -0.372062
society -0.202114 0.025170 -0.753598 -0.002060 0.449491 0.104489 0.172994 -0.233412 -0.158546 0.218512
further -0.322518 0.102647 0.301731 0.219373 0.321845 -0.367768 -0.427480 0.409580 0.036203 -0.073704
evidently 0.166427 0.198096 0.198153 0.579117 -0.289263 0.097106 0.171767 0.627249 0.205329 0.014527
third -0.589780 0.093173 0.188540 -0.026174 0.376085 -0.246311 -0.434719 -0.320127 -0.301058 0.150383
evil -0.147741 0.176563 -0.147532 0.084865 0.553053 0.161839 -0.507194 -0.002787 -0.460159 -0.326437
hours -0.122074 0.185042 -0.102341 0.493852 -0.195024 0.316884 0.168173 0.322976 -0.334804 -0.368014
line 0.108765 -0.620242 -0.525817 0.028420 -0.214521 -0.228985 -0.029078 -0.317363 -0.281062 -0.217173
afraid 0.408763 0.193320 -0.600173 -0.219803 -0.236961 -0.070626 -0.078149 0.416561 0.369400 -0.030396
length -0.598607 0.263026 -0.230845 0.363006 0.477322 -0.071653 0.258660 0.114727 -0.090214 -0.058822
motion 0.383037 -0.193676 0.018604 -0.072054 0.273851 -0.347348 -0.404501 -0.325162 -0.235503 0.511201
interest 0.044869 0.051964 -0.117817 -0.671438 0.008489 0.244054 0.317341 0.203167 -0.496891 -0.224875
gentleman 0.432905 0.165867 0.063483 0.357156 -0.426664 -0.019911 -0.235076 0.098095 0.129996 0.405286
beyond -0.377815 0.238720 -0.205481 -0.245386 0.384245 -0.198909 0.521286 -0.115105 -0.424231 0.213496
happiness 0.490320 -0.462770 0.193830 0.362830 0.035697 0.054932 -0.297358 -0.096669 0.334014 -0.016006
immediately -0.298265 -0.257361 -0.295236 0.262680 0.402200 0.047059 0.218664 -0.458885 0.183555 0.297573
following 0.009652 -0.492559 0.520830 0.021143 -0.363840 0.127972 0.020628 -0.419650 0.035889 0.330583
attention -0.036350 -0.206247 -0.145823 0.115904 -0.132420 0.219903 -0.136759 0.796185 0.225971 -0.271775
fair 0.010846 0.066859 0.111537 0.160309 -0.133905 0.699558 -0.186496 0.084223 -0.513374 -0.379329
united 0.076500 -0.458423 0.199524 -0.516141 -0.293663 -0.237668 -0.103941 -0.357966 0.052359 -0.439713
chair 0.479258 -0.132353 -0.145120 -0.151513 0.271308 -0.148182 -0.335805 -0.290318 -0.080982 0.468253
rich -0.432719 -0.242472 0.305625 -0.126533 -0.443834 0.249966 -0.310775 0.131697 -0.128540 -0.262352
o 0.094022 -0.477827 0.197098 -0.142658 -0.050140 0.384573 0.036607 -0.649258 0.295796 -0.190359
youth 0.213912 0.166885 0.666559 -0.072204 0.155720 -0.092433 -0.321990 0.471692 0.051187 0.106651
steps -0.096428 -0.289381 -0.322273 0.061414 -0.377567 -0.316943 -0.306912 0.058525 0.094421 0.187187
account 0.169708 0.141878 -0.360379 0.276274 0.376010 0.215206 -0.103622 0.424003 -0.202170 -0.001563
napoleon 0.096078 0.512334 0.296799 0.124223 0.211200 0.361331 0.298438 -0.300289 0.060195 0.355182
conversation -0.066454 0.349873 -0.004834 0.068257 -0.495617 0.135150 0.087857 0.093344 0.037845 0.368424
instead 0.041029 0.193394 -0.307057 -0.568334 -0.253191 0.623763 0.162065 0.140600 0.118691 -0.174129
comes -0.251083 -0.317504 0.128204 0.471137 -0.333157 0.041301 0.447251 0.453241 0.193039 0.177220
anyone 0.287444 0.265932 -0.300220 0.249492 -0.311988 -0.468681 -0.155860 0.499454 -0.235470 0.219107
usual 0.024556 -0.327316 -0.181327 -0.177745 0.720308 -0.114611 -0.129146 0.432065 -0.008003 0.169876
field 0.145701 0.089026 -0.382311 -0.027486 0.281134 0.516290 0.100539 0.135772 0.513676 0.174529
purpose -0.118453 0.053735 -0.030192 -0.425059 0.439983 -0.131601 -0.561494 0.059554 0.090954 -0.513318
clear -0.481578 0.342276 0.335473 -0.232215 -0.140053 0.516045 -0.014855 0.287537 -0.102353 0.220874
run 0.446303 0.014003 -0.450207 0.286191 -0.422097 -0.268337 -0.417691 0.143480 -0.086865 0.233851
cant -0.207208 -0.453677 0.211810 0.350956 0.521795 0.458787 0.178067 -0.244160 0.047847 -0.078298
mans -0.240408 -0.218507 -0.325811 -0.160977 0.302943 0.001633 0.416169 0.297699 -0.287428 0.324590
copyright -0.187967 0.239094 -0.015306 -0.438130 0.109482 -0.235976 0.570481 0.178567 -0.121372 -0.525063
agreement 0.292574 -0.274856 -0.267678 -0.684932 0.054203 -0.028092 -0.481628 -0.154321 -0.009907 0.074104
fight -0.316177 -0.253690 0.030582 -0.242599 0.187746 -0.196598 0.046539 0.416845 -0.033504 0.723577
real -0.509945 0.496020 -0.089840 0.176480 -0.392183 0.152071 -0.034212 -0.174137 -0.443899 -0.216587
dinner -0.589162 0.092006 -0.104825 0.672373 0.014359 0.237585 0.215463 -0.049371 0.108064 -0.012036
try 0.330190 -0.158415 -0.357095 -0.281151 -0.385208 0.453411 -0.191631 -0.247029 0.225633 -0.246499
beside -0.211881 0.032434 0.272925 0.143274 0.293563 0.724608 0.245984 0.099487 0.014356 -0.415383
vain 0.664022 0.184622 -0.194218 0.036910 0.164385 0.105529 0.026784 0.647032 -0.025568 0.165730
fathers -0.484189 0.461861 -0.195663 -0.084886 0.490758 -0.072389 0.143282 -0.181285 0.087350 0.051097
street -0.075135 -0.338670 -0.335378 0.129866 0.398400 -0.615630 0.014405 0.013954 -0.199030 0.352278
fortune -0.298188 -0.330738 -0.615254 -0.042137 -0.103437 -0.142916 -0.246132 -0.122145 -0.489487 -0.274149
wind 0.633103 -0.331764 0.036190 -0.022292 -0.040180 0.195631 -0.249421 -0.315871 0.248487 -0.357840
wait 0.495102 -0.227247 0.471739 0.129864 -0.354149 -0.062346 -0.420555 -0.098733 0.211121 0.105813
tone -0.203403 -0.602262 -0.153058 0.222866 0.182632 -0.093096 0.312656 0.370385 -0.318787 -0.242715
repeated 0.174058 0.114382 -0.265981 0.297145 -0.434082 -0.267561 0.231560 -0.599515 -0.317113 -0.059883
secret -0.253646 -0.015544 -0.004775 -0.038644 -0.690971 -0.275029 -0.060780 0.026408 -0.475741 -0.386229
fate -0.570226 0.079536 -0.160452 0.095808 0.586250 -0.155224 0.260750 0.100643 0.016126 0.358382
ones -0.747625 -0.046821 -0.217012 -0.222229 -0.320723 0.109919 -0.081945 -0.007556 -0.295841 -0.220048
beneath 0.037688 0.149773 0.274835 0.075354 -0.176271 0.279119 -0.157774 -0.092266 -0.121544 0.494691
cut -0.014410 0.453614 0.199651 0.007628 0.220711 -0.139391 -0.211891 0.669016 -0.427220 -0.104523
future -0.222415 0.076869 -0.522210 -0.586592 0.206295 -0.029246 -0.113457 0.331906 -0.217836 -0.072588
joy 0.116988 0.082614 0.363341 -0.167810 -0.685309 -0.027116 -0.223301 0.191014 -0.052530 -0.201255
ago -0.200967 -0.486214 0.124538 -0.020640 -0.193722 -0.315736 -0.411448 0.308929 0.461763 0.123449
desire -0.412608 -0.600590 -0.356921 0.329721 0.200019 0.044115 0.225540 -0.041057 0.334317 0.161833
bright -0.128580 0.159303 0.226837 0.551499 0.409115 0.079494 0.319880 0.193595 -0.115386 -0.480653
merely 0.143944 -0.422042 0.250518 -0.419176 -0.144755 0.343442 -0.140898 -0.207504 0.433289 0.168694
natural -0.692613 0.562662 -0.186889 -0.244517 -0.022686 0.104678 0.156191 0.104501 -0.148018 0.040435
walked -0.246536 -0.491737 -0.191281 -0.172717 -0.263408 -0.624415 -0.021769 -0.310056 -0.075913 -0.214496
whatever 0.272654 0.327280 0.363838 0.179091 -0.089189 0.057466 -0.039791 0.757715 0.144329 0.213656
glad 0.227362 -0.327659 0.036485 -0.341817 0.236749 -0.071516 0.376119 0.091596 -0.527963 0.343844
paris -0.086531 -0.397955 -0.479221 -0.143729 -0.102113 0.082981 0.426032 -0.224405 0.418842 0.087277
nearly 0.185620 -0.380406 0.057947 0.196954 -0.062376 0.383110 -0.303558 -0.038812 0.696215 0.052645
toward -0.264731 -0.156159 -0.444703 0.466065 -0.144781 -0.340194 -0.069669 -0.264514 -0.527045 -0.035507
russian 0.330713 0.328961 0.610677 0.233979 -0.107896 -0.033814 -0.466162 -0.070508 0.199790 0.276437
lived -0.283035 0.277373 -0.471180 0.488889 -0.026316 -0.598541 -0.106002 0.001451 0.089454 0.051415
today 0.368981 0.106912 -0.197023 0.121044 0.558641 -0.139011 -0.480427 -0.019099 0.334956 0.163243
loved -0.737251 0.340679 -0.098108 0.024911 0.477104 -0.152381 0.057703 0.199552 0.149105 -0.003068
reached -0.215435 0.264183 0.527731 0.517494 -0.159067 -0.023340 0.070990 -0.321590 0.358462 -0.058399
breast 0.125639 -0.376350 0.035806 -0.371584 0.111457 -0.555267 0.215279 0.109767 -0.484585 -0.295957
although 0.317676 -0.342018 0.272678 -0.296994 -0.026681 0.485217 0.405909 -0.176912 -0.118151 0.113424
appear -0.486929 -0.376628 0.097313 -0.069655 0.128573 -0.165665 -0.246372 0.343176 -0.069168 0.341530
paid 0.081985 -0.499778 -0.233118 0.389790 -0.125134 -0.409779 -0.557816 0.020080 -0.204017 0.016749
afterwards -0.128448 0.014272 -0.021867 -0.204326 0.658171 -0.455379 0.079978 -0.390849 -0.231226 0.033708
knows -0.210146 -0.637152 -0.088246 -0.144947 0.329218 0.192037 -0.122336 0.346708 -0.444276 -0.103673
oclock 0.255483 0.456359 0.111131 0.024628 -0.095023 0.077904 -0.374266 -0.221059 0.401759 0.003008
early -0.143606 -0.354341 -0.020010 -0.210532 -0.292864 0.149968 0.442102 -0.180714 -0.351559 0.590732
exclaimed 0.256560 -0.318479 0.013004 0.253280 0.176091 0.281041 0.702485 -0.018431 -0.326007 0.241327
action -0.190247 -0.111408 -0.112320 0.085466 -0.097584 -0.294606 -0.259226 0.314697 0.282159 -0.767561
holmes -0.208295 -2.046178 0.151757 0.114226 -0.613225 1.073198 0.477582 1.825187 1.105193 1.383852
license -0.321878 -0.433057 0.116804 0.025370 0.012133 -0.285118 -0.118459 0.039995 -0.438550 -0.216889
orders -0.288078 0.228920 0.046522 -0.648652 0.208630 -0.078198 -0.012696 0.016568 0.362329 -0.287801
greater 0.014312 0.104897 -0.007032 -0.409423 -0.301617 -0.289268 0.170432 0.301017 -0.429902 -0.579708
effect -0.585727 -0.375450 -0.027712 -0.583914 0.409544 -0.007456 -0.022771 0.068116 -0.018136 -0.005546
thinking 0.274616 0.064594 -0.039863 -0.568693 0.071383 -0.308450 0.079784 0.538774 -0.385286 -0.176832
heavy 0.042828 -0.301536 0.281446 -0.512755 0.245104 -0.152993 -0.340698 0.158068 0.189988 -0.495514
arrived 0.359925 -0.060464 0.401451 -0.268375 0.056323 -0.113572 -0.167712 -0.414840 -0.099185 -0.323897
beauty -0.119368 -0.434634 -0.526326 -0.088461 0.001451 -0.386038 0.338182 -0.003098 0.434518 -0.085233
foot -0.335446 0.070981 0.312994 0.531883 0.055252 -0.331479 -0.443353 0.099169 -0.236159 0.078508
wood 0.095508 0.821068 0.065590 -0.365447 -0.069129 0.061377 -0.119204 0.165381 -0.142002 -0.143017
corner 0.159154 0.051253 -0.019506 0.206933 0.282278 0.156912 -0.329700 -0.064754 -0.489868 -0.344891
history -0.124809 -0.470851 0.315047 -0.106100 0.073978 0.519356 0.242422 -0.168643 0.379292 -0.089044
instant -0.209795 0.135063 -0.312690 0.171975 0.097783 0.127608 0.569392 0.060340 0.093385 -0.132304
paper 0.019942 -0.435378 -0.139058 0.160638 0.592743 -0.069198 0.106057 0.397307 -0.477102 0.100920
distance 0.145163 -0.326649 0.440014 -0.395894 -0.153288 0.063028 -0.016940 0.072934 -0.534312 -0.450908
kutúzov 1.116796 1.351925 0.725571 0.334006 0.086516 1.264931 -0.232211 -0.944889 1.971051 -1.599001
married -0.255343 -0.492559 0.297295 0.041114 -0.002041 0.234647 0.484072 0.115346 0.115202 0.439183
fixed 0.500426 -0.052152 0.325397 -0.235829 -0.135858 0.301548 0.083396 0.307455 -0.364950 0.381373
closed 0.041572 -0.230322 -0.237844 -0.065773 -0.091927 -0.253056 -0.751335 -0.086585 -0.478244 -0.089912
john -0.024472 -0.598553 0.111334 -0.007092 0.271568 -0.048849 0.616607 0.076788 -0.052825 -0.234398
enemy -0.683554 -0.475706 0.062001 0.316153 0.057957 -0.299750 -0.074385 0.019453 0.133310 0.155452
sit -0.396041 0.563259 0.252610 -0.141287 -0.219348 0.332201 -0.215235 -0.113726 0.138792 0.417608
race -0.080772 0.101095 -0.003080 -0.658429 -0.346700 0.215256 -0.175807 -0.027117 -0.253020 -0.535287
boat 0.596216 0.035917 0.499316 -0.217162 -0.237076 0.079787 0.309153 -0.179862 -0.252556 -0.282709
glass 0.536963 -0.217519 -0.011396 -0.232006 -0.375661 -0.159064 0.223367 -0.093291 0.299648 -0.046039
understood -0.310980 -0.258253 -0.594658 0.304765 -0.184725 -0.420275 0.392027 -0.147941 0.060290 0.007777
study 0.545951 -0.108364 0.243058 -0.360687 0.231482 -0.262682 0.053520 -0.292674 0.183432 -0.147089
remain -0.013020 -0.522185 -0.206462 0.133153 0.471483 -0.023347 -0.049602 -0.506672 0.202757 -0.016987
follow -0.080045 -0.141893 -0.355556 -0.422002 -0.426037 0.222305 -0.160633 0.363124 0.038957 0.213392
grew 0.041618 -0.320453 -0.328759 0.056962 -0.001600 0.425021 -0.213185 0.365115 0.587374 0.044051
oer -0.233292 -0.156788 -0.019227 -0.312160 -0.023857 0.268921 0.269686 0.118484 0.779574 0.222599
public 0.009285 0.315234 0.540487 0.463691 -0.170610 -0.344551 -0.210221 -0.029053 0.145225 -0.210932
tomorrow 0.072717 -0.542728 -0.217951 0.142296 -0.234073 -0.076259 -0.539794 0.128118 -0.400909 0.305486
below 0.382002 0.133751 0.148235 0.428230 -0.375484 0.433549 -0.416715 -0.121967 -0.335210 0.028343
wont -0.053326 0.045536 0.400846 -0.198760 0.028825 0.300139 0.734006 -0.020712 -0.177088 -0.058367
agree -0.158900 0.223228 -0.079253 0.018355 -0.184003 0.302781 -0.562598 0.257689 -0.634488 0.084851
beginning 0.227708 -0.374091 0.224869 0.325853 -0.395706 -0.226125 -0.206393 -0.131561 -0.581209 0.067043
former 0.166209 -0.004068 -0.319578 -0.137441 -0.487354 0.146019 0.052191 -0.036115 -0.766334 0.033654
six -0.436266 0.253358 -0.264764 0.035286 -0.054432 -0.358091 0.015929 0.188607 0.362404 0.203942
single -0.396325 -0.104124 0.020010 -0.651641 0.311070 -0.259353 0.177917 -0.075396 0.257440 0.104417
written 0.633638 -0.073295 0.373897 -0.097188 0.002629 0.129674 -0.218480 -0.131439 -0.056688 -0.485219
story 0.088789 0.158269 -0.422146 0.422302 0.170078 0.067647 -0.053480 0.334374 0.054611 -0.406062
object 0.560531 -0.259072 0.099397 0.103284 0.522695 -0.125493 -0.225741 0.078142 0.293814 0.148590
especially 0.084224 -0.061051 -0.300256 0.328871 0.014340 0.317547 -0.269789 -0.445197 0.368731 0.449966
makes 0.269896 -0.801087 0.116578 0.083209 -0.029441 0.421380 0.171575 -0.052477 0.218322 0.043439
achilles -0.025639 0.303075 0.281667 0.378453 0.139278 0.179504 0.070945 -0.361026 0.653487 -0.266424
stay 0.159101 -0.255606 -0.540408 0.423933 0.016459 -0.427457 -0.155862 0.433564 -0.025716 0.203249
visit -0.218805 -0.354540 -0.541692 -0.241714 0.359673 -0.151876 0.047562 0.052858 0.078464 -0.446541
died 0.143106 0.092151 -0.651508 0.371155 -0.329680 -0.018804 -0.442994 0.015737 -0.306956 0.087497
quickly 0.140101 -0.136866 0.097640 -0.152637 0.457686 0.711966 0.115471 -0.093534 -0.096272 -0.082244
garden -0.755553 -0.055063 0.130999 -0.019983 -0.020427 -0.368349 -0.062081 -0.431639 -0.284004 0.034909
consider 0.136884 -0.043530 0.035560 0.042057 -0.141629 -0.362997 -0.028257 0.580479 -0.175574 0.675070
blue 0.111268 0.527288 0.084686 -0.002499 -0.520966 0.253045 -0.268147 0.190370 -0.465371 0.078568
cry 0.379424 -0.380942 -0.265791 0.322168 -0.003594 -0.554724 -0.062356 -0.064632 -0.082044 -0.455938
mouth -0.237776 0.462635 0.462576 -0.269594 0.100609 0.231084 0.171760 0.451793 -0.231709 0.158761
expected 0.686864 -0.111608 -0.317045 -0.188436 0.059520 -0.072150 0.027217 -0.238922 -0.219693 0.102372
wonder 0.150633 -0.010136 0.469999 0.631524 0.447588 0.310668 -0.120605 0.029135 0.043177 0.109330
step -0.541844 0.456412 0.176320 0.340219 0.016614 0.352316 -0.330561 -0.109641 -0.254684 -0.005503
easy 0.125741 -0.009370 -0.405772 0.216637 0.026026 -0.233307 0.312428 0.740392 0.166895 -0.208952
service 0.273899 -0.420362 0.297730 -0.268623 0.328007 0.215340 -0.310541 -0.175086 0.295968 0.139708
questions 0.053010 0.347591 0.244743 0.519572 0.380758 -0.153768 -0.338290 -0.365942 0.062343 -0.218067
ahab -0.058415 0.206272 0.524570 0.183892 0.038668 -0.011809 0.374238 0.422668 0.195314 0.534805
figure 0.411037 -0.511882 0.115325 0.009140 0.008065 0.292325 0.034064 -0.426544 -0.190793 0.436533
particular -0.145570 0.048228 0.290034 -0.318130 0.769704 0.000644 -0.106153 0.226122 0.003508 -0.202684
dorian -0.043875 0.728633 -0.242587 0.914158 0.315136 0.337930 1.132700 0.162957 0.338173 -0.111139
walk 0.261517 -0.415010 -0.283054 -0.093573 0.511678 -0.464851 0.331866 0.222223 0.039703 0.094600
meeting -0.508408 -0.315349 -0.614040 -0.112295 -0.120142 0.064503 -0.455363 0.050387 -0.075799 0.056505
greatest -0.141595 0.001476 0.260505 -0.220307 -0.485951 -0.173162 -0.177024 -0.051060 -0.294443 -0.690456
crowd -0.366500 0.226241 0.224112 0.297785 0.599494 -0.385090 -0.158878 -0.195329 0.067525 0.029332
threw 0.036979 -0.140472 -0.193422 0.092501 0.021839 -0.241787 -0.175904 -0.709133 -0.180767 -0.554329
scarcely 0.235188 0.186703 -0.219673 0.116688 -0.243903 0.170426 0.463153 0.710896 0.055786 0.052524
talking 0.718775 -0.135854 -0.141466 -0.184253 0.013951 -0.077878 0.262692 -0.098641 -0.491101 0.096399
save 0.012682 0.014202 0.249867 0.013958 0.073766 0.033459 0.028356 -0.051912 0.857438 0.242044
company -0.067728 0.106166 -0.482230 0.179987 -0.162549 -0.227946 0.382211 0.222652 -0.575745 -0.328414
sónya -1.000622 0.709313 -0.772112 -0.390105 -0.849356 0.462189 -0.355313 -0.851305 -0.879194 1.047635
watch 0.128100 -0.335834 -0.375769 0.276454 -0.092361 -0.219705 -0.510297 -0.185399 0.139644 -0.531127
chance -0.086287 -0.094945 0.026766 -0.142984 0.032262 -0.571737 -0.412487 -0.059093 0.221039 0.336959
honor 0.028000 -0.213818 0.105314 -0.457283 0.372965 -0.077719 -0.076937 -0.017926 0.137403 0.132437
information -0.024756 -0.601661 -0.437748 -0.069876 0.193712 -0.233600 0.084271 0.455218 0.086084 -0.307620
broken -0.292876 0.169785 -0.275541 0.287267 0.457156 0.166623 -0.547061 0.101636 0.122293 0.278613
floor -0.262393 -0.550085 0.418972 0.219300 0.012755 0.379413 -0.311338 -0.324395 0.023115 -0.241063
act 0.611290 0.119055 0.111403 -0.365165 0.421719 -0.067605 -0.265444 0.382885 -0.084360 0.085697
officers -0.591115 -0.071450 0.379460 -0.248428 0.176372 -0.346022 0.129241 -0.192379 -0.447961 0.052615
reply 0.035583 -0.221591 0.561183 -0.258156 -0.056587 -0.132454 -0.226218 -0.195396 0.007011 0.397076
village 0.079838 0.508990 0.274275 0.484458 0.258187 -0.209763 0.389916 -0.115412 -0.235942 0.111385
peace 0.411109 -0.306574 -0.520440 0.010062 0.262128 0.246906 -0.183858 0.381971 -0.229002 -0.322614
presence -0.391515 -0.319757 -0.091159 -0.168805 0.366870 0.235819 0.167900 0.653360 -0.239671 0.069533
caderousse 0.187018 -0.308806 -0.603057 0.238261 0.066598 0.152313 0.119410 0.435536 0.306387 0.212972
alice 0.053655 0.067872 -0.378705 0.353968 0.367994 -0.201426 -0.365484 0.403631 0.371082 -0.188031
duty -0.604405 0.059571 0.287481 -0.085086 -0.226141 0.335123 -0.315944 -0.439573 -0.075114 -0.193382
pay -0.135052 0.064599 -0.262830 0.276267 0.358126 0.098551 -0.287127 0.390276 0.634086 -0.108624
feelings -0.134860 -0.124606 -0.118018 0.739726 0.301543 -0.330828 0.026759 0.126229 -0.337377 -0.010316
whales 0.018084 -0.791190 -0.823357 -0.352936 -0.064965 -0.322855 0.387499 -0.112433 -1.958439 1.471779
charge 0.759246 -0.204865 -0.144738 0.087879 -0.352537 -0.050321 -0.322833 -0.202094 -0.013408 0.007942
quiet 0.235871 0.218467 0.351011 -0.226619 0.042381 -0.157071 0.591737 -0.185749 -0.197514 -0.393492
marriage 0.258689 0.524565 0.117745 0.192500 -0.220122 0.118186 -0.482073 0.276780 0.082428 -0.234544
waiting 0.293858 0.259414 0.338046 0.126786 0.629234 -0.251270 -0.179234 0.041667 0.178374 0.199681
considered -0.338174 -0.216957 -0.239791 0.051569 0.436675 0.131980 -0.465739 0.066210 0.536787 -0.037433
drawing -0.205379 0.222696 -0.335048 0.427357 0.430759 0.345148 0.010789 -0.173927 0.254490 -0.031159
appearance 0.024618 -0.626435 0.045053 0.044179 -0.140671 -0.353796 0.234529 0.174706 -0.481953 0.062509
send -0.024334 -0.474327 -0.163889 0.205099 0.278506 0.082819 -0.276056 0.271857 -0.627288 0.278120
dreadful -0.122348 -0.364038 0.151221 0.282862 0.328385 0.394651 -0.027063 0.285494 0.528647 0.253258
probably 0.306698 -0.123688 -0.223915 0.370942 -0.290762 0.412372 0.267487 0.218129 -0.510338 -0.034623
bound -0.065329 0.162405 0.489822 -0.277845 -0.470590 0.351278 -0.143221 0.278172 -0.093415 0.381653
notice -0.246189 -0.009129 -0.392042 0.353278 -0.075931 -0.168344 0.292686 -0.617526 -0.098608 0.189223
shore 0.098792 0.631694 0.057344 0.096908 0.129992 -0.284143 -0.226695 0.547041 -0.155333 0.139950
shook -0.362176 -0.230555 -0.251854 0.280513 -0.087441 0.101196 0.145814 0.667199 0.191216 0.159794
latter 0.626245 -0.507856 0.073785 0.106537 0.223607 -0.062381 -0.135358 0.375929 -0.025425 0.148817
st -0.103628 0.418069 -0.574837 -0.066250 -0.405339 -0.221964 0.126528 0.121053 -0.471282 -0.113608
danger -0.052842 0.515561 -0.762211 -0.069004 0.080521 -0.180849 0.044381 -0.186540 0.002196 0.135802
donations -0.112821 -0.130221 -0.602267 -0.391710 -0.343468 0.214283 0.078914 0.065238 0.157989 -0.504853
play -0.085447 0.224600 0.235638 -0.009364 -0.398900 -0.008588 -0.567145 -0.492492 0.190333 -0.316078
showed 0.062132 -0.252698 -0.051203 -0.221760 0.247629 -0.082200 0.822205 0.318284 0.090566 -0.108513
observed -0.276032 -0.341854 0.204208 0.290230 0.132215 0.517442 -0.399110 0.302916 0.296229 0.143819
meaning 0.499834 -0.008403 0.086589 0.097917 -0.198657 -0.436783 -0.077393 0.542459 -0.107312 0.354584
dress 0.028291 0.205370 -0.132730 -0.160459 0.349958 -0.424646 0.298230 -0.379811 0.022186 0.453093
lie 0.626611 0.103508 0.214549 -0.247288 0.208912 -0.295167 0.292534 0.316012 -0.363376 -0.102863
pretty -0.536310 0.056801 0.129054 0.126849 0.348439 -0.237710 -0.319261 0.373221 -0.023520 -0.477716
troops -0.247359 -0.000644 -0.339945 -0.112056 -0.267080 0.154917 -0.603929 -0.175016 0.467278 -0.296679
news -0.251544 0.120426 -0.101977 -0.271334 -0.648023 -0.100747 -0.275201 0.057373 -0.546526 0.173077
passing 0.115053 0.175424 -0.140934 0.359866 -0.366029 0.230139 0.066222 0.287861 -0.574674 -0.333695
mademoiselle 0.488572 0.480905 0.171574 -0.076645 0.399739 0.090188 -0.145817 -0.067405 -0.330221 -0.015956
giving -0.317712 0.377703 -0.202147 0.447021 -0.233863 -0.248049 0.498862 -0.199263 0.137190 0.050617
pocket -0.049834 -0.196131 -0.091574 0.467124 0.108620 -0.068606 0.055082 -0.443051 0.427394 0.123802
sad 0.146281 -0.020018 -0.618583 0.146782 -0.065080 -0.399965 -0.571457 -0.168420 -0.051683 -0.227256
pip -0.366518 -0.083913 -0.288528 -0.427651 0.168196 0.612602 -0.037204 -0.023016 -0.430310 0.042863
im 0.241623 -0.301373 0.132638 0.365124 0.140591 -0.261890 -0.310196 0.545475 -0.137104 0.317516
rising 0.555270 -0.456985 0.219756 0.080484 0.043704 0.111076 -0.220705 -0.183696 0.358078 0.362568
seven -0.061284 0.372434 0.434288 0.320931 -0.398013 0.122550 0.399185 0.283905 -0.228661 -0.108630
pain 0.396726 -0.138658 -0.175512 0.007261 0.295614 -0.400584 0.087546 0.034159 -0.684162 0.260236
trouble 0.461007 0.414107 0.084414 0.155661 -0.237038 0.266213 -0.272957 0.042659 0.260031 -0.276739
forget 0.040265 -0.280371 0.285540 -0.094574 0.182363 0.007480 0.086333 0.111797 -0.761769 0.385982
jove -0.000536 -0.469509 -0.289569 -0.075081 0.095870 0.430769 0.626627 0.159376 0.072980 -0.268026
gentlemen -0.701076 -0.286658 -0.291762 -0.200029 -0.028708 0.219581 0.255159 -0.167501 -0.378487 0.015320
scene 0.136785 0.441632 0.039259 -0.278963 0.254748 -0.360343 -0.041657 0.562734 -0.009190 0.097514
listen -0.183911 -0.330717 -0.194089 -0.567608 0.384990 -0.225437 -0.069226 0.000928 -0.285976 0.301955
smiled 0.140490 0.230712 -0.277159 0.551561 -0.050678 -0.239691 -0.120029 0.129016 -0.281976 0.596676
easily -0.134594 0.420475 0.287709 -0.246489 0.020930 0.471119 -0.387126 0.319345 0.030147 0.202711
rise 0.249605 -0.001901 -0.555792 -0.058453 -0.053442 0.024215 0.267023 0.346184 -0.525516 -0.063605
assembly 0.348789 0.332175 0.255321 0.012655 -0.479898 0.177048 -0.171514 0.166526 -0.596860 -0.166216
leaving 0.106485 0.093697 0.471899 0.226018 0.172483 0.148732 0.048759 -0.247136 0.499526 -0.517610
golden -0.320271 0.152660 -0.373250 -0.000098 -0.118824 0.419285 0.557754 0.012442 -0.157732 -0.385256
thank 0.382499 -0.087786 0.054529 0.010812 -0.493615 0.252181 -0.287546 0.406606 0.003708 0.536303
important -0.060845 -0.094386 0.235753 0.543845 0.336179 0.010155 -0.099319 -0.150547 -0.578388 -0.190268
fresh 0.107581 0.274379 0.007399 0.291291 -0.263682 0.329694 0.066479 -0.704830 -0.318713 0.125724
noble 0.479114 -0.026749 -0.098073 -0.230170 -0.123101 0.188108 -0.379968 -0.345678 -0.557826 0.261056
church 0.422750 -0.241100 -0.192338 -0.503718 -0.350816 0.305057 -0.147821 0.071642 -0.398421 -0.265448
various -0.340321 -0.056278 0.197754 -0.487606 0.311435 0.204181 0.398228 0.434781 0.193259 -0.283432
literary 0.414518 0.434432 0.041542 0.227958 -0.500048 -0.111242 -0.343986 -0.366895 0.148244 0.220067
command 0.025929 0.218633 0.058397 -0.083120 0.271945 -0.756069 -0.291966 -0.391112 -0.218195 -0.072396
hector 0.199185 -0.152314 -0.197573 -0.512667 0.117088 0.422882 0.040583 -0.081938 -0.619412 0.225149
getting -0.303796 0.375142 -0.211435 -0.503218 0.240323 -0.329150 -0.477991 0.053133 0.202304 -0.085166
hall 0.616301 -0.342795 0.228776 0.006719 0.018388 0.107327 -0.128084 0.468545 0.106806 -0.437085
allow 0.156122 -0.243508 -0.043533 -0.068194 0.345460 -0.503604 -0.423286 -0.391192 0.222225 -0.072615
darcy -0.583102 0.038484 0.364422 -0.010240 -1.875609 -1.109065 -0.114329 -0.223429 1.884678 0.296321
eat -0.226673 -0.411107 -0.197841 -0.257339 -0.020037 -0.188495 -0.045051 0.273014 -0.274925 -0.607795
circumstances 0.121552 0.140153 0.379826 0.503893 -0.003387 -0.436275 0.426899 -0.038761 0.006974 0.092076
seized -0.266823 0.386637 -0.327927 -0.092793 -0.162271 0.077522 0.492813 -0.376827 -0.084920 -0.058486
sky -0.156639 -0.456292 0.107690 0.152640 0.137448 0.202163 0.432964 0.677394 -0.122923 -0.104952
promise -0.706392 0.247933 0.259185 0.336467 0.004492 0.062312 0.184510 -0.186010 0.248800 -0.017894
wrong -0.007600 -0.782255 0.250155 0.395202 -0.139632 0.286449 -0.020056 0.001089 -0.116700 0.128804
copy 0.074807 -0.211256 -0.201120 0.046751 -0.241626 0.238132 -0.203124 -0.499899 -0.659381 -0.257116
pity -0.244016 0.255939 0.329898 0.151122 -0.171666 -0.269952 0.030482 -0.337762 -0.323238 -0.380535
twenty 0.539601 0.182598 0.406258 -0.008392 0.026334 0.285052 -0.284488 0.079325 -0.317092 -0.292611
fast -0.368363 -0.074918 -0.269151 -0.101381 0.615934 0.273421 -0.247846 0.218059 -0.337747 -0.281203
filled -0.199477 0.512757 -0.402029 -0.063609 -0.278273 -0.192775 0.210073 0.229379 -0.563195 0.028565
slowly -0.393960 0.581093 0.355696 0.081443 -0.017879 -0.198084 -0.101944 -0.305668 0.099138 -0.418677
noticed 0.009252 0.361891 0.467955 0.626928 0.202484 0.285440 0.122510 -0.182676 -0.030110 0.117225
changed -0.040342 0.484270 -0.222829 -0.077622 0.367760 -0.549155 0.110138 -0.296403 0.197588 -0.292124
write -0.099397 -0.005961 -0.538592 -0.157272 0.307950 0.205221 -0.296997 0.451945 0.490620 0.070056
calm 0.074282 -0.042654 0.385905 0.103396 0.172697 0.203606 0.203038 0.251875 0.365085 -0.622780
denísov -0.143629 0.833986 -1.967120 1.692571 0.694543 -0.484327 -0.832580 -0.864052 0.088968 0.550324
receive -0.426967 0.064243 0.390523 -0.318010 0.455241 0.275696 0.197138 0.279126 -0.190601 -0.138872
later -0.063863 0.446069 0.225417 -0.427868 0.400653 0.068500 -0.407900 0.399748 -0.002535 -0.237029
sake -0.349734 0.367802 -0.418458 -0.248163 0.448369 -0.073813 0.343409 0.233145 -0.038641 0.204726
hester 0.114518 -1.750993 0.713772 0.280344 1.248710 -0.594760 1.028948 -2.218294 -1.438040 -0.760545
court -0.202652 -0.220497 -0.092883 -0.821761 -0.092586 0.149389 -0.182949 0.150598 -0.131473 -0.282954
straight -0.048560 0.363851 -0.174114 0.220433 0.093734 -0.018494 -0.048124 -0.334880 0.665118 -0.365923
passage -0.050978 0.116761 0.586983 0.386590 0.232820 -0.505886 0.229155 0.329232 0.130458 0.010378
wide 0.051146 0.076399 -0.397191 0.399105 0.230450 -0.437529 0.429039 -0.053225 -0.424735 0.203073
stone -0.376764 -0.174030 0.047794 0.301355 -0.083438 0.213754 0.002071 0.526696 0.313382 -0.553493
iron -0.296363 -0.588398 -0.121749 0.288304 -0.057420 0.260418 0.516217 -0.212443 -0.140066 0.078529
morcerf 0.147017 0.180105 -0.191213 -0.528586 0.126652 -0.137054 0.072771 0.718463 0.207708 0.144826
months -0.298006 0.384607 0.052328 0.347360 -0.456810 0.002446 -0.077164 0.008544 0.200091 0.543566
mere 0.145117 -0.356678 -0.238272 -0.180111 -0.206813 -0.591020 0.278561 -0.006232 -0.151830 0.375814
london -0.245711 -0.415530 -0.304867 0.280062 0.299236 -0.141229 0.214545 0.329587 -0.474550 -0.298660
trying -0.056486 -0.194410 -0.274388 -0.140668 0.231624 0.335599 0.455271 0.498734 0.297990 0.386913
lives -0.205195 0.109918 -0.469499 -0.123482 0.361131 -0.469828 -0.417825 0.045549 -0.423432 0.004297
killed 0.006943 -0.390141 -0.061258 0.086841 -0.069143 0.410562 0.248555 0.372696 -0.589996 -0.215383
reading 0.335803 0.267125 0.002761 0.403709 -0.458027 -0.074220 0.065823 0.108172 -0.556381 -0.330014
darkness -0.086175 -0.011715 0.359299 0.456684 0.366853 -0.307155 -0.306146 0.262220 -0.481076 -0.120833
faces -0.379748 0.220494 0.220712 0.012772 0.430660 0.407305 0.487362 0.363452 -0.106177 0.071461
holding -0.161751 0.008685 0.331228 0.094948 0.316331 0.122194 -0.598547 -0.567088 0.067741 -0.141300
green -0.148882 -0.313721 0.034963 0.489526 -0.530945 0.260580 -0.303069 0.359710 0.120376 -0.155553
wounded 0.178554 -0.052204 -0.274910 0.365062 -0.490300 -0.193813 0.254070 0.289606 -0.426625 0.380812
unless -0.375322 0.614167 -0.158583 -0.177988 -0.176100 0.239243 -0.115924 -0.072941 0.243517 0.087569
wine -0.416575 0.643594 -0.563726 -0.042327 -0.148530 -0.053887 -0.037841 -0.164787 -0.094116 0.009175
contrary 0.301063 0.108959 0.570397 -0.194852 0.279784 -0.026474 -0.274975 0.108040 -0.548379 0.151855
smiling 0.590205 -0.369677 -0.367610 -0.121966 0.078663 -0.226837 -0.342718 0.024015 -0.400450 -0.151480
surprise 0.559582 -0.316474 0.175118 -0.288662 -0.011810 0.017865 -0.253203 -0.048716 -0.581517 -0.246509
monsieur -0.057834 -0.241826 -0.254551 0.371694 0.616211 0.119097 0.080369 0.062692 -0.076195 0.568668
caught 0.281413 0.026070 0.226237 -0.073445 -0.427386 -0.301556 0.387692 -0.300782 0.391488 -0.395620
seat -0.147497 0.075367 -0.086875 -0.074249 0.096475 0.052441 0.252045 -0.672765 -0.486564 0.189738
ebook -0.305295 0.192183 -0.141438 -0.302230 -0.514214 0.250194 0.100850 -0.200987 -0.538124 0.205506
english 0.589074 0.039492 0.377530 0.266708 -0.043094 -0.014139 -0.244295 -0.527633 0.083708 -0.250938
move -0.158181 0.117672 -0.208365 -0.038805 0.223896 -0.168443 0.001116 0.325263 -0.651552 0.554429
learn 0.070195 -0.158261 -0.249334 -0.082163 0.133589 0.234956 0.192531 -0.147562 0.383300 -0.625105
brave -0.131606 0.325362 -0.234599 0.549097 -0.367266 -0.388950 0.023580 0.411445 -0.029166 0.223687
lying 0.408655 -0.295220 -0.124842 0.232689 0.210446 -0.083569 -0.101992 0.440286 0.409127 -0.476280
music -0.054729 -0.331328 0.039971 0.309786 -0.483180 -0.378592 -0.438235 0.079132 0.006159 0.383406
seek -0.388948 -0.008837 0.494046 0.116296 -0.198879 0.217782 -0.048919 -0.250660 0.113514 -0.483874
higher 0.084579 0.029290 -0.228746 0.515167 0.479448 -0.526799 -0.093821 0.234711 0.126061 0.225741
everyone -0.256125 0.003947 -0.208677 0.023682 0.146337 0.445082 -0.086459 -0.059585 -0.584061 -0.415289
drink 0.475715 0.041056 0.235718 -0.316687 0.552593 0.000293 -0.162284 -0.123608 -0.202248 0.353964
according 0.288899 0.103260 -0.378340 0.210772 -0.127094 -0.041931 -0.319180 0.473188 -0.068038 -0.468542
running 0.284147 -0.417319 -0.213598 0.107756 0.533952 -0.399993 -0.444777 -0.001896 -0.139589 0.134409
sought -0.388975 0.075933 -0.432768 -0.418815 0.104878 -0.321648 -0.549446 -0.086193 -0.087698 -0.218668
asleep -0.561951 -0.040132 0.064029 -0.028824 -0.415491 -0.489911 0.099984 -0.309529 0.271252 0.083601
servant 0.243267 -0.108740 0.160603 -0.581450 0.224612 -0.321955 -0.254112 -0.217166 -0.309849 0.192700
persons -0.428503 -0.127290 -0.164384 0.474857 0.101457 -0.079152 0.172917 0.016900 0.543932 0.004244
van -0.445737 -0.392511 0.539553 -0.240175 -0.077385 0.447032 -0.224211 -0.169037 -0.103484 0.055434
trademark -0.010968 0.081366 -0.129217 0.046376 0.248582 0.308780 0.073107 -0.544582 -0.622980 0.057966
ladies -0.188402 -0.130583 0.398899 0.397255 -0.389540 0.137958 0.449210 0.175392 0.418244 0.071233
property 0.248078 0.311788 0.057080 0.692902 -0.191729 -0.026875 0.340506 0.083596 -0.319084 -0.019373
archive -0.288204 -0.266831 0.282315 -0.346854 -0.101121 0.103718 0.149512 -0.530231 0.455256 -0.337511
party 0.270571 0.280757 0.494043 -0.023983 -0.360960 0.398420 0.280624 -0.100934 0.052760 -0.403515
worth 0.524163 -0.055484 -0.149173 -0.098447 -0.274167 -0.274914 0.498600 -0.220792 -0.341133 0.329475
trees -0.220017 0.008669 0.218609 0.039610 0.023763 -0.308333 0.265408 0.615002 -0.250670 -0.476003
listened 0.103718 -0.513744 -0.524583 -0.398911 0.175444 -0.089769 -0.064116 0.097103 0.195935 -0.447435
plato 0.291028 0.325463 -0.068057 0.344609 -0.346275 -0.237128 0.631224 0.115959 -0.300384 -0.085522
outside 0.434787 -0.059120 -0.093039 -0.281389 -0.303529 -0.111818 0.070861 -0.351760 -0.661358 -0.164991
effort 0.196138 0.288190 -0.265447 0.227366 -0.360480 -0.483901 -0.466653 0.075260 -0.367193 -0.183052
stop -0.437384 -0.126184 -0.344064 0.141231 -0.097796 0.310230 0.516155 -0.020123 0.389887 -0.251195
influence -0.089449 -0.714973 0.181570 -0.269399 -0.001426 0.077377 0.134442 0.502123 0.186510 -0.251819
entirely -0.334525 -0.191590 -0.506824 -0.201305 0.292162 0.514550 -0.297658 -0.298647 -0.047327 0.147720
fancy -0.052107 -0.837986 -0.057992 -0.143678 0.074292 -0.245022 0.341511 0.266376 -0.131540 -0.022589
pray -0.050408 -0.259308 0.097829 0.043343 -0.072764 0.178023 -0.738119 0.351316 0.407514 -0.101853
lorry 2.155253 -0.425611 2.956519 0.615427 -1.040298 0.491578 -0.619375 -1.055311 -0.382192 -0.909046
gray -0.280708 -0.158062 0.074249 0.631736 -0.010129 0.019404 -0.220480 -0.028667 -0.597159 0.133907
courage -0.616245 -0.401686 -0.005949 -0.388020 -0.098011 -0.086954 0.014193 0.335421 0.109531 0.173666
sweet 0.202550 0.040599 0.004600 0.812899 -0.126118 0.134292 -0.165197 -0.035579 0.288583 0.197695
angry -0.009343 -0.103841 0.026597 -0.593390 -0.242039 -0.385595 -0.419242 -0.158754 -0.048912 -0.412090
kings 0.242435 0.046645 0.515845 -0.248232 -0.390932 -0.008512 0.540366 0.002118 -0.044733 0.201021
opposite 0.527173 -0.505687 0.399419 -0.134063 0.020135 -0.042625 -0.391482 -0.115885 -0.205124 0.211683
spoken 0.104458 -0.059109 -0.032420 -0.519080 -0.119095 0.190790 0.118174 -0.079319 -0.729415 -0.007428
covered -0.225872 -0.025069 -0.545186 0.112414 -0.387752 -0.158703 0.174461 0.560097 -0.338875 -0.058961
train 0.411650 -0.463206 0.335774 -0.159340 -0.220208 0.003458 -0.599485 0.063081 0.209193 0.015372
ships 0.493013 -0.164837 0.173657 -0.118680 -0.394674 -0.166101 -0.081556 0.678153 0.116687 0.107761
coat -0.161851 -0.545890 -0.035525 -0.395670 -0.518664 0.193528 -0.333913 -0.066916 -0.030989 -0.301014
worse -0.064792 -0.171478 0.550191 0.677943 0.063170 0.011760 0.072042 0.202236 0.061493 0.364831
simple 0.506113 -0.141247 0.156006 0.064181 -0.482684 0.212079 -0.101596 0.516638 -0.366582 -0.076330
spot 0.311286 -0.429752 0.155340 0.064570 0.254550 -0.072088 0.428745 0.026553 -0.610515 0.250488
started -0.743883 0.346367 -0.028074 0.157015 -0.205240 -0.310302 0.119703 -0.076273 0.087012 0.277912
perfectly -0.635390 0.255703 -0.201677 -0.227100 0.459643 -0.019764 0.017948 0.006314 0.162905 -0.323570
didnt -0.297983 0.073077 -0.351511 0.193628 0.085656 0.368914 0.112678 0.086751 0.349443 0.677671
shoulder -0.214535 -0.383463 0.079756 0.113789 -0.140128 -0.098179 0.264105 0.575447 -0.034311 -0.596454
stranger -0.121738 0.043625 0.246121 0.291824 0.149490 -0.073349 0.294840 0.552044 -0.496140 -0.414218
begin -0.310325 -0.720549 -0.202847 0.126432 -0.165099 -0.361768 -0.006815 -0.273311 0.071153 -0.224303
marry -0.384115 -0.194939 0.486110 0.167007 -0.240625 0.273468 -0.606294 -0.033421 0.033012 0.217209
allowed 0.525430 0.222300 0.017813 0.123456 0.223932 0.153838 0.223055 -0.168396 0.428221 -0.093382
excellency -0.109089 0.195168 -0.104806 0.415883 0.217739 0.114922 -0.453596 0.127969 -0.430676 0.545691
formed -0.209436 0.398507 -0.298593 0.013842 -0.073645 -0.036605 -0.597422 -0.378686 -0.257430 -0.036044
sons -0.035263 0.519929 0.332846 0.217380 -0.295622 -0.131506 0.245882 0.042631 -0.602606 0.159853
pleased 0.371095 -0.243755 0.280293 0.078645 0.490765 -0.102345 0.439978 -0.134569 -0.173187 -0.025615
individual 0.052177 -0.213685 0.092337 0.161455 0.102115 -0.613470 0.240272 -0.158334 -0.396453 -0.508756
escape 0.331725 -0.284267 -0.244500 0.017444 0.211598 -0.381425 -0.064719 -0.489914 0.246843 0.328211
movement 0.543965 -0.049538 -0.196976 0.579515 0.162119 -0.418060 0.006626 -0.049371 -0.076815 0.139083
touched 0.049147 -0.203277 -0.338318 0.435644 -0.015400 -0.606220 0.356716 0.172538 0.285011 0.057925
experience -0.210785 0.603701 -0.247611 0.338104 0.042863 -0.012009 -0.551258 0.297964 -0.140008 0.002323
paragraph -0.055182 0.043503 0.207798 -0.185909 0.324716 -0.523374 0.085398 0.441654 0.498040 -0.194353
carry -0.060575 0.397755 0.531249 0.263802 0.125618 0.488265 -0.134584 0.213760 -0.255717 0.086032
troy -0.230745 0.847374 1.208305 -0.928541 -0.239447 -0.871696 -1.924310 -0.766917 -0.375868 0.310059
walls -0.464293 -0.463738 -0.424620 -0.338284 -0.097854 -0.121670 0.359595 0.112949 0.151438 -0.243396
government -0.413691 -0.566042 0.226050 0.038363 -0.229868 0.143867 0.472440 -0.214032 -0.172385 -0.285333
likely -0.162958 -0.059969 -0.023569 -0.178529 -0.261965 -0.108840 -0.532253 0.403693 0.638821 -0.043671
shoulders 0.092750 -0.398918 0.188080 -0.435521 0.206041 -0.412322 0.236055 0.304782 0.217385 -0.425302
knowing 0.079365 0.080098 -0.065445 -0.610079 0.123804 -0.088687 -0.201150 0.079525 -0.709858 -0.057841
soldier -0.399066 0.623878 -0.129262 -0.030744 -0.055258 -0.005771 -0.326923 -0.251872 -0.394656 0.188127
looks -0.253583 -0.595993 -0.237794 0.237309 -0.243557 -0.249637 0.175917 0.104170 -0.072659 -0.495612
abbé -0.103455 -0.380603 0.326613 0.342192 -0.105946 -0.702331 -0.259127 -0.102586 -0.071197 -0.182977
francs -0.109378 0.279279 -0.162699 0.185889 -0.658893 -0.338144 -0.206995 0.113050 0.063485 -0.466045
affairs 0.006153 0.161974 0.120736 -0.268390 -0.037563 0.280059 -0.326616 0.819527 -0.127871 -0.110238
middle 0.205991 0.012726 0.310215 0.063287 -0.266669 0.083805 -0.366779 0.011533 -0.802568 -0.015995
