1200 10
<pad> -0.061169 0.316160 0.428159 -0.497563 0.120512 -0.060604 0.057448 -0.417511 0.288421 0.431757
<start> 0.237699 -0.240027 0.036089 0.842987 -0.159887 0.115792 0.224946 0.013292 -0.019780 0.289510
<end> -0.209528 0.359288 0.152731 -0.380462 0.527431 0.056241 -0.049276 -0.209670 -0.448302 -0.359538
<unk> -0.162170 -0.239249 -0.316755 -0.013307 -0.086127 -0.066397 -0.312573 0.336842 -0.591006 -0.493227
the 0.285588 0.425872 -0.617853 -0.300090 -0.134345 0.435998 0.085226 0.007717 0.122354 -0.186655
and 0.336626 0.161964 0.056888 0.554239 0.278891 0.136898 0.561309 -0.183166 -0.159298 -0.254163
of 0.140530 -0.049923 0.442426 0.292604 0.278926 -0.103509 0.384484 -0.268993 -0.319612 -0.534336
to 0.147499 0.100845 0.124861 0.734083 0.469671 0.099094 0.182696 -0.347756 -0.057238 -0.159532
a 0.332729 0.415215 -0.655626 -0.099275 -0.079498 0.464620 0.044530 -0.048343 0.210947 -0.078592
in 0.224708 -0.063612 0.324079 0.413167 0.294724 -0.070333 0.280515 -0.342750 -0.106633 -0.604550
i 0.197956 0.309883 -0.214828 0.718548 -0.013444 0.032036 -0.368103 -0.008037 0.369632 0.170073
he 0.414938 0.075138 -0.198426 0.731792 -0.172577 0.076745 -0.391444 0.033227 0.229769 -0.067000
that 0.162229 -0.296924 -0.193347 0.713253 0.000737 0.411257 0.221875 0.222793 -0.182095 0.195265
his 0.222466 0.419783 -0.715524 -0.138835 -0.031725 0.316149 -0.017339 -0.016274 0.285074 -0.243903
was 0.284751 -0.542973 -0.420365 0.282546 0.422773 -0.053284 0.340503 0.177965 -0.189823 -0.047439
it 0.212843 -0.188551 -0.393947 0.549534 -0.180098 0.366359 -0.409937 0.290280 0.182672 0.096732
you 0.108648 0.288186 -0.310139 0.596265 -0.027592 -0.015790 -0.490923 0.167666 0.411613 0.117781
with 0.227813 0.062536 0.146570 0.476825 0.390000 -0.043285 0.279852 -0.283063 -0.220462 -0.576110
is 0.071277 -0.583651 -0.331945 0.537686 0.321318 0.153778 0.224539 -0.041653 -0.241886 0.131414
as 0.150368 -0.347013 -0.188883 0.726338 0.349305 0.290241 -0.139078 0.252555 -0.036935 0.053216
not 0.162984 -0.199581 -0.186639 0.778175 0.037184 0.260507 -0.115929 0.293930 0.142812 0.322083
for -0.092177 -0.201223 0.031244 0.578341 0.596639 0.151391 0.402628 -0.022137 -0.261031 -0.076062
had 0.009895 -0.399568 -0.169840 0.522753 0.632884 0.162005 0.236571 0.053272 0.225384 0.041227
but 0.338280 -0.176483 -0.093032 0.647291 0.027526 -0.184806 0.535787 0.309016 0.069731 0.066686
at -0.084976 -0.214465 0.145239 0.547973 0.278140 0.002943 0.531664 -0.375459 -0.191686 -0.293874
be -0.269526 0.011555 -0.663477 0.186503 0.176108 -0.101020 -0.125876 0.335076 0.514340 0.135243
on 0.250556 -0.086005 0.341510 0.450170 0.247462 -0.159296 0.194703 -0.330042 -0.362817 -0.493958
her -0.078738 0.360569 -0.803362 0.053403 -0.090787 0.264891 -0.246971 -0.112243 0.183371 -0.172976
my 0.421175 0.342609 -0.678693 0.057435 -0.223154 0.306381 -0.033793 0.005754 0.302032 0.071565
him -0.232749 0.139198 -0.527093 0.096230 -0.044069 -0.087688 -0.400667 0.429939 0.364729 -0.387232
have -0.123201 -0.097278 -0.198999 0.608690 0.342469 -0.070613 0.165015 0.272264 0.223741 0.539968
by 0.126906 0.073110 0.179532 0.466848 0.260723 0.058698 0.363059 -0.282260 -0.191610 -0.639337
this 0.248655 0.061822 -0.617362 0.106732 -0.135903 0.695595 -0.036709 0.150925 0.118739 -0.022040
which -0.047272 -0.137340 -0.247908 0.449796 -0.182274 0.270204 0.453469 0.348491 -0.185269 -0.494522
me -0.229505 0.189679 -0.712862 0.381460 0.024315 -0.162374 -0.363049 0.193218 0.245323 0.030274
all 0.082598 -0.310963 -0.559094 0.081082 0.359070 0.134432 -0.188353 -0.103319 -0.618160 -0.032149
said 0.134930 -0.600418 0.214768 0.579593 0.247429 0.156263 0.332066 0.104217 -0.178496 0.021362
she 0.522419 -0.199976 -0.288649 0.474791 0.037234 -0.011970 -0.176780 0.120635 0.567697 -0.093078
from 0.234239 0.119991 0.168078 0.396059 0.391893 -0.202832 0.162575 -0.172596 -0.341983 -0.613483
or 0.104213 0.341853 -0.089742 0.304694 0.344356 0.389166 0.452523 -0.168066 -0.216546 -0.458090
they 0.145320 0.386917 -0.498492 0.373630 0.085114 -0.189806 -0.446120 -0.388497 -0.050972 0.210927
so 0.123771 -0.115638 -0.339244 0.759100 0.170187 0.301534 -0.261332 0.277927 0.062328 0.101544
are -0.176609 -0.069038 -0.324343 0.687292 0.291688 0.273670 0.179144 -0.087397 -0.068691 0.426359
one -0.027602 -0.349004 -0.525160 -0.231992 -0.293566 0.261492 -0.318058 0.301101 -0.344980 -0.278331
were -0.064068 0.026414 -0.486862 0.674338 -0.003047 -0.155671 0.444707 0.128140 -0.175036 -0.179976
what -0.162239 -0.279735 -0.226878 0.733609 0.003131 0.138599 -0.106313 0.196885 0.363192 0.323211
when 0.095741 -0.236031 -0.373708 0.672252 0.175789 -0.333891 -0.156884 0.160840 -0.324337 0.047298
no 0.090683 0.143993 -0.656782 0.344563 -0.384737 -0.109826 0.228152 0.186435 0.346537 0.232318
if -0.151866 -0.544790 -0.302716 0.525940 0.301735 0.093600 0.200244 0.187620 0.207424 0.306027
there -0.147061 -0.108939 0.015350 0.515306 -0.510583 0.449250 -0.435998 -0.134605 0.171756 -0.022273
who 0.094158 0.176608 -0.009013 0.612129 0.143823 0.332536 -0.496279 0.221000 0.070961 -0.392056
we -0.013917 0.540084 -0.164126 0.600404 -0.329932 0.153530 -0.333138 0.093540 -0.056802 0.255465
will -0.176999 -0.198611 -0.199643 0.695958 0.392381 0.189775 0.171414 0.049630 0.111350 0.413266
an 0.320016 0.449198 -0.644429 -0.070107 -0.100839 0.447197 -0.105061 -0.002389 0.051670 -0.227415
then -0.353487 -0.534552 -0.471939 0.130217 0.113027 -0.118326 -0.012670 0.089427 0.017237 -0.271692
their 0.508742 0.416586 -0.550088 -0.018283 0.157175 0.242662 -0.022849 0.172268 0.228785 -0.313915
would 0.330470 0.152163 -0.024509 0.582201 0.505166 0.063018 -0.096517 0.425398 -0.019641 0.279496
them -0.254194 0.084493 -0.653762 0.109640 0.164705 0.161617 -0.624146 0.158237 0.069972 -0.126805
been -0.127165 0.446518 -0.469367 0.472627 -0.366947 -0.079187 -0.301860 0.294742 0.147711 -0.006118
do -0.232930 -0.078326 -0.196792 0.475562 0.247523 -0.147395 -0.119193 0.247673 0.202628 0.689292
your 0.269971 0.302524 -0.722734 0.066934 -0.096918 0.367882 -0.034952 0.218661 0.317788 -0.118395
now -0.014072 0.083975 -0.391950 -0.098557 0.168429 -0.436668 -0.219577 0.401946 0.071518 0.164569
out 0.186243 -0.235889 -0.174308 0.142952 -0.295751 0.443815 -0.510263 -0.075588 -0.546330 -0.098441
more 0.358807 0.293117 -0.331566 0.232570 -0.027128 0.156759 -0.426888 -0.211217 -0.433755 0.169448
up -0.236621 -0.086949 -0.134163 0.275701 0.211704 0.266792 -0.644051 0.248621 -0.080096 -0.490149
man -0.187105 -0.500036 0.101157 -0.063151 0.016862 -0.316765 0.251255 0.167831 -0.556493 -0.339802
into 0.058643 -0.227429 0.261128 0.276672 0.359155 0.095482 0.085131 -0.372944 -0.528450 -0.485469
some 0.388634 -0.066837 -0.622208 -0.299388 0.240082 0.494253 0.003686 -0.045230 -0.047657 -0.245879
could -0.043363 -0.341784 -0.518255 0.229781 -0.158709 -0.091310 0.337317 0.279273 0.415930 0.118262
has -0.265748 -0.086002 -0.331640 0.271904 0.810388 0.128191 0.236727 -0.077506 -0.047185 0.025084
only 0.144090 -0.244444 -0.344951 0.384343 -0.404928 -0.455019 0.336870 0.129318 -0.142745 -0.066781
any 0.420144 0.127517 -0.443770 -0.266541 0.021050 -0.093015 0.194848 0.296520 0.544345 -0.328355
very -0.225586 -0.192738 -0.009078 0.135154 0.301866 0.610522 -0.358639 0.223932 -0.190909 -0.218091
like 0.035025 -0.298682 -0.101454 0.488498 -0.068749 -0.071809 0.512676 0.507863 -0.159637 -0.323236
did 0.094360 -0.085324 -0.040793 0.456805 0.220232 -0.012590 0.036990 0.389264 -0.202280 0.728703
time -0.166669 -0.244853 0.219131 -0.091465 0.019904 -0.183005 -0.632772 0.464627 -0.321316 -0.316078
its 0.286920 0.669802 -0.527303 0.061746 -0.110206 -0.084432 -0.059725 0.022307 -0.053291 -0.401111
than -0.190383 0.332643 -0.192842 0.040153 0.270672 0.152664 0.673117 0.292125 -0.186836 0.126397
other -0.328323 -0.490521 -0.083464 -0.267082 -0.408251 0.094417 0.105661 -0.089259 -0.560110 -0.250254
before -0.264269 -0.207419 -0.216980 0.316262 0.417187 0.022495 0.208479 -0.209237 -0.450562 0.426186
about 0.089022 0.202299 -0.353252 -0.008899 -0.320122 -0.051871 0.388483 0.255191 -0.285803 0.020154
see -0.724459 -0.027573 -0.056887 0.410072 0.128135 -0.343436 -0.135736 0.273950 0.199982 0.187540
such -0.030220 0.462977 -0.105283 0.168235 0.304685 0.454672 0.099581 0.653736 -0.072581 -0.015369
must -0.018972 -0.065189 -0.319022 0.269653 -0.352302 -0.251146 0.197386 -0.356705 -0.198584 0.276007
know -0.254537 -0.199654 -0.049072 0.460348 0.034258 -0.315942 0.118042 0.297872 -0.012303 0.690579
should -0.142441 -0.245099 -0.183244 0.618838 0.443243 0.436411 0.062993 0.196211 0.075045 0.260923
may 0.206735 0.207794 -0.438878 0.176789 0.193009 -0.059032 -0.298743 -0.236072 -0.058317 0.311258
how -0.400578 0.156090 -0.049613 0.381589 -0.124247 -0.182043 0.353477 0.460295 0.523604 -0.086863
well -0.208374 0.248489 -0.087686 0.806153 -0.171684 0.214050 -0.229183 0.107464 0.112132 0.291853
our 0.204712 -0.027408 -0.602058 0.063389 -0.369259 0.481217 -0.161194 0.098122 -0.030132 -0.431729
can 0.470647 0.142996 -0.050224 0.527975 0.222705 -0.323781 -0.039603 0.391282 0.084318 0.400681
little -0.250116 -0.463059 -0.075913 0.161406 0.248557 0.583541 0.312310 0.199746 -0.325332 -0.213248
am 0.168060 -0.321794 -0.382181 0.418568 0.036730 -0.058176 0.195575 0.159792 0.146163 0.676003
these -0.172702 0.531874 -0.420548 -0.157434 -0.052452 0.500748 -0.106387 0.078414 -0.084616 -0.455514
upon -0.072523 -0.375573 -0.218579 0.360001 0.590304 -0.358590 0.271461 -0.015135 0.157048 -0.316984
down -0.053547 -0.191457 0.264310 -0.460589 0.217293 0.287802 0.224011 0.193676 -0.411254 0.007060
two 0.196688 0.158791 -0.201988 -0.040146 0.255781 0.177994 -0.269132 -0.492903 -0.642067 0.008076
over 0.154581 -0.454529 -0.164496 0.116635 0.296016 -0.300237 -0.396400 -0.079115 -0.403659 -0.182399
us 0.185587 0.443211 -0.189039 -0.268558 -0.119555 -0.093845 0.383002 0.678629 -0.146673 0.086989
after 0.208268 0.040278 0.508700 0.053441 0.226342 0.404570 0.244828 -0.306181 -0.050059 -0.283351
himself 0.098247 -0.128955 -0.588366 -0.013214 -0.155508 0.070560 -0.122431 0.107152 0.489911 -0.381255
old -0.129686 -0.099331 0.363496 0.103143 0.075878 0.553711 0.054848 -0.447570 -0.101099 -0.145708
again 0.264198 0.285767 -0.121506 0.509134 -0.079790 -0.583456 -0.313157 0.194303 -0.301887 -0.013868
shall 0.229971 0.067967 -0.059227 0.061107 0.570120 -0.166600 0.002301 0.167306 -0.052427 0.316189
first -0.392878 -0.511805 0.371040 0.022622 -0.147674 0.064036 0.226060 0.196456 -0.119374 -0.557977
come -0.420478 -0.202575 -0.217574 0.167548 0.041198 0.174411 0.203728 0.575275 -0.021373 0.549274
where -0.020061 0.098664 -0.075946 0.280153 0.434028 -0.300804 0.265984 0.240703 -0.571496 -0.175947
mr 0.539061 -0.428735 -0.231908 -0.089502 0.039492 0.128686 0.648275 -0.065910 0.046818 -0.136422
good -0.291568 -0.452021 -0.139570 -0.071922 -0.515087 0.156633 -0.317213 0.354946 0.184496 0.064303
say -0.125926 -0.401642 -0.339353 0.002202 0.150160 -0.087353 -0.372241 0.429169 0.066488 0.591871
made 0.308701 -0.377312 0.157862 0.424276 0.381722 -0.145682 0.038897 -0.031867 -0.033920 -0.141880
own 0.276658 -0.282329 0.063196 0.073694 0.075354 0.386716 -0.670179 0.257173 0.130638 -0.334393
never -0.316904 0.040771 -0.280339 0.517106 -0.478633 0.464786 -0.106108 0.078238 -0.197278 -0.015632
much 0.169636 -0.541039 -0.155396 0.061976 0.484935 0.607872 -0.065794 0.025597 0.050414 0.195242
go -0.558310 0.077827 -0.328443 0.001332 -0.356776 -0.076693 -0.107122 0.474159 0.444825 0.083750
came -0.064204 0.013050 -0.179915 0.217859 -0.080694 -0.400566 0.145676 -0.282812 0.652503 -0.184590
life 0.348085 0.222676 -0.055913 -0.232900 -0.145621 -0.209832 0.113726 0.065747 -0.703369 -0.235400
day -0.184854 -0.420267 0.558029 -0.266592 -0.261827 0.050631 -0.008068 0.453122 -0.230914 -0.268122
here 0.169268 0.167051 -0.005688 -0.015827 -0.093016 -0.024484 -0.557897 0.271186 -0.584033 0.069713
great 0.019952 0.250282 -0.136033 -0.338023 0.133652 0.038885 -0.651185 -0.134450 -0.286974 -0.510244
eyes 0.508029 -0.159799 -0.266925 -0.298542 -0.194688 -0.437161 -0.160073 0.125257 -0.214594 -0.377357
hand -0.191117 -0.525665 -0.162376 0.207387 0.022937 -0.251605 -0.263955 -0.032937 -0.684982 -0.118064
still 0.065869 -0.252612 -0.513748 -0.085495 0.162688 0.076303 0.585492 -0.026008 -0.485013 0.209420
went 0.155579 -0.148468 -0.092417 0.215750 0.007567 -0.761117 0.189424 0.069800 -0.112989 0.079201
way -0.322952 -0.463156 0.432823 0.208980 -0.379719 0.075918 0.409649 0.153730 -0.009412 -0.162648
without 0.336821 0.111378 -0.118962 0.287220 0.283781 -0.076157 0.280856 0.504300 0.324901 -0.148452
long 0.219330 -0.452996 -0.092465 -0.001103 0.141848 0.321898 0.285938 0.138755 0.484131 0.112989
men -0.358232 -0.339333 -0.259661 0.529723 0.110619 0.015490 -0.448604 -0.130903 -0.119529 -0.075936
those 0.252105 -0.075671 -0.296409 -0.234952 -0.077068 0.434886 0.171308 0.332009 0.329055 -0.586637
yet -0.156071 -0.041972 -0.395365 -0.439727 0.117332 -0.178501 -0.008842 -0.094106 -0.043586 0.293205
thought -0.167914 -0.369143 -0.069040 0.401350 0.145685 0.193329 -0.116800 0.741061 0.026023 0.217473
most 0.222370 -0.026319 0.063864 0.476122 0.164676 0.024647 -0.389773 -0.247439 -0.440854 -0.532621
yes -0.086513 -0.471782 0.057390 0.211930 -0.482653 0.182738 0.513087 0.143212 -0.205109 0.359652
through 0.362927 0.429425 0.460410 0.038343 0.123092 -0.399895 0.034491 -0.166888 0.005670 -0.515911
away 0.238000 -0.343224 -0.062476 -0.072583 -0.535222 0.029735 0.117468 0.428501 -0.089340 -0.450742
might 0.133961 -0.538330 -0.136579 0.083920 0.699585 0.082980 0.130215 -0.206473 0.095602 0.293536
same -0.540842 -0.551413 0.228342 0.102175 -0.005614 -0.403193 0.086226 0.127364 -0.145771 -0.363866
even 0.270316 0.211675 0.386846 0.228250 0.061210 0.406488 -0.266702 0.179283 0.256169 0.150042
being 0.092064 0.454921 -0.074184 -0.257612 -0.006498 -0.092760 0.220544 -0.109200 -0.091361 -0.689227
think -0.065983 -0.595794 -0.033592 0.047087 0.276576 0.086359 0.246018 0.308289 -0.053194 0.628475
too -0.087821 0.066299 -0.531863 -0.268545 -0.437336 0.167279 0.225743 -0.148674 -0.170780 -0.270234
while 0.139874 0.023994 0.072838 0.270047 0.370114 -0.018331 -0.458001 0.022879 0.352605 -0.592971
looked 0.160556 0.373344 0.105932 -0.218340 -0.671764 0.167466 -0.192109 -0.025728 0.037221 -0.184952
last 0.606107 -0.029902 0.400381 0.354190 -0.282168 -0.146748 0.075197 0.065151 -0.259046 -0.386885
let -0.505179 0.422669 0.009339 0.233532 0.288403 0.101064 -0.374584 -0.094688 -0.016987 -0.334499
face -0.068264 0.098553 0.385702 0.364670 -0.410951 0.053263 -0.249239 0.295370 -0.166360 0.392949
nothing 0.158395 -0.456018 0.080972 0.116086 -0.368907 0.649145 -0.087954 0.324219 0.225171 0.160611
every 0.394554 0.109438 -0.682213 -0.031258 0.356068 0.004481 0.387407 -0.022325 -0.196064 0.222341
just -0.484081 0.081660 -0.144643 0.320523 0.486678 -0.148901 0.294559 0.505967 -0.070763 0.157494
though 0.220189 -0.485243 -0.406900 0.129881 -0.504669 0.044853 0.227680 -0.166945 0.353540 0.154678
saw -0.223081 -0.832049 0.158741 -0.053729 0.264039 0.113411 0.168140 0.018243 0.118601 -0.323411
make -0.195914 -0.226774 0.058850 0.009890 -0.099618 -0.038144 -0.500367 0.673214 0.255667 -0.056117
head 0.320932 0.057373 0.223816 0.009252 -0.250161 -0.427826 -0.165136 -0.490264 -0.571942 0.055965
back -0.237882 -0.204000 0.190467 0.220142 0.259483 -0.013732 0.039808 -0.627144 0.121417 -0.358063
another 0.612484 0.030929 -0.475951 -0.165019 0.244519 0.296778 -0.131345 -0.244354 -0.011560 0.380850
young -0.209789 -0.161956 0.494594 0.538130 0.123513 0.100148 -0.271888 -0.060547 -0.095888 -0.140821
seemed 0.151001 0.467695 -0.045493 -0.586831 0.055080 0.056868 -0.392754 0.262715 -0.122107 -0.291799
work 0.099724 0.260078 0.197252 0.406228 -0.098960 -0.464381 -0.377208 -0.059947 -0.436649 0.337144
take -0.058467 -0.110575 0.007276 -0.536223 -0.111739 0.206943 -0.544909 0.490701 0.092461 -0.082251
room 0.060274 0.235582 0.643701 0.203230 0.089889 -0.427377 -0.158144 0.197604 -0.070216 -0.474393
house -0.516541 -0.016296 -0.083473 -0.107855 -0.175944 -0.450777 0.103675 0.203730 -0.610929 -0.233559
project -0.218082 -0.357150 0.328386 -0.230822 -0.379339 0.436945 0.066836 -0.462824 -0.039644 -0.329633
once -0.032917 0.323435 0.233204 0.095244 0.117136 -0.126885 -0.185600 0.340238 -0.045550 -0.570660
many 0.287351 0.125301 -0.436058 -0.014549 -0.281332 0.038013 -0.381760 -0.205695 -0.661759 -0.069266
prince -0.056291 -0.024560 -0.135925 0.349255 0.075584 -0.177399 -0.009536 0.687643 0.261542 0.019408
look -0.362365 0.092405 -0.351086 0.180562 -0.483052 -0.452657 0.004323 -0.088873 -0.449948 -0.235940
left 0.138736 -0.226429 -0.211525 0.239881 -0.225799 -0.041059 -0.348372 0.231095 -0.517938 -0.234366
heard -0.480679 0.022809 0.268626 0.115690 0.172930 -0.355361 0.169299 -0.081868 -0.079377 -0.075217
off 0.117727 0.183281 0.161062 -0.094498 0.330131 0.136643 -0.174366 -0.692229 -0.356170 -0.167402
tell -0.208574 -0.229418 0.003675 0.371894 0.277026 0.018756 -0.507718 0.139333 0.091946 0.634669
count -0.158143 -0.567984 0.468897 -0.110184 -0.015299 -0.267905 0.062152 0.223074 -0.485874 -0.238032
asked -0.201273 -0.344943 -0.275891 0.671681 0.072930 -0.256169 0.080490 0.192138 -0.170103 0.390209
took -0.622426 -0.303804 0.030691 -0.008941 -0.280501 0.211570 -0.055973 0.315635 -0.248326 -0.407312
door -0.227218 -0.420572 0.556286 -0.104017 -0.021795 -0.392550 0.099161 0.130979 -0.367369 -0.367013
why -0.208017 0.126569 0.336631 0.645644 -0.205150 -0.008422 0.162820 0.328330 0.104384 0.472271
under 0.147539 0.089415 -0.163972 -0.203747 -0.210968 -0.309164 -0.202024 -0.175314 -0.570990 -0.137796
found -0.544951 0.214734 0.042015 0.245341 -0.212832 -0.283165 -0.023300 -0.092143 -0.219676 -0.441525
ever -0.144086 -0.210735 0.232884 0.490190 -0.083111 -0.105898 -0.064492 0.388968 0.013167 -0.215656
night 0.202561 -0.692697 0.216586 -0.076938 -0.250726 -0.327549 -0.098155 -0.221775 -0.125791 0.297513
always 0.070132 -0.009565 -0.335056 0.169656 0.622951 -0.067165 0.094225 0.616729 0.267125 0.016289
right 0.069066 -0.376274 -0.114791 0.128653 0.203266 -0.435156 -0.699924 0.019862 0.214055 -0.238842
father -0.253707 -0.150321 0.332346 0.379123 -0.024747 -0.343620 -0.172437 0.036807 0.058460 -0.351161
whom 0.060388 0.204470 0.000064 0.313503 0.302917 -0.020681 -0.339482 0.486099 -0.385562 0.479437
something 0.457251 -0.566123 -0.271397 -0.163308 0.199729 0.177162 -0.088286 0.317614 0.391052 0.191110
dear -0.519853 0.076318 -0.251771 0.621242 0.233248 0.196259 -0.285677 -0.202070 -0.056240 -0.236700
because 0.578584 0.173212 0.107687 -0.078085 0.146657 -0.226223 0.141506 0.516554 -0.321036 -0.149490
having 0.025060 0.056431 -0.288819 -0.440154 0.131725 -0.079485 0.164901 -0.031651 0.373170 -0.267756
dont 0.143497 -0.054088 -0.032316 0.518330 0.528134 0.067683 -0.304677 0.373121 -0.029546 -0.324708
give 0.066078 -0.146953 -0.146724 0.078591 0.491056 -0.403593 -0.137658 0.211439 -0.357664 0.592220
round 0.041082 -0.692351 0.002844 -0.175173 -0.405461 0.247603 0.029289 -0.150986 -0.009532 -0.467471
place -0.253741 -0.139365 0.402883 -0.196732 0.175753 -0.104229 -0.182386 0.460567 -0.338856 -0.518023
three -0.561289 0.381825 -0.366016 0.262910 -0.164246 -0.113750 0.333242 -0.176061 0.218406 -0.273203
chapter 0.271625 0.355786 -0.054599 0.452481 -0.304849 0.301112 0.317103 0.204104 0.145718 -0.408020
quite -0.198599 -0.132239 -0.404395 -0.318600 0.187057 -0.128987 0.491367 -0.078983 0.414645 0.088476
whole -0.367884 -0.259729 0.060918 0.066881 0.323754 -0.404655 0.003916 0.149544 -0.635333 -0.303412
people 0.085226 -0.121690 -0.200484 -0.390841 -0.273632 -0.520560 -0.038261 0.566658 0.123689 -0.053617
seen -0.265826 0.463945 0.019662 -0.150668 -0.136576 0.074169 -0.410242 -0.037657 -0.138206 0.388545
mind -0.307180 -0.413777 -0.212639 -0.135933 0.088663 0.420269 -0.654997 -0.195400 -0.131497 0.035984
oh -0.068629 -0.194677 -0.022257 0.226397 -0.212741 0.384983 0.357809 -0.018036 -0.304723 -0.259077
felt -0.180090 0.042431 0.237611 -0.356017 -0.090978 -0.409350 0.190663 -0.312047 -0.296683 -0.085681
pierre 0.367721 -0.229475 0.747345 -0.131415 -0.321874 -0.091124 0.171042 0.126661 -0.208150 0.130540
put -0.452655 0.479480 -0.271615 0.054574 -0.516805 -0.243860 0.271334 -0.032513 -0.213907 0.160638
replied 0.467718 -0.298968 0.211927 0.078908 0.089968 -0.546004 0.537760 -0.200997 -0.047659 -0.049998
nor 0.372771 -0.028609 0.098641 0.013969 0.321504 0.156634 -0.093481 -0.576692 0.277879 -0.500853
moment 0.086480 -0.174993 0.358252 0.406064 -0.299788 -0.366580 -0.582577 -0.150999 -0.038606 -0.283700
began -0.518380 -0.238350 0.134435 0.186161 -0.004607 0.341503 0.207177 -0.156592 0.534226 -0.098133
hands -0.469518 0.033649 -0.191323 0.168228 -0.310181 -0.018820 -0.192805 0.278554 -0.612519 -0.356228
thus 0.408050 0.620854 0.029277 0.216670 -0.106286 0.132430 -0.012143 -0.229677 -0.194754 0.229369
myself -0.651986 -0.121378 -0.264442 -0.032266 0.329015 0.120092 -0.541976 -0.076941 0.077453 -0.246508
world -0.275039 -0.021272 0.090712 -0.472060 -0.404787 -0.254512 0.163302 -0.074652 -0.412699 -0.511503
sir 0.329213 -0.493538 -0.128231 -0.037858 0.278775 0.235363 -0.383279 -0.087057 0.226583 0.305606
soon -0.233998 0.024727 -0.620965 0.347182 0.307977 0.002473 -0.424360 -0.137597 0.238376 0.295047
each 0.534040 0.629876 -0.397858 -0.011167 0.028846 0.095894 -0.045246 0.378264 0.019395 0.056743
both 0.318152 0.465746 0.223044 -0.289308 0.023592 0.307582 0.293857 0.428571 -0.065420 -0.098693
done -0.154183 0.253470 -0.322322 -0.158972 -0.315543 0.041972 -0.603756 0.556177 0.079484 0.019283
things 0.721544 0.017581 -0.250803 0.113645 -0.289681 -0.340744 0.208630 0.164209 -0.219900 0.101410
new 0.066578 -0.038899 -0.375875 -0.227620 0.148190 -0.240222 -0.280109 -0.559354 0.297955 -0.139858
get -0.657421 0.226077 0.078533 0.258734 0.345229 -0.222787 -0.379771 0.356054 -0.047281 -0.032575
knew -0.046592 -0.650516 -0.186718 0.565151 -0.266378 -0.242869 0.045634 -0.288376 -0.069941 0.002415
told -0.376369 -0.582262 -0.435200 0.217474 0.134843 -0.276547 -0.178072 -0.071658 0.342852 0.183221
far 0.264242 -0.277497 -0.502768 0.065863 -0.241559 -0.195346 0.443699 -0.298395 0.372373 0.272982
love -0.015216 -0.443546 -0.306631 -0.150821 -0.247302 -0.025855 0.140853 -0.125612 -0.394886 0.650554
cannot -0.558316 0.282234 -0.463191 0.501799 0.051470 0.261039 -0.178056 0.000983 0.098126 0.065323
words 0.367201 -0.209410 0.101610 0.322002 -0.013690 -0.267905 0.299414 -0.203713 0.031071 0.428749
heart 0.337455 0.041367 0.244742 -0.199970 -0.396154 0.290903 -0.135480 0.507931 0.185927 -0.065994
also -0.415716 -0.260591 -0.411206 0.226477 0.068838 -0.154436 0.499782 0.182582 0.350176 -0.323003
against 0.336440 0.255936 -0.039068 0.579920 -0.287563 -0.329572 0.150601 -0.279701 -0.135493 -0.415681
m 0.435166 -0.380724 -0.346606 -0.266534 0.263226 0.386499 -0.068373 -0.381922 -0.014606 -0.054957
part -0.054602 -0.144826 -0.119845 -0.225939 -0.184558 -0.003740 0.589312 0.721371 -0.047636 -0.081381
going 0.400604 0.048232 -0.081155 0.233282 -0.079073 -0.280197 -0.558021 0.549630 0.275005 -0.047434
state 0.068935 -0.358692 0.230534 -0.023912 -0.231144 0.095712 -0.678345 0.347302 -0.035840 -0.410154
god 0.175201 -0.068912 -0.076184 -0.306612 0.402234 0.311974 -0.426303 -0.244833 0.432579 0.001975
side -0.228861 0.171496 0.196466 -0.501714 -0.112510 0.085502 0.028081 -0.304988 0.098458 -0.034688
better -0.118759 0.290032 0.688309 -0.024371 -0.055381 -0.121742 0.105127 0.285601 0.218915 0.004749
voice -0.033841 -0.178214 0.005797 -0.519838 0.389471 -0.000395 0.351729 0.194222 -0.019451 0.086986
friend -0.564526 0.232922 0.242036 0.249861 -0.262779 -0.135364 -0.258659 0.149916 -0.340789 -0.461068
thing -0.052807 -0.543639 0.270672 0.184792 0.403508 -0.021371 -0.237820 0.354597 -0.404326 0.291184
turned 0.203396 -0.152940 -0.067544 0.566040 0.166434 0.099053 -0.449514 0.482738 0.115505 -0.125112
true 0.216881 -0.423623 -0.071550 -0.178050 0.105294 0.691696 0.426833 0.113915 0.182433 0.136786
cried 0.081675 0.179667 0.346823 0.228657 -0.541608 0.088448 -0.171728 0.052448 0.083333 0.161706
between -0.444919 -0.191245 -0.016481 0.067310 -0.031685 -0.308895 0.088460 0.135822 -0.557869 -0.552282
gutenbergtm 0.404500 0.519075 -0.096488 0.125792 -0.366650 0.074112 -0.299431 0.397232 -0.030046 -0.200652
years 0.205633 -0.446245 -0.462859 -0.158948 -0.492710 -0.022547 -0.002077 -0.519808 0.007205 -0.072733
miss 0.103877 0.399437 -0.019839 0.061460 0.012247 0.014572 0.475936 -0.352849 -0.235401 -0.646624
name 0.079951 -0.186423 0.004803 0.026099 0.404724 -0.040083 -0.006365 -0.188611 0.168094 -0.015355
light -0.204221 0.340102 0.307918 0.593226 0.106255 0.015091 0.021098 0.118616 -0.393499 0.204646
stood -0.025456 0.081762 0.071524 0.068572 -0.077305 -0.575153 0.315767 0.487527 -0.329207 -0.403117
does -0.044719 -0.071310 0.092178 0.234510 0.705579 0.116574 -0.433514 0.200649 -0.090434 -0.374499
got -0.010089 -0.588730 -0.391175 -0.179853 0.362166 -0.110238 -0.143740 -0.401818 0.365129 -0.094703
few -0.349329 -0.150445 -0.336998 0.012379 0.086119 -0.326722 -0.145150 -0.710505 -0.141485 -0.285338
morning -0.297002 0.069518 0.558867 -0.098028 0.024546 0.182036 0.535935 0.276472 -0.139907 0.253408
full 0.214369 -0.144378 -0.156918 -0.119119 -0.649571 -0.460892 -0.252555 0.145040 -0.245580 -0.278188
find -0.011472 0.019202 0.145661 0.312808 0.222049 -0.296916 -0.757988 -0.186218 -0.178239 0.316701
looking 0.127263 -0.219215 0.430788 0.410741 0.507327 -0.026492 -0.317865 0.145528 0.264075 0.119623
poor -0.410040 -0.534535 -0.049611 -0.029361 0.032253 -0.094380 -0.152089 0.370057 -0.107488 -0.244594
gave 0.333025 0.249295 0.402546 -0.321365 0.010887 0.105763 -0.385012 0.134835 -0.407391 -0.213318
whose -0.148017 0.374960 -0.029188 0.448451 0.174222 0.081158 0.564664 0.167272 0.483705 -0.130706
de 0.261331 0.383639 -0.084504 -0.086241 0.117949 0.445908 0.409541 0.439366 -0.405579 0.177906
thy -0.304657 -0.208496 -0.482860 -0.365871 0.215733 0.244551 0.457493 0.131238 -0.083352 0.396053
death 0.115914 -0.331058 -0.022510 0.068702 -0.427887 -0.384993 -0.484892 0.248687 -0.003624 -0.192793
however 0.285190 -0.678192 0.017321 -0.510331 -0.077486 0.095346 -0.050146 0.024358 0.060595 -0.030002
sat -0.130339 -0.368575 -0.097049 -0.395963 -0.402099 0.433783 -0.272097 0.079431 0.484560 0.049852
question -0.356428 0.241054 0.441543 -0.161219 0.116752 -0.486585 0.119729 -0.057100 -0.272601 -0.487638
order 0.157660 -0.217530 -0.476507 0.009530 -0.129888 -0.518323 0.194265 -0.287998 -0.288883 -0.156117
days -0.180612 -0.256357 0.061957 -0.157099 -0.164733 -0.460026 -0.216698 0.223041 0.570728 -0.037366
anything -0.106278 -0.133871 0.167670 -0.429573 0.565095 -0.128330 0.076281 0.221407 0.259136 -0.170632
almost -0.227131 0.375210 -0.258715 -0.079055 0.353556 0.270149 0.236594 -0.229126 -0.644699 0.095218
white -0.212924 -0.396223 0.142190 0.054249 -0.002934 0.064509 -0.625374 0.200274 0.181851 -0.343039
since -0.392373 -0.373888 0.066195 0.387107 -0.017209 0.403846 0.128294 -0.318646 -0.418923 0.307544
son -0.358587 -0.266335 -0.026678 0.034902 -0.085797 -0.148155 0.547954 0.104266 -0.526400 0.376934
word 0.331317 -0.412378 -0.471425 0.128422 -0.144106 0.109484 0.026033 0.158556 -0.040621 -0.047910
alone -0.127743 -0.146219 0.134813 -0.168845 0.017843 0.272280 0.006014 -0.231975 0.122120 0.439501
whether -0.594034 0.003519 -0.327349 0.038586 0.372633 0.248260 -0.208370 0.088505 0.448802 0.219244
others -0.284109 -0.302659 -0.643823 -0.011059 -0.013217 -0.188492 0.033003 -0.223822 0.477903 -0.024636
till 0.002493 -0.056220 -0.220463 0.362170 -0.628742 -0.275792 0.271336 -0.431320 0.234972 0.086122
passed 0.271054 -0.433443 -0.269373 -0.256338 -0.355728 0.147731 -0.358423 -0.133998 -0.199839 0.255336
called -0.353408 0.411263 0.005082 0.266270 0.266467 -0.126589 -0.078894 -0.267653 -0.064814 -0.616624
mother -0.496819 -0.057089 -0.039316 0.278339 0.363020 -0.703517 -0.073838 -0.044447 0.170625 -0.078228
set 0.211362 0.530679 -0.371039 -0.077736 -0.166167 0.252325 -0.069550 0.008150 -0.167239 -0.326193
home 0.277221 0.404771 0.180016 0.109566 0.084703 -0.577773 -0.206661 0.148174 0.165768 0.418384
perhaps 0.526361 -0.182661 -0.044389 0.121316 0.440214 0.402916 0.065499 0.381615 -0.111464 0.013876
next 0.476754 -0.694159 -0.111432 -0.036547 -0.301140 0.021147 -0.062882 -0.370910 -0.198827 -0.069389
end -0.184086 -0.318605 0.622092 -0.042930 -0.319950 -0.087617 -0.313283 0.227084 -0.459248 0.071290
among 0.484416 0.109407 0.347324 0.022821 0.491680 -0.004830 0.372672 0.180809 -0.438183 0.163898
want -0.455801 0.367028 0.342842 -0.069087 0.158924 0.277025 0.226465 -0.239827 0.181498 0.012683
rather -0.171023 -0.629799 -0.172631 0.461036 -0.127371 0.411052 -0.017383 0.142851 0.232327 -0.267841
indeed 0.397853 0.037707 -0.010656 -0.136399 -0.532333 -0.492430 -0.175276 0.323110 0.007121 -0.070568
arms 0.278945 -0.151893 0.135926 -0.027520 0.446002 0.273128 0.085503 0.076869 -0.038801 -0.467046
already 0.376079 0.360959 -0.016755 0.308275 -0.022357 -0.045674 -0.256808 0.737574 0.141495 -0.008259
speak -0.425188 0.230780 0.050078 -0.306637 -0.359863 0.099720 -0.416638 0.230048 -0.526988 0.143257
hear -0.491008 -0.062462 0.109007 0.325874 -0.449894 0.437185 0.132535 0.115486 -0.282417 -0.298206
herself 0.264623 -0.277609 -0.386867 0.530699 -0.166946 0.208500 -0.399499 0.026732 0.071571 0.398294
leave -0.353726 0.107355 -0.132922 -0.226412 0.330019 -0.466655 -0.351650 0.060454 -0.570618 0.121757
taken 0.391442 -0.054662 -0.024184 0.420498 0.005379 -0.655310 -0.026863 -0.087499 -0.265901 0.183056
soul 0.102166 -0.756439 -0.098445 -0.005322 -0.463838 0.142996 0.006840 -0.078255 0.183163 0.336218
french -0.043450 -0.049843 0.130926 -0.277691 0.305410 0.655779 0.367141 0.123027 -0.374954 0.238148
wish -0.400831 -0.042658 -0.150474 0.065383 0.051621 0.086854 -0.358106 0.705415 0.059025 0.413317
brought -0.407569 -0.402882 -0.312492 0.306754 0.049225 -0.413408 0.295172 0.389190 0.134913 -0.222694
behind 0.007534 0.106473 0.124672 0.124535 -0.712624 0.021434 0.240257 0.442265 0.117463 0.001696
enough -0.105636 0.073754 0.223915 0.109711 0.525937 0.252168 -0.406172 -0.288680 0.119614 -0.394106
monte 0.420300 0.250472 -0.008545 -0.025019 -0.710163 0.150823 0.441531 0.052061 0.184535 -0.031375
general -0.230988 -0.076990 0.345301 0.657373 -0.078636 -0.238073 0.024606 0.253903 -0.353238 -0.084047
black 0.235998 -0.157215 -0.014525 -0.331162 0.177040 0.242537 -0.249632 0.753236 -0.133727 -0.268253
air 0.147842 0.419088 0.035112 -0.231856 -0.043018 -0.392785 0.546013 0.061195 -0.376519 0.136169
fire 0.504305 -0.073688 0.542780 0.019693 0.228600 -0.130615 -0.218312 -0.399821 0.250959 -0.047011
towards -0.202391 0.094553 0.005172 0.115348 0.111505 0.239669 0.586075 -0.407909 -0.548579 -0.058871
small -0.314080 0.128395 0.255440 -0.205267 0.370896 0.497575 0.293760 0.168798 -0.431977 -0.301052
thou 0.043532 0.301899 0.015460 0.121422 0.398905 -0.513315 0.444182 0.266276 -0.435707 0.020858
cristo 0.354573 -0.484451 -0.347218 -0.228276 -0.424624 0.239164 -0.316214 -0.028087 0.261680 0.245292
natásha -0.243142 -1.937384 0.786597 -1.166903 -1.974634 -1.373283 1.003762 -0.988917 -0.524268 -1.240744
half -0.312889 0.251417 0.071951 -0.120169 -0.129782 -0.575295 -0.167147 0.149425 0.377437 -0.191811
lay -0.253710 -0.268357 0.093695 -0.621469 -0.185863 -0.007331 -0.056605 -0.388187 -0.257880 -0.369840
really -0.427177 -0.138831 0.326393 -0.188034 -0.045569 0.063877 0.153626 -0.089177 -0.087317 0.193483
child 0.258581 -0.617089 -0.311164 -0.028638 -0.511570 0.152515 0.231310 -0.089563 -0.108118 0.094470
returned -0.667383 0.086229 -0.269975 0.092504 0.455898 -0.269822 0.268618 -0.121278 -0.125745 -0.116847
woman -0.008803 0.076956 0.159251 -0.264783 -0.079346 -0.682246 -0.207741 0.532954 -0.031326 -0.283108
best -0.226991 -0.073427 -0.164418 -0.034997 0.204262 0.687654 0.115922 0.408673 -0.211953 -0.152282
near 0.568861 0.010605 0.596205 -0.314417 -0.130480 0.205982 0.192508 -0.075575 0.008836 -0.273997
understand -0.108821 0.420144 -0.151415 -0.006072 -0.343778 0.254667 0.044099 -0.367254 0.059980 0.148858
princess -0.432602 0.145639 -0.345646 0.256809 -0.055057 0.278101 -0.288958 0.412179 -0.505512 0.117153
andrew 0.921259 0.199617 0.203027 -0.750827 -1.451098 0.226107 1.843772 0.233785 1.627402 0.642662
within -0.309795 -0.320949 0.378032 0.033875 -0.329030 -0.192669 0.120630 0.099137 -0.228512 0.051490
dead -0.282380 0.006237 -0.170456 0.218989 -0.191353 -0.838586 0.099309 -0.145784 -0.128711 -0.192606
believe 0.212456 -0.474203 0.080546 -0.124725 0.118776 -0.483899 0.091053 -0.283012 0.373918 0.385075
often 0.025504 0.400527 0.034805 -0.284321 -0.268791 0.509412 0.081633 0.110261 0.265645 -0.477931
read -0.203343 -0.061088 -0.476821 0.231913 -0.405608 -0.115905 0.377369 0.517168 -0.034354 -0.029708
answered -0.025967 -0.622805 0.236255 0.513481 -0.077332 0.380644 0.139220 0.113515 -0.247910 0.217232
king -0.364524 -0.346529 0.053541 0.479306 0.204074 -0.020022 0.180379 0.508316 -0.401244 0.142169
power 0.137438 -0.277465 0.395717 0.105823 0.302012 -0.277841 0.289506 0.320643 0.353629 0.003116
gone 0.195857 -0.602021 -0.156891 0.447357 -0.336448 0.130566 -0.273252 0.215044 0.026257 0.350175
together 0.113246 0.133058 -0.004936 0.178718 -0.619316 -0.419436 -0.211942 -0.435599 -0.310195 -0.014468
madame -0.149246 0.227317 0.028642 0.270261 0.418417 0.451026 -0.269877 0.150143 -0.305306 0.533951
use 0.387089 -0.457544 0.092428 0.102009 -0.284267 0.135234 0.158788 -0.111696 0.042279 -0.500135
hope -0.322063 0.249199 -0.276438 -0.034143 0.230596 -0.640002 0.414330 0.077875 -0.070208 0.301994
given 0.383004 -0.009680 0.096571 0.420092 -0.304538 -0.186312 0.285549 0.558495 -0.273699 0.267504
ask -0.059508 0.366374 -0.011320 -0.182025 0.369751 0.234105 -0.419889 -0.313848 -0.037026 -0.050922
either -0.385600 0.285070 -0.026626 0.458431 -0.269898 -0.063790 -0.658233 0.157168 -0.100602 -0.040033
course 0.047799 -0.240547 -0.091980 -0.278253 0.606497 0.503654 -0.227170 0.054293 0.147078 -0.027266
wife -0.547946 0.287478 -0.075243 0.247592 0.362960 -0.246416 -0.074913 0.102133 0.332653 -0.352955
suddenly 0.379288 0.007604 -0.182247 -0.456223 0.427407 -0.375400 0.031778 0.375776 -0.029976 0.224355
nature 0.438683 -0.502184 0.232108 0.276809 0.193313 0.107268 -0.161264 0.116166 -0.345407 0.324606
mrs 0.197535 0.352084 0.036551 0.631816 0.104682 -0.378555 -0.041227 0.494457 0.183323 -0.048084
present -0.381650 -0.024723 0.311356 -0.134217 -0.044437 -0.491854 -0.586030 -0.192416 -0.285480 0.013633
everything -0.208858 0.447741 -0.252270 0.175614 -0.008492 -0.271722 -0.554572 0.464616 -0.057206 -0.246637
rest -0.042640 -0.354315 0.021516 0.249402 0.007825 -0.110899 0.338484 -0.444342 -0.643777 -0.263300
letter -0.222030 -0.607307 0.231382 -0.330922 -0.070750 0.330319 0.225926 0.252356 -0.352672 -0.255780
open 0.236222 0.049089 0.184100 -0.080861 0.695706 0.076888 0.012090 0.057583 -0.469076 0.301444
less -0.171365 0.275000 -0.025115 0.178165 -0.084605 -0.403663 0.168460 -0.152820 -0.733394 -0.167167
kind 0.400231 0.206709 -0.408903 -0.095681 -0.508045 0.013862 0.048169 -0.010808 -0.139828 -0.582700
villefort 0.013334 0.083598 -0.003083 -0.048952 0.141092 0.032671 -0.242106 0.218628 -0.581840 -0.087684
table -0.017991 -0.255020 -0.428917 0.059614 -0.328696 -0.282073 -0.272810 0.144036 -0.662778 0.158032
ill 0.188792 0.160620 -0.172594 0.344114 0.368342 -0.440252 0.464258 -0.140194 -0.399788 0.101803
times -0.055775 -0.471556 0.247907 -0.188554 -0.216962 -0.204151 -0.127843 -0.146105 -0.189946 -0.504201
works 0.117562 0.057724 0.346351 -0.592585 0.191025 0.485528 0.050836 0.164778 -0.098037 0.259710
fear -0.090939 -0.118598 0.057096 0.219029 0.050990 -0.536950 0.326876 0.238231 -0.152404 0.370726
along -0.449489 0.100873 0.132392 0.337543 -0.212887 0.280290 -0.032367 -0.141298 0.378666 0.300334
war 0.586234 0.497976 0.216551 -0.017793 -0.037868 0.012099 -0.391458 -0.031208 0.281451 -0.216410
whale -0.494778 -0.494503 -0.026483 -0.104837 -0.166860 -0.168925 -0.111242 -0.478585 -0.434656 0.107320
fell 0.043538 0.001814 0.079083 -0.192279 0.451131 0.050671 -0.746348 0.006745 0.174850 -0.181858
large 0.450970 -0.097364 0.053741 -0.042932 -0.587075 -0.040169 0.053925 0.232174 -0.240916 0.214714
business 0.134634 -0.509098 0.480045 -0.114704 0.128431 0.301520 -0.142132 -0.370835 -0.072761 -0.368022
matter 0.250329 -0.250691 0.551637 0.176226 0.077851 -0.180604 0.169506 0.309575 -0.510495 0.339468
least -0.225545 -0.057798 -0.385732 0.336463 0.540757 0.225246 -0.114751 -0.255179 -0.319277 0.249034
evening -0.550162 -0.074954 -0.229133 0.523638 -0.044415 -0.277810 -0.414546 0.143980 -0.278001 0.088346
themselves 0.252519 -0.056032 0.429156 0.142812 0.188271 0.334767 -0.246585 0.441337 -0.084625 0.202409
keep -0.509312 0.305529 -0.450038 -0.498337 0.111211 0.107900 0.220484 0.134539 -0.126011 0.121282
case -0.003008 -0.065333 -0.168189 -0.269324 -0.129990 0.390240 -0.085589 0.449189 -0.047979 0.572920
bed -0.321368 0.199695 -0.106571 -0.444152 -0.104210 -0.274249 -0.164409 0.325179 0.155484 -0.636388
high 0.059123 -0.360407 -0.278485 -0.126673 0.170542 -0.072392 -0.010957 -0.791483 -0.196206 0.130854
certain 0.590540 -0.408563 -0.017259 0.264482 -0.181578 0.436989 -0.108224 -0.137383 -0.140719 0.277220
ah -0.031450 -0.095853 0.414759 0.425796 -0.111184 0.103853 0.157096 0.310234 0.061129 -0.557922
strange 0.202207 -0.096375 0.089269 0.418345 0.414802 0.330085 0.308489 0.368226 -0.127275 0.372317
help -0.054006 0.063849 0.553063 -0.191292 0.323262 -0.171800 0.106842 0.233417 0.256029 0.183687
sure -0.572029 -0.421893 0.232867 -0.050530 -0.067119 0.232482 0.084046 -0.191645 0.408932 0.185641
lost 0.228048 0.361979 0.224876 0.291581 -0.061226 0.319784 0.029906 -0.262444 -0.539996 0.126817
danglars -0.241004 0.131376 -0.060947 0.053690 -0.578803 0.204072 0.218983 0.315055 0.363966 -0.379185
smile -0.006489 -0.150312 0.008188 0.052265 0.396833 0.120693 -0.083559 0.114756 -0.226520 -0.809059
water 0.163237 -0.053580 -0.573683 0.391641 -0.321650 -0.378135 0.303377 -0.095071 -0.222288 -0.183006
reason -0.158714 -0.026517 -0.255387 -0.143864 -0.333372 -0.358210 -0.157819 -0.694429 0.088059 0.063070
hour 0.363127 0.134239 0.253293 0.235764 -0.139403 -0.306803 -0.161163 0.330294 0.141005 -0.515001
manner 0.160801 0.063193 0.190187 -0.032093 -0.275616 0.327692 0.134560 0.431878 -0.279090 0.549024
until 0.361768 0.361519 0.380366 0.336947 -0.054302 -0.064409 0.323517 0.503567 -0.299133 -0.156833
dark -0.070472 0.356454 -0.006280 -0.428937 0.378280 0.224382 0.199000 0.556542 0.190467 -0.017475
body 0.141049 -0.112724 -0.019056 0.149980 -0.248030 0.593765 -0.053661 0.412945 0.288298 0.253601
therefore 0.013944 -0.365200 0.250123 -0.072411 0.381479 0.258700 0.262215 0.121472 0.210684 -0.556288
answer -0.255820 0.473513 0.037344 0.240377 -0.452720 0.332689 -0.041463 0.014850 -0.258435 -0.279052
sometimes -0.612180 -0.020910 0.165022 0.525160 0.220321 0.332614 0.165177 0.099530 -0.249400 -0.157807
coming -0.318178 0.088534 -0.081045 0.072110 0.101124 -0.332793 -0.245428 0.577850 0.498536 -0.339471
certainly 0.022581 0.169797 -0.123480 0.496870 0.137530 0.076861 -0.400565 0.445874 -0.057718 0.566437
lord -0.021893 -0.638717 -0.564618 -0.240348 0.117096 0.104719 -0.012518 -0.336203 0.155786 0.037009
held 0.180652 -0.376904 0.535714 -0.143561 -0.286814 0.585564 0.002613 -0.002617 -0.092281 0.103805
around 0.093483 -0.647420 0.446999 -0.001476 0.251124 0.141016 0.217908 -0.378574 0.046262 -0.193810
friends -0.324793 0.500308 -0.164097 0.299943 -0.139355 -0.012918 -0.327057 0.267113 -0.120262 -0.419864
second -0.324139 -0.166274 0.354804 0.320258 0.457853 0.297958 -0.001452 0.410824 0.111243 0.205464
live -0.067454 -0.297338 0.317638 -0.685027 -0.181190 0.296312 0.079772 0.207601 0.118187 0.041564
mean 0.084754 -0.161457 -0.109871 -0.398004 -0.500999 0.493076 -0.214998 -0.209173 0.053096 0.293397
call -0.274332 0.270428 0.072622 -0.218691 0.199646 0.565215 0.210279 0.111910 0.348240 -0.295880
above 0.269366 -0.268004 0.632583 0.281561 -0.080736 0.287474 0.242683 -0.456060 -0.004576 -0.125207
person 0.073228 -0.183722 0.425933 0.235161 -0.587326 0.387605 -0.128139 0.075019 -0.217456 0.283997
sort -0.088761 0.392465 0.046211 -0.157992 -0.243733 0.209453 -0.466124 0.093217 -0.203643 -0.663541
spoke -0.033026 -0.765330 0.018491 0.131950 -0.124049 -0.105341 0.070351 -0.496833 0.043111 0.244394
country 0.462420 -0.169722 0.321915 0.319135 0.180824 -0.407336 -0.349601 -0.086301 -0.194772 -0.311271
received -0.166248 0.540280 0.080718 0.253244 0.057797 -0.315571 0.375871 0.363210 -0.408281 0.172848
yourself 0.123278 0.036810 -0.348201 0.199766 -0.590375 -0.234057 0.420505 0.302255 0.272690 -0.275665
money -0.308749 -0.562252 -0.185597 -0.087293 0.218446 0.046110 -0.017446 0.539640 0.026822 -0.452108
gutenberg -0.165876 -0.244678 -0.370478 0.317519 0.404430 -0.008322 -0.360138 -0.179128 -0.537708 0.045977
return -0.147403 0.159044 -0.577475 0.325263 -0.094375 -0.027999 -0.158058 -0.147675 0.271888 -0.064616
feet -0.095434 -0.344810 0.125324 0.109326 -0.170717 -0.497612 -0.411293 0.208890 -0.451752 -0.189689
human -0.590090 -0.254766 0.304706 -0.100209 0.225180 0.271176 -0.121936 -0.160504 0.099157 -0.407158
sent -0.694744 -0.042810 0.229213 0.084888 -0.352372 0.165221 -0.304112 -0.022510 -0.250434 -0.278391
during 0.318159 0.058403 0.044884 0.349765 0.406720 -0.602520 0.208597 0.109766 -0.258983 -0.346307
saying -0.295093 0.102631 -0.249320 0.358882 -0.416490 -0.465603 -0.267487 0.299286 -0.393292 -0.066987
feel 0.246157 -0.037045 -0.276915 0.801351 -0.366800 0.177675 0.061230 0.057394 0.103374 0.043585
ground -0.326931 -0.444166 0.163903 -0.552552 -0.318997 -0.072425 -0.116645 0.006362 0.180058 0.273674
arm 0.260374 -0.269348 0.110814 -0.294286 0.057639 -0.690711 -0.388043 0.085606 0.162069 -0.310155
sight -0.093907 -0.060663 -0.484170 -0.428505 -0.108590 0.166162 -0.479184 -0.061720 -0.297183 -0.456162
thousand -0.090296 0.200069 0.192865 0.395701 -0.475567 0.227160 -0.100716 0.230727 -0.172370 0.445762
army 0.599745 0.026557 -0.234451 0.259239 -0.371882 0.228892 -0.293385 -0.129251 0.003796 -0.139995
became -0.050338 0.611974 -0.078639 -0.278017 -0.159014 -0.429799 0.003516 -0.237003 0.022237 -0.453588
sea -0.188685 -0.488505 -0.205990 -0.416482 0.236984 -0.294199 0.474820 -0.070165 -0.364366 -0.061833
four -0.040462 0.078696 -0.276538 -0.260328 -0.628032 -0.171133 -0.065552 -0.485031 -0.326277 -0.278908
continued -0.405696 -0.096711 0.054775 0.114099 0.106542 -0.286673 0.758641 0.249576 0.248340 -0.129236
happy 0.081733 -0.183169 -0.227552 0.442548 -0.308021 -0.065217 -0.263894 -0.525579 0.372745 0.358025
feeling -0.409987 0.042588 0.251273 -0.425361 0.106181 -0.139571 0.389531 0.426222 -0.312607 0.168336
entered -0.065447 -0.012672 0.412305 -0.121393 0.009324 0.286983 0.312662 0.075233 -0.788433 0.054388
used -0.028518 0.032249 -0.184951 -0.280939 -0.438125 0.181418 0.524653 0.460955 0.137797 0.390535
longer -0.339979 -0.002761 -0.019152 -0.034204 -0.215361 -0.435111 -0.167799 -0.217400 0.603855 -0.057637
opened 0.431899 -0.527535 0.261654 -0.014320 -0.432641 0.134599 -0.319342 0.051893 -0.335502 -0.209284
eye 0.488942 -0.143470 -0.091720 -0.128698 -0.522464 -0.151417 -0.269430 -0.464541 -0.134865 -0.335940
mary 0.293932 0.530800 0.182813 0.309831 -0.578790 0.127731 0.199432 0.295195 0.020957 0.154189
known 0.198031 0.051494 0.133507 0.576607 -0.196330 0.420461 0.044426 0.259377 0.494651 -0.065337
family -0.207064 -0.038890 0.369474 0.203967 -0.549531 -0.265176 -0.467281 -0.271901 -0.267948 -0.015251
become -0.178340 0.338685 -0.160792 -0.688543 -0.245131 -0.041844 -0.216825 0.380106 0.106796 -0.150466
form 0.268097 -0.121410 -0.084346 0.181756 -0.111777 -0.137271 0.448339 -0.228566 0.577635 0.286720
idea -0.374826 0.274541 0.094250 -0.356130 0.005955 0.105400 -0.170947 0.199721 0.043157 0.390663
care 0.302482 0.368141 0.300043 0.352703 0.217486 -0.147204 0.302093 0.100544 0.340497 0.157324
ran 0.085326 0.101764 -0.613414 -0.517419 0.177918 -0.023729 0.157146 0.252478 -0.250068 -0.154420
terms 0.430166 0.237685 0.222785 -0.181667 0.043811 -0.117226 0.284145 0.685711 -0.218167 -0.089026
itself 0.083872 0.269544 0.418393 0.052507 0.035412 0.342734 0.176518 -0.566847 0.301742 -0.239196
truth 0.115573 -0.202385 0.502200 0.358763 0.473621 -0.214365 -0.504991 0.127237 0.150415 0.009288
point 0.050946 -0.567475 0.120266 0.003502 -0.497810 -0.052178 0.059414 -0.398975 -0.076259 0.364041
appeared -0.518341 0.083028 -0.309512 -0.247160 0.430321 -0.224255 0.145780 0.192141 -0.357199 -0.382512
free 0.173259 0.098881 -0.218860 0.175823 -0.286700 0.515459 -0.136721 0.087892 -0.661116 0.264582
else 0.302673 0.233959 0.091871 0.109226 0.253005 0.259176 0.217383 0.033351 0.500104 0.546184
lady 0.170996 -0.274061 0.230200 -0.277007 0.527662 0.193215 0.027239 -0.025469 -0.643802 0.185153
close -0.066600 -0.338502 -0.140858 -0.127643 0.251217 -0.379970 -0.037098 0.746732 0.013589 0.279545
states -0.061814 -0.585121 0.415655 0.496341 0.358327 0.247975 0.043675 0.068081 0.170683 0.022983
turn -0.058794 -0.387999 -0.162771 0.174240 -0.802748 0.222850 -0.199343 0.027410 0.219426 -0.074613
hair 0.266267 -0.216845 -0.557126 0.255200 -0.130827 -0.174958 0.015773 0.356329 -0.142713 -0.557650
sound 0.315593 -0.227071 0.279535 -0.073781 -0.172197 -0.111667 -0.064141 0.448552 0.291300 0.405152
morrel -0.277018 -0.062843 -0.015687 -0.083979 -0.485304 0.625079 0.122678 0.026558 0.078600 -0.210763
heaven 0.198546 -0.452679 0.331382 -0.114169 -0.270372 0.221335 -0.317634 0.198206 0.214984 0.367561
rose 0.198916 -0.064766 0.281343 -0.129642 0.347267 0.630534 0.115266 -0.038554 0.032785 0.366300
ready 0.011853 0.252207 -0.189657 0.463533 0.396874 0.225079 -0.305625 0.459917 -0.226992 0.346585
window -0.084501 -0.117104 0.021636 0.353367 0.069644 -0.052609 0.118932 0.732691 -0.492396 0.229595
means -0.303291 0.033902 -0.281733 -0.373920 -0.174144 0.497057 -0.149852 -0.309138 -0.507176 -0.186835
albert 0.281615 -0.114224 -0.493143 0.064957 -0.022170 -0.523691 0.091124 0.116627 0.596189 -0.090313
kept 0.122756 0.547666 0.237681 -0.238821 -0.045936 0.025233 -0.338548 -0.145697 -0.333304 0.360694
girl -0.141739 -0.105928 -0.237345 0.003551 -0.586915 -0.583961 0.143176 -0.353699 -0.044749 -0.148305
expression -0.106743 -0.102228 -0.048531 -0.651465 0.163971 -0.162959 0.262584 0.279309 -0.267329 -0.528625
taking 0.014623 0.009736 -0.244422 -0.296791 0.131177 0.191849 0.261036 0.607155 -0.247411 -0.372279
five 0.414786 0.241105 -0.168762 -0.129060 -0.001780 -0.142033 0.121759 0.713492 -0.064744 -0.277900
hundred 0.011522 -0.028945 -0.347047 0.033253 -0.181501 0.007993 -0.161273 -0.393128 0.490212 -0.533358
dantès 0.352576 -0.175957 -0.239501 0.636284 0.186317 0.134265 0.185150 0.085439 0.309099 -0.058568
subject 0.111538 -0.120964 0.319449 -0.119470 -0.307528 -0.183038 0.052648 -0.279631 0.391161 0.423957
doubt 0.285588 0.115349 -0.015412 0.011391 -0.025878 0.358140 -0.635741 0.284729 0.070144 -0.323859
earth -0.152412 -0.513429 0.131769 0.069757 -0.249593 -0.530356 -0.353131 0.057393 -0.461578 -0.008292
blood 0.288794 0.200281 -0.589509 -0.227305 0.220199 0.490384 -0.073884 -0.209671 -0.054071 -0.179785
rostóv 0.436169 1.200077 0.559142 -1.779275 -2.217716 -0.995084 -1.172780 -0.456523 0.108240 -0.314097
boy 0.162673 -0.003988 0.223563 0.460969 -0.250766 0.421687 -0.566462 -0.377859 -0.003365 -0.081715
joe -1.054815 0.120371 -1.513308 -1.088151 0.338982 -1.371486 -0.400897 1.784654 -0.194266 -1.568362
children -0.647140 0.478926 -0.136653 0.104753 0.134476 -0.108292 0.367176 0.231637 -0.262026 0.157067
able -0.328019 -0.107951 -0.240408 0.415228 -0.101463 -0.078124 0.352775 0.700257 0.129028 0.051805
pleasure 0.629968 -0.046765 -0.092940 -0.214496 -0.262505 0.068098 0.477097 -0.041246 -0.352744 0.189559
moscow 0.464528 -0.032278 0.239440 0.568106 -0.243195 0.258886 -0.004887 -0.470181 -0.092197 -0.204234
electronic -0.011575 -0.037384 -0.238487 0.092440 0.117143 -0.406091 -0.724714 -0.208182 0.127254 -0.383638
followed -0.249952 -0.462886 -0.430990 -0.286896 0.388924 0.194704 -0.148435 0.336097 -0.125343 -0.070552
added 0.152549 0.267035 -0.279189 0.060156 0.076076 -0.013359 -0.056537 -0.153096 0.585993 -0.193583
deep -0.092468 -0.049721 0.179309 0.213609 0.082294 0.296667 0.668215 0.110518 0.458447 -0.274657
ten 0.075666 -0.128781 0.081192 -0.024604 0.658301 0.330698 0.347030 -0.083092 0.098158 -0.170504
making -0.027381 0.382015 -0.017083 -0.058235 -0.467301 0.341690 -0.004748 0.646050 0.228241 -0.062818
several 0.052676 -0.078759 -0.497269 -0.178884 0.479671 0.496427 0.157683 -0.425145 -0.019355 -0.170747
cold 0.108324 0.053432 0.469711 0.447446 0.390340 -0.027966 -0.029600 -0.152018 -0.514216 -0.079483
short -0.413915 0.494979 0.052565 0.049288 -0.045242 -0.120383 -0.702960 -0.057835 0.092312 0.042089
sister 0.152994 0.298137 0.475432 0.148698 -0.187349 0.383012 -0.098953 0.191857 0.055913 -0.584692
elizabeth 0.305865 -1.232188 -0.862602 1.301885 1.427490 0.383261 0.595221 0.522120 0.201753 -0.423704
daughter 0.086015 -0.236712 0.065432 -0.082142 0.209020 0.838142 0.002186 0.193789 -0.057828 0.051819
chief 0.255720 0.123369 -0.120508 0.026324 0.242211 -0.165936 0.229036 -0.097824 -0.020697 0.746853
cause 0.246943 -0.389364 -0.044618 -0.055196 -0.342743 0.181169 -0.592085 0.376063 -0.279007 -0.249497
suppose -0.267219 -0.448486 -0.063600 -0.116329 0.196774 -0.518580 0.593403 0.166870 0.103484 0.107181
sleep -0.514050 -0.087239 0.220715 0.199334 -0.511248 0.272262 -0.083022 0.328159 -0.374767 0.220135
ye 0.449905 -0.126093 -0.257900 -0.280288 -0.479059 0.064666 0.387604 -0.260472 0.323206 -0.283505
past -0.261962 0.390846 -0.349017 0.417054 0.336011 -0.116739 -0.054142 0.383901 0.000340 0.117700
possible -0.356983 -0.199356 -0.477609 0.465090 -0.059446 0.360000 -0.195450 0.100213 -0.415946 0.184344
talk 0.211090 0.003794 -0.662211 -0.494155 -0.393443 -0.193937 -0.245223 0.030967 0.019016 -0.131169
forth -0.614044 -0.024606 0.091494 -0.176127 -0.004329 -0.140609 0.269921 0.036608 0.589679 -0.145907
sun 0.361335 -0.022432 0.251877 -0.117322 0.372358 -0.100256 0.242153 -0.490686 -0.381391 0.408627
ought 0.007094 -0.178282 -0.635794 0.337265 -0.169853 -0.504445 -0.044822 -0.214818 0.005293 -0.116476
met -0.262981 -0.416755 -0.302792 0.342814 0.138918 0.363328 0.098546 -0.345024 0.455765 -0.088556
remember 0.051102 0.666662 0.251832 0.236859 0.115834 0.264423 0.257126 0.362609 0.038402 -0.002784
change 0.133874 -0.383326 -0.007312 0.283074 -0.071256 0.175233 -0.093644 0.380114 0.584875 -0.460879
strong 0.282986 0.572339 0.065084 -0.240057 0.101640 -0.135798 0.293817 -0.464041 -0.194487 0.221359
gods -0.003790 -0.106192 0.403643 -0.621464 0.048410 -0.178758 -0.481998 -0.035501 0.339465 -0.159835
seems -0.122553 -0.216387 -0.197154 -0.226988 -0.199598 0.145476 -0.189235 0.517534 0.087330 0.678951
standing 0.301953 -0.279568 -0.325731 -0.463933 -0.388239 0.015166 0.258732 -0.401201 0.106382 0.155193
lips 0.482187 -0.157285 0.435667 0.104717 -0.559587 0.196263 0.176139 -0.078557 0.126737 -0.211015
hold -0.120761 0.138536 0.139407 -0.033407 0.001685 -0.305275 -0.053308 -0.622671 0.435041 0.042154
town -0.191000 -0.333684 0.408273 0.455688 -0.465384 -0.416458 -0.130032 -0.097327 -0.043892 -0.240943
hard 0.489143 -0.534365 -0.029442 0.014351 -0.004629 -0.044561 0.409718 0.358251 -0.396065 0.107123
stopped -0.207258 0.242915 0.363411 -0.440483 -0.120369 0.353168 0.451457 -0.127084 0.048150 -0.072831
battle -0.191587 0.192683 -0.106530 0.029989 -0.285822 0.214964 -0.466312 0.595062 0.231584 -0.400283
law -0.098867 -0.144562 0.030705 0.779738 -0.057374 -0.152609 0.404267 0.147774 0.031382 0.320440
neither -0.402916 -0.232200 -0.034605 -0.208947 -0.204060 0.121232 -0.146387 -0.482477 0.023118 0.484732
different -0.429911 -0.264982 -0.015315 -0.181351 -0.095368 0.358145 0.479137 0.013916 -0.539133 -0.228930
drew -0.335193 -0.606208 -0.111099 -0.234552 0.543017 -0.106060 0.228414 -0.095545 0.276011 -0.095692
knowledge 0.221920 0.044824 -0.061017 0.430256 0.432470 0.235434 -0.038861 0.287945 -0.632889 0.075777
thats -0.308458 -0.679848 -0.183723 -0.471728 0.123808 0.058719 -0.192841 0.155756 -0.269621 0.066470
beautiful -0.256855 -0.535516 -0.010558 -0.180840 0.411216 0.534067 -0.319228 0.071385 0.044200 -0.226022
women -0.095346 0.655708 0.192201 -0.350949 0.427746 -0.073235 -0.272651 -0.088850 -0.229480 -0.120883
fellow 0.399885 0.046702 -0.317736 -0.205527 -0.055804 0.100081 0.349873 -0.258527 0.462637 0.232886
foundation -0.204142 -0.319636 0.039668 -0.178705 -0.569166 0.530156 -0.087971 -0.105224 -0.440330 -0.015562
nicholas 0.299786 0.175476 0.094980 0.035988 -0.356004 0.096460 -0.042414 -0.558875 -0.264495 0.589025
e -0.404927 -0.097439 -0.014123 0.013576 0.402598 -0.100699 0.578534 -0.233092 -0.311085 -0.110248
says 0.203609 -0.427616 0.122837 0.315150 0.153229 0.344281 0.201138 0.578914 0.378153 -0.025954
laid 0.278008 -0.396256 0.630214 -0.307875 -0.033075 0.398689 -0.173858 0.098906 0.011205 0.018629
force 0.153840 -0.217915 -0.196960 0.573250 0.126412 0.423713 -0.179007 -0.328236 0.250164 0.276340
thee -0.360129 -0.226728 0.083337 0.381074 0.331450 0.542253 0.316311 -0.365325 -0.042306 -0.002074
fall -0.317695 0.129225 0.149157 0.308278 -0.398877 0.154026 0.099851 -0.219530 0.621943 -0.273331
remained -0.432982 0.474282 -0.092597 0.214780 0.189519 -0.364680 0.223191 0.462193 0.194930 0.008723
countess -0.216283 0.518380 0.478421 0.136741 -0.321727 0.240772 -0.322483 0.079418 -0.327485 -0.240304
art 0.064955 -0.288377 0.504355 0.517065 0.130289 0.141583 -0.243870 -0.119613 0.199390 0.386477
master -0.668400 0.144224 0.007521 -0.276066 -0.052267 -0.243895 0.321724 0.238094 -0.423066 -0.234041
captain -0.157681 -0.467243 -0.183531 0.710362 -0.110561 -0.214114 -0.125342 -0.006132 -0.325119 0.194918
road -0.452094 -0.197560 0.145460 0.394853 -0.207995 0.088822 0.287460 -0.428174 -0.014752 -0.512034
struck -0.035151 -0.352009 -0.402493 0.564082 0.091010 -0.224197 0.246924 -0.409258 -0.215822 -0.240428
red -0.064597 0.286272 -0.061666 -0.072414 -0.254722 -0.224441 -0.560512 -0.148955 -0.104035 0.442948
spirit -0.046535 -0.373968 0.287901 0.068047 -0.074645 -0.303410 -0.400622 0.368103 -0.302883 0.426598
minutes 0.162695 -0.034644 0.220103 0.409075 0.197311 -0.139640 0.200887 -0.319127 -0.453814 -0.218004
seeing 0.204853 -0.562814 -0.147945 -0.091364 0.343823 0.350211 0.103205 -0.197308 -0.294699 0.473713
horse 0.266222 -0.027489 -0.091718 -0.076245 -0.178747 -0.214134 -0.415635 0.427223 0.118466 -0.683063
emperor 0.327513 -0.175737 0.039057 0.416368 -0.364933 0.461289 0.075992 -0.194848 -0.404172 -0.310762
horses -0.064894 0.038674 -0.368233 0.429341 -0.220529 -0.576335 0.124253 0.086778 -0.503003 0.129265
strength -0.514466 0.075182 -0.645371 0.013467 0.158875 0.182791 -0.261544 -0.068873 -0.256862 -0.336441
age -0.112420 0.102049 0.322933 -0.104694 0.566451 -0.266665 -0.120674 0.156360 -0.197131 -0.429164
need -0.382160 -0.122579 -0.123011 -0.102646 -0.049711 0.470448 0.509914 -0.101470 -0.485292 0.287617
front -0.046499 0.248299 0.720958 -0.087297 0.219007 -0.048815 0.437986 -0.068687 0.075505 -0.206206
pale -0.164384 0.306195 0.219504 0.061364 0.367738 0.347716 -0.337094 -0.148177 0.088125 0.335287
bad -0.027322 0.172344 0.190894 0.329295 -0.134229 0.545410 -0.258108 -0.418057 0.408946 0.048633
bring 0.042222 -0.243646 -0.121030 -0.454220 0.273208 0.069262 -0.167537 -0.541623 0.390730 0.049270
jane -0.220345 0.216173 0.051650 -0.042138 -0.185444 -0.164280 -0.107416 0.366429 -0.145094 0.774902
book -0.624952 0.235412 0.030867 -0.389886 0.280600 0.424349 -0.010521 0.039007 -0.346761 -0.074053
turning -0.193441 -0.022991 -0.288998 0.094165 -0.336462 0.234478 0.080342 -0.537340 0.236071 -0.407196
sitting -0.574211 0.129068 -0.344510 0.587454 -0.021165 -0.225539 -0.254355 0.212275 -0.008021 -0.169401
mine -0.470334 -0.136466 -0.160559 0.299250 0.293910 -0.177362 0.127518 0.035594 0.463302 0.391756
doctor -0.141970 -0.146756 0.025395 -0.159164 0.614917 -0.055013 -0.431524 0.000056 -0.522859 -0.301987
justice -0.066895 0.544066 0.074634 0.323636 0.384275 -0.060155 -0.123174 0.021039 0.338291 -0.452707
number 0.304499 0.305715 -0.070816 -0.677607 -0.112515 -0.075039 0.139880 -0.050243 -0.555743 0.020520
fact 0.406911 -0.126465 0.028539 -0.466430 -0.276009 0.429076 0.110466 -0.216533 0.291760 0.050171
hardly -0.266992 0.029504 -0.150772 0.152681 0.101772 -0.558518 -0.331590 0.193084 0.636226 0.042895
valentine 0.217665 -0.047286 -0.290191 0.415986 -0.170599 -0.389747 -0.154528 0.504239 -0.168731 -0.099689
_ -0.278350 0.466666 -0.292034 -0.088966 0.116815 0.523009 0.149457 -0.296436 0.461431 -0.034986
tried 0.068470 0.255112 0.273590 0.190955 0.583324 0.339878 -0.442968 -0.243182 -0.070873 -0.056569
common 0.378333 0.132823 0.132904 -0.268826 -0.023185 -0.187600 -0.322553 0.721264 0.007062 -0.298737
husband -0.245561 0.424634 0.039712 0.522453 -0.083891 -0.220207 -0.469982 0.118794 0.064261 -0.436117
land 0.125454 -0.116722 0.456014 -0.243457 0.036446 -0.304065 0.275040 -0.218890 -0.081430 -0.643567
meet -0.641095 0.049179 -0.114178 0.093021 0.204305 -0.398463 0.159217 0.300569 -0.195739 -0.458462
silence 0.060003 -0.378717 -0.362789 0.035704 -0.355591 -0.063296 -0.569884 0.381016 -0.251078 0.110878
fine -0.305744 0.421611 0.009465 -0.382705 -0.291508 -0.509141 -0.214041 0.115426 0.103595 0.045055
low 0.246446 -0.147350 -0.081228 -0.116497 0.111812 -0.539895 0.389014 -0.383309 -0.433506 0.174308
thoughts 0.143078 -0.044608 -0.036948 -0.114634 0.389441 -0.051873 -0.401464 0.561013 -0.180297 0.504229
happened 0.037585 0.407907 0.196872 0.250210 0.060938 -0.609251 -0.064721 0.182444 -0.276089 -0.354423
led -0.435767 0.036026 -0.304984 -0.138911 0.651248 0.028346 0.300134 0.080146 -0.316208 0.232893
wished -0.236014 0.018615 -0.319110 0.468748 0.368278 0.353598 -0.125664 -0.250591 -0.299790 -0.065359
late 0.491262 0.004280 -0.022328 0.423177 -0.085390 0.480727 -0.228724 0.007291 -0.533369 0.047217
across 0.325818 0.270417 0.363128 -0.288507 -0.056466 -0.054462 -0.042212 0.719632 -0.189861 -0.202438
ship 0.315115 -0.319188 0.018873 -0.389664 0.273634 -0.523461 0.013727 0.399462 0.103967 -0.356439
laws -0.176723 0.034522 -0.474676 0.259225 0.055688 0.090437 -0.096665 0.422506 0.476521 0.050415
year -0.663460 0.344108 -0.022693 -0.014777 -0.398961 -0.359844 0.164869 0.036511 -0.308644 0.167687
soldiers 0.615091 0.064276 0.158644 0.031526 0.035348 0.116786 0.316382 0.366053 0.336446 0.106163
character 0.144802 0.155009 -0.706544 0.444770 0.102016 0.047982 0.132775 -0.018486 0.071539 0.282021
city -0.627630 -0.211322 0.272881 -0.353676 -0.176225 -0.361461 0.080015 -0.131760 0.212489 0.154504
wanted -0.276834 0.370675 -0.081017 0.111204 -0.103240 0.182590 -0.121309 0.553526 0.598178 0.209387
die 0.066180 0.404578 0.055576 0.404029 -0.257415 0.033251 -0.731371 0.182704 -0.085335 0.150288
impossible -0.175460 -0.159220 -0.262388 0.666122 0.175800 0.382392 -0.296123 0.074024 -0.296832 0.269981
plain 0.545624 0.069684 -0.383093 0.074552 0.104476 0.239951 -0.478483 -0.141405 0.402419 0.016001
carriage 0.199702 -0.304063 0.054737 0.485104 0.043070 0.200339 0.056215 -0.077405 -0.178385 -0.088028
bear -0.039359 -0.601394 -0.136198 0.045046 0.155058 0.456662 -0.451437 0.248530 0.288076 0.185878
necessary -0.285527 -0.030465 0.273423 0.022075 0.157606 -0.083534 -0.085980 -0.390833 0.120093 -0.576014
officer 0.017375 0.253033 0.024987 -0.222309 0.413656 0.043090 -0.194511 0.245409 -0.608940 0.487599
opinion -0.123725 -0.094498 -0.442902 -0.237637 -0.420462 -0.226651 0.029326 -0.476618 -0.475614 0.201594
sense -0.110603 0.324819 -0.181393 -0.408507 0.203238 -0.060863 -0.378398 0.290243 -0.640147 -0.004439
view -0.134727 0.492185 -0.343464 0.212537 -0.379687 -0.640274 -0.067959 -0.038254 -0.029323 -0.113202
placed 0.327755 -0.281318 0.185539 -0.071665 0.547163 -0.511884 -0.038616 -0.208118 -0.010157 0.150236
pass 0.216197 -0.417027 0.115401 -0.042924 0.027761 0.301832 -0.634535 0.147887 0.272520 -0.416372
franz 0.657157 0.030552 -0.183884 0.027295 -0.303327 -0.377855 -0.353650 0.241236 -0.335935 0.039193
forward 0.058376 -0.116350 -0.095845 -0.372729 -0.369283 0.091407 0.560453 -0.083846 -0.116125 0.505771
doing 0.315248 -0.241198 -0.367124 -0.069803 0.274392 -0.483472 -0.219972 0.299469 -0.490959 -0.105485
gold 0.020165 -0.203240 -0.837814 0.202768 -0.086324 0.362362 -0.189420 0.197219 -0.008730 -0.015937
raised -0.074835 0.326733 0.087905 0.082798 0.490135 -0.196973 0.027926 -0.604029 -0.225209 -0.214598
speaking 0.253869 -0.091903 -0.676723 0.170710 -0.388142 -0.082371 0.231203 0.403216 -0.193552 0.167380
position 0.530193 -0.454058 0.122005 -0.185943 0.019539 -0.545276 0.293063 -0.193588 -0.140601 0.026701
brother 0.142023 0.137944 -0.156883 0.331023 -0.015372 -0.292098 -0.171211 0.512453 0.144195 -0.638823
show -0.627772 -0.055641 -0.022755 0.011289 -0.331915 0.468948 -0.074557 -0.475058 0.088435 -0.114429
except 0.019411 -0.097449 0.056808 -0.265219 0.062701 -0.182528 -0.161803 0.588692 0.120538 0.585945
carried 0.296626 -0.008370 0.244102 0.528434 0.114843 0.105814 -0.197304 0.304781 -0.375087 0.524109
terrible 0.282243 -0.421487 0.278155 -0.057613 0.473810 -0.291083 0.015508 0.121646 -0.076412 0.469249
stand -0.434615 0.417495 0.420127 -0.075666 0.000360 -0.193057 -0.203909 0.211311 -0.319380 0.433215
besides 0.180198 -0.505907 0.032408 -0.550255 -0.185848 -0.272935 -0.067369 -0.243117 -0.144354 -0.290095
none 0.172445 -0.543481 0.049666 0.475524 0.065411 0.321439 -0.291755 -0.131382 0.371798 -0.199928
silent -0.276828 -0.512318 0.084313 0.232353 0.069704 0.265616 -0.098209 -0.045586 0.365740 -0.615387
wild -0.417424 0.053729 -0.028166 0.379856 -0.104804 -0.223510 -0.631223 -0.188238 -0.321379 -0.257259
moved 0.150364 0.069824 0.637483 -0.191966 -0.066149 0.008643 -0.276810 0.061811 0.524945 -0.326773
seem 0.507057 -0.444583 0.501040 -0.039611 0.237507 0.152936 0.181801 0.028334 0.212684 0.060371
living -0.736893 -0.024173 0.088996 0.053840 -0.012992 0.228518 0.259478 -0.163483 -0.162449 0.450804
tears 0.530210 -0.075735 -0.036608 0.190841 0.372983 0.159124 -0.683480 -0.178774 0.052497 -0.035299
please 0.151240 -0.249993 0.196546 0.234146 0.768595 0.158567 0.339653 -0.017922 0.160331 0.048699
wall -0.286992 -0.218149 0.669078 0.441242 -0.077508 -0.222869 -0.020733 -0.184892 0.095320 -0.357506
society -0.189023 0.038587 -0.743991 0.032837 0.471198 0.108196 0.191140 -0.251334 -0.145146 0.217073
further -0.343320 0.075728 0.341708 0.221394 0.320599 -0.394459 -0.433384 0.412887 0.026431 -0.060037
evidently 0.152842 0.188618 0.210844 0.573997 -0.297301 0.083508 0.160751 0.632364 0.210936 0.038043
third -0.579464 0.149650 0.139546 -0.018540 0.397367 -0.220032 -0.439670 -0.344582 -0.253105 0.198772
evil -0.145298 0.183745 -0.153615 0.087867 0.560911 0.164896 -0.499873 -0.007226 -0.457116 -0.329050
hours -0.102686 0.205425 -0.117551 0.517304 -0.172369 0.330167 0.187540 0.312596 -0.339374 -0.396648
line 0.123944 -0.609472 -0.550291 0.057570 -0.200580 -0.220497 -0.021956 -0.327834 -0.259269 -0.207307
afraid 0.419532 0.207031 -0.603898 -0.221712 -0.229995 -0.070098 -0.069399 0.401230 0.371838 -0.052352
length -0.593334 0.270307 -0.216161 0.387951 0.500315 -0.075129 0.271750 0.099637 -0.081559 -0.061413
motion 0.381342 -0.194353 0.025098 -0.066350 0.277543 -0.351272 -0.404376 -0.328816 -0.230387 0.517902
interest 0.066362 0.079474 -0.131275 -0.674699 0.016205 0.266163 0.333888 0.187910 -0.481176 -0.231721
gentleman 0.462131 0.220704 0.003527 0.361344 -0.418107 0.019009 -0.225049 0.087127 0.184381 0.435161
beyond -0.383612 0.243232 -0.226020 -0.269053 0.369642 -0.193512 0.507478 -0.106222 -0.408858 0.240631
happiness 0.494220 -0.466125 0.230813 0.406863 0.061467 0.040187 -0.274175 -0.119967 0.354775 0.005860
immediately -0.292089 -0.238310 -0.300322 0.264236 0.415921 0.060911 0.238803 -0.472199 0.199427 0.328344
following 0.010686 -0.470634 0.497999 0.012500 -0.369583 0.143048 0.006646 -0.414784 0.083767 0.375007
attention -0.030501 -0.187112 -0.186027 0.116643 -0.137406 0.242309 -0.147346 0.804219 0.284391 -0.211658
fair 0.020100 0.084522 0.098605 0.170215 -0.128375 0.714835 -0.179634 0.077603 -0.499914 -0.369834
united 0.100148 -0.449309 0.179175 -0.511145 -0.285742 -0.221085 -0.103112 -0.378986 0.079068 -0.451527
chair 0.515375 -0.069354 -0.200695 -0.143507 0.282359 -0.098236 -0.310490 -0.302670 -0.022678 0.503219
rich -0.452788 -0.264053 0.370010 -0.148810 -0.450926 0.213187 -0.299793 0.122969 -0.156574 -0.269271
o 0.091163 -0.479370 0.203177 -0.144723 -0.049505 0.381860 0.035527 -0.650117 0.294850 -0.189554
youth 0.204452 0.163541 0.691997 -0.061408 0.167614 -0.108454 -0.318959 0.461146 0.065419 0.127471
steps -0.083494 -0.243656 -0.420736 0.058176 -0.393065 -0.272718 -0.336341 0.078420 0.186957 0.278616
account 0.226601 0.190339 -0.385663 0.344064 0.425476 0.262092 -0.050095 0.390615 -0.161258 -0.017281
napoleon 0.100034 0.515748 0.311168 0.135300 0.221758 0.359907 0.309746 -0.314241 0.068224 0.366360
conversation -0.021023 0.424352 -0.091816 0.085065 -0.473885 0.196022 0.109198 0.072196 0.127733 0.423309
instead 0.035869 0.199283 -0.288089 -0.495612 -0.225657 0.674807 0.207127 0.126363 0.214786 -0.137464
comes -0.248704 -0.318069 0.160323 0.476173 -0.336664 0.031786 0.449084 0.443259 0.187397 0.182390
anyone 0.279459 0.222968 -0.228582 0.287756 -0.309761 -0.504426 -0.148616 0.487333 -0.261338 0.241726
usual 0.011765 -0.317477 -0.188342 -0.174251 0.727388 -0.107939 -0.124949 0.437725 0.036331 0.219059
field 0.156610 0.106970 -0.406366 -0.020466 0.286965 0.530725 0.103890 0.133513 0.531101 0.180369
purpose -0.109505 0.074757 -0.037406 -0.420767 0.456701 -0.119136 -0.552757 0.047245 0.111679 -0.510737
clear -0.481055 0.351706 0.346587 -0.238043 -0.135337 0.513899 -0.002575 0.280057 -0.097216 0.231592
run 0.462067 0.023296 -0.458260 0.290947 -0.417083 -0.255531 -0.408472 0.137365 -0.083555 0.232279
cant -0.213839 -0.460076 0.230571 0.339383 0.517972 0.450864 0.171440 -0.248304 0.036023 -0.101689
mans -0.221923 -0.166294 -0.430390 -0.177114 0.299195 0.051088 0.397370 0.316949 -0.230219 0.358210
copyright -0.177397 0.262094 -0.046605 -0.420932 0.135509 -0.224685 0.583513 0.173016 -0.092653 -0.522140
agreement 0.311727 -0.259178 -0.282534 -0.686013 0.066944 -0.012695 -0.480986 -0.162915 0.022624 0.064339
fight -0.305641 -0.260284 0.059905 -0.234838 0.194674 -0.195206 0.071989 0.397336 -0.039929 0.734347
real -0.499522 0.520743 -0.109589 0.182295 -0.383126 0.160734 -0.021868 -0.180447 -0.423245 -0.212742
dinner -0.566665 0.113412 -0.113895 0.692007 0.028205 0.254001 0.239334 -0.068301 0.119475 -0.009141
try 0.377051 -0.139187 -0.354080 -0.262007 -0.375237 0.487609 -0.146385 -0.273322 0.216352 -0.257007
beside -0.207973 0.045719 0.248577 0.136697 0.291662 0.738001 0.245939 0.106048 0.027704 -0.408005
vain 0.673997 0.188960 -0.167721 0.057514 0.175514 0.101313 0.037466 0.636597 -0.025133 0.173089
fathers -0.469817 0.492584 -0.212402 -0.074876 0.505628 -0.053818 0.164907 -0.181654 0.135547 0.084148
street -0.060689 -0.301035 -0.391404 0.142609 0.408597 -0.590176 0.011452 0.012655 -0.147074 0.392283
fortune -0.311306 -0.344690 -0.607476 -0.018398 -0.090790 -0.158243 -0.229992 -0.147436 -0.482621 -0.272159
wind 0.652825 -0.294835 -0.020054 -0.023452 -0.036787 0.229367 -0.252186 -0.316356 0.291952 -0.332508
wait 0.519626 -0.234020 0.530262 0.136337 -0.346198 -0.062258 -0.371004 -0.141390 0.173157 0.080593
tone -0.202588 -0.605743 -0.084386 0.306959 0.213780 -0.125808 0.345089 0.333885 -0.306822 -0.213741
repeated 0.190366 0.159768 -0.325838 0.275719 -0.434633 -0.235719 0.222061 -0.595029 -0.283911 -0.053439
secret -0.261667 -0.014466 0.000146 -0.027908 -0.698458 -0.288762 -0.068749 0.019319 -0.463087 -0.373141
fate -0.566214 0.089055 -0.165885 0.099874 0.590507 -0.151722 0.268341 0.096115 0.037582 0.380355
ones -0.766746 -0.074765 -0.187820 -0.233859 -0.333413 0.093014 -0.093044 -0.000451 -0.312976 -0.209304
beneath 0.013121 0.157341 0.214171 0.012848 -0.228031 0.296134 -0.220539 -0.052395 -0.058027 0.595516
cut -0.009032 0.464587 0.198896 0.009671 0.223454 -0.133968 -0.206910 0.666881 -0.422256 -0.103088
future -0.210720 0.109851 -0.570464 -0.604515 0.196672 0.005200 -0.113613 0.335751 -0.183402 -0.046351
joy 0.077791 0.025139 0.466801 -0.126076 -0.677474 -0.090776 -0.227004 0.182894 -0.050518 -0.157556
ago -0.215779 -0.496250 0.125160 -0.030792 -0.203218 -0.330035 -0.428257 0.317013 0.453553 0.126483
desire -0.360825 -0.589399 -0.355146 0.360806 0.214338 0.081069 0.277655 -0.082938 0.327376 0.149816
bright -0.131716 0.152117 0.243850 0.567297 0.414042 0.071478 0.324959 0.190833 -0.118872 -0.475436
merely 0.145925 -0.401848 0.241809 -0.455959 -0.161510 0.348303 -0.148295 -0.212926 0.446398 0.177234
natural -0.687441 0.581277 -0.187594 -0.245664 -0.017750 0.108366 0.170293 0.096127 -0.135407 0.049126
walked -0.251433 -0.498222 -0.172969 -0.180376 -0.269868 -0.632456 -0.027667 -0.308867 -0.081949 -0.207586
whatever 0.266815 0.319273 0.375894 0.159056 -0.096181 0.050500 -0.047518 0.763101 0.137462 0.210853
glad 0.240421 -0.334424 0.061993 -0.337848 0.248609 -0.072674 0.404701 0.067694 -0.548294 0.321335
paris -0.049048 -0.403143 -0.374060 -0.030223 -0.032540 0.073575 0.509169 -0.300634 0.425161 0.103855
nearly 0.172089 -0.385223 0.069026 0.189559 -0.064762 0.376023 -0.310178 -0.036239 0.708368 0.081184
toward -0.271398 -0.156248 -0.454319 0.456830 -0.155699 -0.340397 -0.083908 -0.255864 -0.522943 -0.026332
russian 0.333344 0.333462 0.605764 0.234268 -0.107189 -0.030147 -0.464671 -0.071435 0.204325 0.280062
lived -0.284961 0.279982 -0.457604 0.492316 -0.018146 -0.603164 -0.104151 -0.005534 0.099794 0.058317
today 0.374876 0.138639 -0.221369 0.104251 0.566004 -0.130409 -0.479879 -0.027101 0.354097 0.159944
loved -0.726103 0.370151 -0.101861 0.004623 0.474474 -0.143429 0.066475 0.191094 0.159086 -0.020043
reached -0.197394 0.323018 0.450532 0.476821 -0.175780 0.020964 0.042851 -0.323231 0.425002 -0.017877
breast 0.125943 -0.378861 0.052422 -0.366571 0.113711 -0.556835 0.222917 0.109137 -0.482892 -0.292182
although 0.290501 -0.346069 0.317020 -0.354214 -0.055170 0.465295 0.377329 -0.181858 -0.119501 0.129850
appear -0.489316 -0.440932 0.212030 -0.069593 0.111983 -0.198212 -0.218957 0.309970 -0.134939 0.327719
paid 0.091413 -0.503773 -0.231140 0.366116 -0.136522 -0.415260 -0.561812 0.016695 -0.208323 -0.000692
afterwards -0.139839 0.019019 -0.010115 -0.222405 0.654047 -0.466218 0.065671 -0.391372 -0.233742 0.046846
knows -0.216086 -0.616600 -0.075735 -0.163086 0.325572 0.185631 -0.125551 0.343867 -0.467658 -0.144093
oclock 0.271372 0.503798 0.065309 0.014302 -0.063462 0.117979 -0.357570 -0.225321 0.451358 0.031718
early -0.143922 -0.350687 -0.022833 -0.206618 -0.290460 0.150913 0.441484 -0.181691 -0.342521 0.600428
exclaimed 0.269106 -0.283272 -0.026194 0.247441 0.188229 0.304851 0.705555 -0.015356 -0.322264 0.234712
action -0.189738 -0.106508 -0.114106 0.088623 -0.092718 -0.296069 -0.257331 0.312206 0.288317 -0.767245
holmes -0.208295 -2.046178 0.151757 0.114226 -0.613225 1.073198 0.477582 1.825187 1.105193 1.383852
license -0.353651 -0.483694 0.168485 0.032168 0.018527 -0.321410 -0.116929 0.059521 -0.479556 -0.237266
orders -0.259496 0.270457 0.016426 -0.668622 0.209410 -0.040042 0.013912 -0.001712 0.388417 -0.270974
greater 0.008533 0.096121 0.010997 -0.410935 -0.300351 -0.299174 0.174174 0.297955 -0.435147 -0.576647
effect -0.583480 -0.358058 -0.058027 -0.591551 0.412700 0.012706 -0.029325 0.066181 0.023930 0.031776
thinking 0.275551 0.057090 -0.000673 -0.553034 0.090431 -0.329009 0.095804 0.519250 -0.396335 -0.205155
heavy 0.021825 -0.319232 0.301945 -0.523149 0.232805 -0.174706 -0.358164 0.165470 0.196233 -0.463786
arrived 0.359550 -0.075692 0.463523 -0.281717 0.084433 -0.133775 -0.146364 -0.439956 -0.126847 -0.351412
beauty -0.119936 -0.429651 -0.532159 -0.067914 0.011406 -0.387380 0.339192 -0.006432 0.459768 -0.061416
foot -0.333713 0.059800 0.344336 0.592597 0.084492 -0.341912 -0.428179 0.088676 -0.205589 0.111617
wood 0.116254 0.852973 0.034121 -0.347566 -0.052995 0.083682 -0.107641 0.153864 -0.112370 -0.134378
corner 0.227745 0.141625 -0.119587 0.299094 0.345804 0.222903 -0.283776 -0.099408 -0.394045 -0.321177
history -0.105756 -0.440099 0.293053 -0.055244 0.102425 0.532296 0.255964 -0.190553 0.437160 -0.055716
instant -0.159819 0.214151 -0.403885 0.172418 0.112668 0.201418 0.593962 0.041374 0.138007 -0.140834
paper 0.029840 -0.423812 -0.137584 0.206879 0.618690 -0.063809 0.120524 0.384733 -0.431381 0.148434
distance 0.168837 -0.314294 0.438037 -0.397555 -0.148952 0.079975 -0.001519 0.060218 -0.532444 -0.454286
kutúzov 1.116796 1.351925 0.725571 0.334006 0.086516 1.264931 -0.232211 -0.944889 1.971051 -1.599001
married -0.251141 -0.499079 0.332326 0.036991 0.004797 0.224589 0.503552 0.095979 0.107414 0.440580
fixed 0.506570 -0.019241 0.295149 -0.261867 -0.138748 0.335534 0.089036 0.309168 -0.322338 0.415824
closed 0.044581 -0.195718 -0.294309 -0.109583 -0.109014 -0.221509 -0.762750 -0.079538 -0.451218 -0.076517
john -0.042861 -0.627215 0.154704 -0.004188 0.270335 -0.072395 0.613923 0.075760 -0.066938 -0.225045
enemy -0.685671 -0.465204 0.057551 0.332621 0.066154 -0.296364 -0.073076 0.014214 0.175671 0.207451
sit -0.378339 0.570961 0.270000 -0.137600 -0.210994 0.340628 -0.194407 -0.128713 0.130581 0.409860
race -0.075169 0.112802 -0.014749 -0.658707 -0.343310 0.223815 -0.172456 -0.030124 -0.246063 -0.536601
boat 0.631640 0.092567 0.428393 -0.221504 -0.224125 0.129795 0.326933 -0.189300 -0.206335 -0.264882
glass 0.575696 -0.156685 -0.071398 -0.180726 -0.346268 -0.122647 0.250320 -0.112886 0.391367 0.019864
understood -0.310747 -0.222079 -0.620790 0.284625 -0.194987 -0.412191 0.389234 -0.149053 0.077741 -0.000345
study 0.592978 -0.070325 0.236503 -0.329912 0.253142 -0.222575 0.099951 -0.328733 0.210339 -0.137920
remain 0.011834 -0.533266 -0.137387 0.163249 0.492962 -0.022340 -0.006809 -0.550182 0.175131 -0.034633
follow -0.059562 -0.123473 -0.385395 -0.466875 -0.460638 0.252948 -0.168899 0.361489 0.048183 0.227562
grew 0.036317 -0.316824 -0.341195 0.042577 -0.014958 0.427257 -0.228615 0.375718 0.597939 0.060479
oer -0.231808 -0.153561 -0.024931 -0.313604 -0.024219 0.272110 0.268784 0.118984 0.781086 0.221843
public 0.004122 0.305164 0.572854 0.492196 -0.156161 -0.357505 -0.200655 -0.039722 0.153381 -0.189743
tomorrow 0.067662 -0.551782 -0.200797 0.137384 -0.235367 -0.085381 -0.537520 0.135021 -0.418026 0.292488
below 0.377734 0.133663 0.153737 0.426865 -0.377068 0.432454 -0.422653 -0.119534 -0.331449 0.040280
wont -0.036403 0.054589 0.408745 -0.221467 0.026666 0.305770 0.744792 -0.035253 -0.191708 -0.095782
agree -0.118159 0.245112 -0.071450 0.016263 -0.186036 0.329888 -0.532151 0.228848 -0.658753 0.036449
beginning 0.241534 -0.377673 0.255630 0.382777 -0.359151 -0.235328 -0.179106 -0.163085 -0.568354 0.077351
former 0.177288 0.014952 -0.356954 -0.137317 -0.489740 0.165789 0.050676 -0.033152 -0.739391 0.057746
six -0.490658 0.185842 -0.193439 0.036391 -0.056429 -0.422086 -0.015390 0.212208 0.362757 0.270336
single -0.391665 -0.084131 -0.001711 -0.668235 0.298636 -0.252278 0.167754 -0.076061 0.286414 0.145773
written 0.635315 -0.087904 0.416633 -0.083266 0.017478 0.117409 -0.198130 -0.151776 -0.070274 -0.498305
story 0.121838 0.208904 -0.488311 0.425612 0.181525 0.110637 -0.037367 0.328125 0.090472 -0.415299
object 0.582566 -0.229618 0.069182 0.130956 0.541892 -0.101821 -0.210976 0.061986 0.332734 0.165991
especially 0.085773 -0.052565 -0.301346 0.332992 0.017165 0.317069 -0.270417 -0.450001 0.382603 0.468972
makes 0.250035 -0.814184 0.133233 0.055691 -0.059507 0.407071 0.146527 -0.036690 0.217272 0.055613
achilles -0.027865 0.300825 0.285613 0.378313 0.137934 0.177785 0.069447 -0.360643 0.654441 -0.264353
stay 0.160345 -0.258300 -0.533980 0.431105 0.020989 -0.429883 -0.152160 0.433075 -0.029155 0.198406
visit -0.158425 -0.297863 -0.609799 -0.236475 0.366634 -0.092506 0.075235 0.027879 0.113864 -0.448755
died 0.126484 0.081507 -0.632373 0.372180 -0.338595 -0.037311 -0.468894 0.021202 -0.300624 0.107395
quickly 0.160655 -0.106766 0.089614 -0.150732 0.473371 0.729907 0.145499 -0.106929 -0.102473 -0.116636
garden -0.765664 0.025127 0.059621 0.024537 0.023253 -0.335570 -0.041095 -0.492946 -0.202008 0.101551
consider 0.139107 -0.029323 0.037292 0.006488 -0.165182 -0.361491 -0.039057 0.584110 -0.177310 0.668017
blue 0.115656 0.543715 0.050893 -0.008909 -0.531381 0.269181 -0.279092 0.198432 -0.425175 0.126888
cry 0.389232 -0.374752 -0.266001 0.365490 0.005912 -0.564075 -0.059471 -0.079812 -0.050987 -0.411220
mouth -0.206162 0.505331 0.425035 -0.243764 0.120374 0.273628 0.205582 0.439021 -0.184982 0.183843
expected 0.728645 -0.059472 -0.330361 -0.207036 0.072791 -0.039949 0.063166 -0.276864 -0.224766 0.052983
wonder 0.154237 -0.001476 0.479895 0.635123 0.456003 0.311520 -0.110927 0.016414 0.040286 0.095137
step -0.520052 0.497465 0.133366 0.346761 0.021634 0.379990 -0.327558 -0.116176 -0.208186 0.029079
easy 0.143107 0.008428 -0.390207 0.219683 0.039955 -0.231018 0.351017 0.723082 0.152587 -0.232798
service 0.296754 -0.387747 0.278005 -0.261452 0.335359 0.239053 -0.301812 -0.194206 0.348966 0.178928
questions 0.063222 0.358986 0.241882 0.532886 0.392558 -0.147490 -0.326208 -0.374725 0.072338 -0.222009
ahab -0.059120 0.204875 0.526047 0.182596 0.038648 -0.012673 0.374546 0.422064 0.194392 0.534497
figure 0.419152 -0.500369 0.105099 0.022913 0.013237 0.298265 0.037810 -0.432466 -0.164333 0.462971
particular -0.144058 0.045941 0.312568 -0.305735 0.786943 -0.003697 -0.088836 0.216019 -0.004707 -0.213288
dorian -0.043875 0.728633 -0.242587 0.914158 0.315136 0.337930 1.132700 0.162957 0.338173 -0.111139
walk 0.280443 -0.403838 -0.292347 -0.079668 0.520985 -0.449055 0.349946 0.211675 0.046148 0.100109
meeting -0.499867 -0.295475 -0.640411 -0.104276 -0.117598 0.076186 -0.455514 0.048447 -0.044273 0.080372
greatest -0.133619 0.032820 0.229570 -0.221277 -0.508273 -0.158110 -0.187890 -0.057997 -0.261126 -0.699599
crowd -0.358060 0.244723 0.204694 0.323493 0.614537 -0.380427 -0.156961 -0.205022 0.099554 0.054349
threw 0.045260 -0.111709 -0.216450 0.086768 0.020293 -0.231043 -0.172808 -0.709557 -0.170567 -0.561036
scarcely 0.236990 0.206717 -0.244208 0.060396 -0.246916 0.186511 0.464944 0.706291 0.053860 0.042783
talking 0.728693 -0.139079 -0.112599 -0.160062 0.033799 -0.085397 0.287227 -0.117479 -0.499253 0.078892
save 0.037098 0.036830 0.242318 0.005803 0.072647 0.053855 0.041896 -0.069060 0.870266 0.247381
company -0.052381 0.123986 -0.496175 0.206641 -0.142002 -0.215500 0.397625 0.211868 -0.557531 -0.328422
sónya -1.000622 0.709313 -0.772112 -0.390105 -0.849356 0.462189 -0.355313 -0.851305 -0.879194 1.047635
watch 0.160292 -0.307589 -0.415127 0.288277 -0.087053 -0.178601 -0.491434 -0.192632 0.163202 -0.528687
chance -0.110912 -0.117615 0.078674 -0.132880 0.039141 -0.605885 -0.417766 -0.066982 0.235320 0.377200
honor 0.080267 -0.166509 0.110274 -0.346390 0.456936 -0.062134 -0.021605 -0.092619 0.251811 0.203968
information -0.023643 -0.599166 -0.461747 -0.092598 0.184202 -0.221170 0.074160 0.466633 0.098271 -0.293618
broken -0.290590 0.178693 -0.288288 0.292499 0.463305 0.172663 -0.544779 0.101418 0.149343 0.306777
floor -0.246063 -0.522813 0.380081 0.244031 0.034341 0.428069 -0.317955 -0.343614 0.074019 -0.230206
act 0.635667 0.138752 0.108547 -0.345230 0.436920 -0.050528 -0.248811 0.360621 -0.069814 0.086882
officers -0.595842 -0.077683 0.399147 -0.233798 0.183748 -0.355792 0.130090 -0.199233 -0.436440 0.071988
reply 0.034549 -0.221662 0.615132 -0.272422 -0.051605 -0.145430 -0.209678 -0.228822 -0.005073 0.402963
village 0.090274 0.521489 0.264016 0.503737 0.271281 -0.202497 0.397927 -0.123398 -0.219397 0.118552
peace 0.421708 -0.303962 -0.509366 0.034671 0.279880 0.248365 -0.165726 0.373759 -0.229445 -0.330062
presence -0.395500 -0.314873 -0.096144 -0.113688 0.396321 0.240674 0.173182 0.654948 -0.182974 0.121828
caderousse 0.151455 -0.316310 -0.616173 0.229937 0.095259 0.144243 0.105279 0.467406 0.327338 0.238727
alice 0.046498 0.082064 -0.371625 0.362843 0.433114 -0.194424 -0.314202 0.392332 0.318007 -0.259104
duty -0.599609 0.066494 0.301950 -0.088530 -0.231373 0.332987 -0.307623 -0.452466 -0.062884 -0.174543
pay -0.073425 0.110951 -0.302384 0.277354 0.359072 0.152719 -0.247391 0.358448 0.645874 -0.131112
feelings -0.138447 -0.134731 -0.099217 0.763204 0.312813 -0.338507 0.038269 0.120843 -0.328380 0.006598
whales 0.018084 -0.791190 -0.823357 -0.352936 -0.064965 -0.322855 0.387499 -0.112433 -1.958439 1.471779
charge 0.785239 -0.178761 -0.160631 0.100205 -0.347099 -0.031248 -0.308028 -0.223740 0.006071 -0.000790
quiet 0.240290 0.219940 0.361955 -0.222063 0.051814 -0.158533 0.605653 -0.193772 -0.206020 -0.407483
marriage 0.293514 0.577852 0.065331 0.201896 -0.208601 0.155654 -0.467023 0.259407 0.136678 -0.223851
waiting 0.300906 0.274294 0.358794 0.132437 0.656068 -0.254587 -0.144351 0.014569 0.180450 0.195710
considered -0.337312 -0.184722 -0.266025 0.012060 0.421066 0.141494 -0.473691 0.067102 0.564400 -0.029116
drawing -0.184479 0.254195 -0.366385 0.444112 0.447820 0.369941 0.030554 -0.180934 0.274479 -0.033595
appearance -0.000295 -0.662076 0.105644 0.090412 -0.126910 -0.390060 0.233770 0.169555 -0.458420 0.112460
send 0.004926 -0.477127 -0.147457 0.210056 0.281110 0.099830 -0.247140 0.247510 -0.655580 0.255626
dreadful -0.125128 -0.360035 0.149527 0.277000 0.324830 0.395602 -0.030522 0.286459 0.543810 0.279365
probably 0.312647 -0.122287 -0.226310 0.364310 -0.287919 0.416221 0.278661 0.217096 -0.524507 -0.061367
bound -0.048453 0.165753 0.507178 -0.280241 -0.470197 0.361568 -0.118998 0.257991 -0.092283 0.391038
notice -0.227386 0.004302 -0.397246 0.377809 -0.063817 -0.159857 0.308072 -0.637836 -0.077434 0.198982
shore 0.128677 0.671797 0.006593 0.108651 0.142289 -0.249240 -0.216736 0.538002 -0.117895 0.154863
shook -0.365552 -0.219941 -0.284413 0.265606 -0.102499 0.115869 0.129937 0.686280 0.217855 0.187116
latter 0.663250 -0.436142 -0.040898 0.100952 0.228129 0.003723 -0.133064 0.375598 0.053472 0.192740
st -0.123259 0.409521 -0.568401 -0.045934 -0.413844 -0.251942 0.116298 0.125735 -0.469914 -0.083757
danger -0.038986 0.532969 -0.764875 -0.049338 0.097738 -0.174715 0.059525 -0.202369 0.013831 0.134717
donations -0.106129 -0.146599 -0.593905 -0.394223 -0.350295 0.218286 0.093222 0.060038 0.159088 -0.500874
play -0.074228 0.231025 0.243865 -0.002548 -0.397182 -0.002557 -0.559493 -0.506383 0.199341 -0.307467
showed 0.074452 -0.226198 -0.073386 -0.230334 0.242063 -0.063236 0.829413 0.316141 0.105752 -0.105045
observed -0.285053 -0.326459 0.188103 0.261156 0.120359 0.522474 -0.418947 0.312045 0.317032 0.166968
meaning 0.494970 -0.007295 0.090585 0.125323 -0.189862 -0.444153 -0.079188 0.540185 -0.074896 0.391569
dress 0.033054 0.216163 -0.124156 -0.150907 0.358903 -0.421235 0.308487 -0.389711 0.044422 0.479227
lie 0.631763 0.106146 0.221290 -0.244867 0.213335 -0.293585 0.299006 0.309840 -0.365556 -0.106738
pretty -0.544177 0.048163 0.137978 0.123435 0.345293 -0.249363 -0.324241 0.376749 -0.027209 -0.471846
troops -0.245298 0.004393 -0.344846 -0.104428 -0.264198 0.157362 -0.603618 -0.176404 0.477635 -0.289865
news -0.255001 0.135823 -0.117083 -0.277003 -0.647966 -0.101511 -0.282948 0.053268 -0.526006 0.189613
passing 0.132483 0.212071 -0.167901 0.371518 -0.341581 0.255670 0.095318 0.275045 -0.559124 -0.343914
mademoiselle 0.482574 0.460240 0.257065 -0.066720 0.402867 0.045435 -0.114783 -0.100192 -0.364523 -0.064826
giving -0.300952 0.400365 -0.228277 0.459142 -0.227647 -0.231413 0.509482 -0.203013 0.160211 0.056042
pocket -0.006787 -0.137727 -0.140183 0.506004 0.127434 -0.015112 0.094923 -0.451852 0.502858 0.167616
sad 0.149776 -0.009200 -0.625331 0.146577 -0.067422 -0.397013 -0.571975 -0.167501 -0.038451 -0.213621
pip -0.366518 -0.083913 -0.288528 -0.427651 0.168196 0.612602 -0.037204 -0.023016 -0.430310 0.042863
im 0.218537 -0.327087 0.155170 0.358159 0.129629 -0.280307 -0.324302 0.556287 -0.147538 0.328979
rising 0.549365 -0.452652 0.224870 0.082457 0.047775 0.107868 -0.219576 -0.184642 0.374269 0.386953
seven -0.061598 0.357112 0.467839 0.345331 -0.378622 0.108980 0.413727 0.278460 -0.241953 -0.116030
pain 0.397879 -0.141052 -0.165803 0.013686 0.298051 -0.403312 0.087988 0.031343 -0.680575 0.265505
trouble 0.495713 0.454074 0.047839 0.178333 -0.217334 0.299567 -0.248796 0.027500 0.283113 -0.284359
forget 0.055500 -0.272425 0.307464 -0.113708 0.176288 0.019359 0.104674 0.095881 -0.788221 0.336629
jove -0.000490 -0.471221 -0.287447 -0.070603 0.098056 0.429387 0.628005 0.158461 0.074054 -0.267146
gentlemen -0.703858 -0.273933 -0.306148 -0.214997 -0.022423 0.221438 0.251149 -0.167857 -0.376458 0.003234
scene 0.156991 0.490337 -0.036162 -0.285050 0.262219 -0.322460 -0.047458 0.561603 0.059434 0.137728
listen -0.157369 -0.323838 -0.121754 -0.575409 0.404456 -0.222660 -0.029904 -0.059908 -0.315781 0.291723
smiled 0.140857 0.240403 -0.272659 0.556118 -0.040903 -0.236749 -0.119694 0.126026 -0.270259 0.609963
easily -0.150428 0.421596 0.294757 -0.298920 -0.000083 0.457049 -0.403323 0.328792 0.029157 0.212380
rise 0.285745 0.024738 -0.574023 -0.044470 -0.040413 0.054944 0.300169 0.326817 -0.528140 -0.082840
assembly 0.355220 0.343649 0.241356 0.009359 -0.481518 0.187685 -0.173027 0.168028 -0.588245 -0.161635
leaving 0.115024 0.109784 0.464949 0.236917 0.180850 0.157218 0.054938 -0.252700 0.519885 -0.507391
golden -0.308164 0.171851 -0.397016 0.003678 -0.113535 0.437347 0.564875 0.009916 -0.138956 -0.376442
thank 0.431818 -0.046216 0.045813 -0.041829 -0.521091 0.282971 -0.298327 0.390625 -0.002174 0.462611
important -0.072701 -0.108737 0.286515 0.548090 0.336836 -0.013198 -0.094786 -0.159963 -0.593430 -0.193237
fresh 0.111786 0.274811 0.016951 0.304377 -0.260093 0.326146 0.071204 -0.711489 -0.301706 0.153973
noble 0.482622 -0.021398 -0.097668 -0.238125 -0.129338 0.191765 -0.377937 -0.347228 -0.545483 0.280038
church 0.450482 -0.213587 -0.238013 -0.491850 -0.342580 0.336246 -0.142836 0.064598 -0.366443 -0.251030
various -0.353101 -0.070082 0.212242 -0.488708 0.307699 0.193464 0.389050 0.439248 0.197743 -0.266414
literary 0.415706 0.448155 0.020794 0.224615 -0.494284 -0.105272 -0.354086 -0.362494 0.132193 0.214162
command 0.038981 0.231529 0.059156 -0.061924 0.286578 -0.748482 -0.280619 -0.408212 -0.195739 -0.061489
hector 0.199185 -0.152314 -0.197573 -0.512667 0.117088 0.422882 0.040583 -0.081938 -0.619412 0.225149
getting -0.313696 0.370063 -0.200140 -0.499004 0.245923 -0.343876 -0.479999 0.056385 0.211932 -0.071933
hall 0.640612 -0.310660 0.182939 0.010050 0.026393 0.137418 -0.124376 0.469282 0.139867 -0.429684
allow 0.225404 -0.240141 0.024791 -0.062497 0.342496 -0.479095 -0.351113 -0.464696 0.165390 -0.145838
darcy -0.583102 0.038484 0.364422 -0.010240 -1.875609 -1.109065 -0.114329 -0.223429 1.884678 0.296321
eat -0.220187 -0.422545 -0.162710 -0.262525 -0.022931 -0.195789 -0.036420 0.259690 -0.306066 -0.634984
circumstances 0.110539 0.122802 0.422877 0.524683 0.007475 -0.457605 0.433798 -0.053920 0.006163 0.104860
seized -0.246678 0.439384 -0.389803 -0.116461 -0.174346 0.118965 0.495245 -0.369661 -0.037713 -0.034224
sky -0.153290 -0.446348 0.080653 0.153015 0.137150 0.218897 0.433605 0.689489 -0.099841 -0.084676
promise -0.660783 0.292892 0.275104 0.333321 0.010739 0.088780 0.216759 -0.237608 0.259137 -0.062781
wrong -0.004773 -0.790289 0.278264 0.394644 -0.132486 0.277240 -0.006747 -0.015760 -0.135517 0.105970
copy 0.076277 -0.206970 -0.208966 0.041796 -0.255689 0.235886 -0.212918 -0.507083 -0.653120 -0.236155
pity -0.240496 0.239517 0.388470 0.163630 -0.151575 -0.289512 0.058773 -0.361855 -0.350862 -0.415636
twenty 0.510813 0.113774 0.500230 0.013365 0.038885 0.226478 -0.282596 0.076784 -0.360773 -0.295153
fast -0.369539 -0.066358 -0.271025 -0.112898 0.613439 0.274413 -0.246704 0.217578 -0.339939 -0.289917
filled -0.214059 0.515546 -0.398163 -0.089045 -0.287829 -0.195471 0.210221 0.233605 -0.541493 0.057766
slowly -0.400351 0.581997 0.367787 0.073070 -0.020517 -0.203144 -0.104081 -0.304952 0.096956 -0.417070
noticed 0.024453 0.387388 0.457185 0.620979 0.214956 0.303191 0.141484 -0.196230 -0.024774 0.103424
changed -0.035410 0.497177 -0.234411 -0.092278 0.372278 -0.538091 0.122522 -0.300569 0.205748 -0.288734
write -0.058711 0.018066 -0.555490 -0.143131 0.316729 0.241496 -0.269653 0.432169 0.494535 0.057102
calm 0.084661 -0.032330 0.407499 0.126474 0.193591 0.204906 0.235648 0.238914 0.367642 -0.624789
denísov -0.143629 0.833986 -1.967120 1.692571 0.694543 -0.484327 -0.832580 -0.864052 0.088968 0.550324
receive -0.386556 0.072265 0.420598 -0.319455 0.454741 0.290402 0.232016 0.245211 -0.218433 -0.175954
later -0.064919 0.445676 0.226641 -0.433857 0.397824 0.065459 -0.410899 0.402206 -0.001795 -0.231632
sake -0.345615 0.380979 -0.434833 -0.247300 0.455187 -0.064121 0.356437 0.227610 -0.029316 0.206845
hester 0.114518 -1.750993 0.713772 0.280344 1.248710 -0.594760 1.028948 -2.218294 -1.438040 -0.760545
court -0.164161 -0.142319 -0.200834 -0.828650 -0.084717 0.211712 -0.178443 0.147953 -0.055531 -0.249664
straight -0.033476 0.379235 -0.188990 0.228033 0.100709 -0.003282 -0.036539 -0.341459 0.674560 -0.365150
passage -0.036328 0.137204 0.574247 0.405571 0.243795 -0.490318 0.239604 0.319799 0.156499 0.035631
wide 0.051704 0.078852 -0.395645 0.400249 0.235100 -0.439298 0.434556 -0.056234 -0.425786 0.204383
stone -0.364204 -0.140790 -0.008652 0.317607 -0.075546 0.240116 0.000005 0.529255 0.367933 -0.515748
iron -0.304112 -0.601889 -0.098679 0.310017 -0.049854 0.247801 0.517110 -0.219397 -0.131530 0.102307
morcerf 0.109613 0.226534 -0.207163 -0.535079 0.153638 -0.167266 0.094393 0.669369 0.254325 0.124231
months -0.310996 0.383047 0.060332 0.350316 -0.451055 -0.011899 -0.081738 0.007541 0.207337 0.564943
mere 0.128570 -0.373405 -0.214776 -0.182708 -0.212399 -0.611675 0.270442 -0.005069 -0.146109 0.403669
london -0.251840 -0.424542 -0.289778 0.284944 0.300324 -0.150718 0.213701 0.328553 -0.479186 -0.296363
trying -0.038690 -0.193421 -0.264544 -0.127247 0.235724 0.346066 0.475536 0.483164 0.292602 0.391149
lives -0.208662 0.116604 -0.471484 -0.117859 0.365077 -0.472311 -0.419526 0.045110 -0.414418 0.010034
killed 0.018519 -0.388912 -0.053426 0.064841 -0.069331 0.415029 0.266407 0.364641 -0.602294 -0.233246
reading 0.350679 0.288996 -0.015718 0.407446 -0.441437 -0.058998 0.082414 0.098532 -0.543043 -0.333131
darkness -0.077603 -0.002721 0.367356 0.495993 0.388536 -0.303159 -0.295493 0.249398 -0.456960 -0.097106
faces -0.376412 0.224544 0.221339 0.020122 0.434700 0.408660 0.494408 0.360377 -0.099529 0.078633
holding -0.169261 0.003441 0.350895 0.103382 0.316209 0.114077 -0.597745 -0.565370 0.074616 -0.124175
green -0.161237 -0.326082 0.050049 0.490007 -0.535389 0.248883 -0.310409 0.362825 0.125313 -0.136724
wounded 0.181222 -0.051111 -0.272883 0.365184 -0.487998 -0.192138 0.260304 0.286295 -0.421246 0.392343
unless -0.362752 0.651032 -0.199208 -0.228186 -0.193116 0.259543 -0.131444 -0.071950 0.258269 0.069206
wine -0.413739 0.657838 -0.569367 -0.021089 -0.134990 -0.055381 -0.032996 -0.172904 -0.071080 0.021854
contrary 0.379125 0.229675 0.447928 -0.215851 0.295325 0.079963 -0.258997 0.079165 -0.448857 0.175474
smiling 0.597748 -0.342203 -0.388725 -0.126367 0.094737 -0.212291 -0.332055 0.022051 -0.396752 -0.171160
surprise 0.566625 -0.316311 0.200721 -0.263689 0.004555 0.014330 -0.231244 -0.061612 -0.583058 -0.254137
monsieur -0.066996 -0.230630 -0.261547 0.347201 0.618801 0.116763 0.076147 0.064580 -0.068096 0.584551
caught 0.286978 0.038601 0.222997 -0.069928 -0.423197 -0.297279 0.390606 -0.307238 0.403897 -0.393498
seat -0.101734 0.130793 -0.135752 -0.055091 0.115384 0.106740 0.293477 -0.692200 -0.441368 0.210342
ebook -0.325085 0.173654 -0.124889 -0.324579 -0.524161 0.236719 0.085605 -0.190322 -0.532539 0.230513
english 0.580485 0.029152 0.396087 0.280587 -0.041231 -0.026385 -0.252087 -0.529473 0.097549 -0.222943
move -0.150064 0.121734 -0.205837 -0.041863 0.226881 -0.161361 0.014171 0.315751 -0.666496 0.544896
learn 0.115126 -0.136288 -0.245534 -0.064172 0.149064 0.262846 0.233359 -0.182946 0.364756 -0.666045
brave -0.127973 0.337007 -0.245668 0.550237 -0.363792 -0.383657 0.025903 0.410241 -0.017955 0.229865
lying 0.413113 -0.283712 -0.132712 0.233676 0.219279 -0.078211 -0.095917 0.438622 0.416020 -0.478931
music -0.059038 -0.340024 0.061442 0.323466 -0.479920 -0.386249 -0.435521 0.075668 0.015358 0.402937
seek -0.358836 -0.010534 0.531532 0.125049 -0.196041 0.228088 -0.014092 -0.288128 0.077695 -0.523368
higher 0.083245 0.025616 -0.226443 0.523237 0.480730 -0.528052 -0.093090 0.235831 0.131993 0.238307
everyone -0.251905 -0.000548 -0.181723 0.025838 0.161296 0.442043 -0.063759 -0.070990 -0.612490 -0.447642
drink 0.503809 0.062877 0.235213 -0.307444 0.566840 0.016876 -0.134958 -0.146759 -0.203498 0.334376
according 0.352992 0.143656 -0.415575 0.236341 -0.119791 0.018716 -0.275183 0.441198 -0.060115 -0.472872
running 0.282997 -0.422137 -0.204282 0.109989 0.536126 -0.403754 -0.442550 -0.002177 -0.138688 0.141894
sought -0.389488 0.069798 -0.410556 -0.435455 0.095372 -0.326510 -0.548653 -0.095907 -0.100393 -0.220722
asleep -0.571391 -0.047810 0.086875 -0.044895 -0.416891 -0.502811 0.092752 -0.313899 0.262544 0.082161
servant 0.282711 -0.029430 0.073544 -0.616075 0.224291 -0.256330 -0.244276 -0.234344 -0.238388 0.242686
persons -0.428127 -0.125502 -0.163966 0.512034 0.127326 -0.080486 0.183527 0.009668 0.578678 0.034784
van -0.445855 -0.391384 0.537118 -0.241282 -0.078239 0.449554 -0.225717 -0.169224 -0.100308 0.058758
trademark 0.010265 0.114882 -0.169911 0.053174 0.262141 0.336762 0.096031 -0.545565 -0.615615 0.047305
ladies -0.178705 -0.115404 0.382648 0.412153 -0.381417 0.148330 0.454168 0.172005 0.442179 0.089986
property 0.256548 0.316924 0.056956 0.726275 -0.177177 -0.023481 0.355506 0.076574 -0.297248 -0.002398
archive -0.301422 -0.262749 0.275049 -0.366378 -0.078930 0.097473 0.139472 -0.530214 0.438384 -0.348730
party 0.293954 0.313747 0.454564 -0.012006 -0.350902 0.427067 0.291704 -0.110372 0.087509 -0.385503
worth 0.515581 -0.052560 -0.134049 -0.110447 -0.266422 -0.293457 0.507435 -0.226947 -0.350006 0.318683
trees -0.238810 -0.018963 0.270617 0.072703 0.039015 -0.339702 0.268731 0.611178 -0.248579 -0.454365
listened 0.126785 -0.500354 -0.531016 -0.398667 0.182487 -0.072539 -0.042705 0.079535 0.199084 -0.453941
plato 0.291213 0.324347 -0.066407 0.344868 -0.346846 -0.237740 0.631213 0.115643 -0.301099 -0.084554
outside 0.453377 -0.029107 -0.147666 -0.299800 -0.306729 -0.082884 0.071355 -0.349420 -0.638584 -0.162581
effort 0.199414 0.287445 -0.263219 0.230104 -0.372421 -0.484486 -0.476670 0.071360 -0.356443 -0.150159
stop -0.406194 -0.106142 -0.356610 0.144701 -0.090015 0.334865 0.541894 -0.040065 0.387646 -0.267394
influence -0.088442 -0.719883 0.181089 -0.260943 0.002726 0.079188 0.136258 0.501081 0.207498 -0.232384
entirely -0.338655 -0.199947 -0.493529 -0.214764 0.290177 0.511063 -0.298601 -0.303791 -0.042232 0.163125
fancy -0.038293 -0.836088 -0.053153 -0.145522 0.076305 -0.239049 0.357490 0.252757 -0.138007 -0.040217
pray -0.055557 -0.266952 0.113464 0.021486 -0.088801 0.172711 -0.750800 0.351202 0.398689 -0.118821
lorry 2.155253 -0.425611 2.956519 0.615427 -1.040298 0.491578 -0.619375 -1.055311 -0.382192 -0.909046
gray -0.292659 -0.175285 0.096203 0.638047 -0.012822 0.004705 -0.226325 -0.026230 -0.600358 0.144743
courage -0.633190 -0.424136 0.029168 -0.381854 -0.095416 -0.106577 0.015685 0.336669 0.118760 0.208662
sweet 0.211583 0.052826 0.001537 0.833820 -0.115974 0.135385 -0.155828 -0.043596 0.308494 0.211699
angry -0.005888 -0.099444 0.025275 -0.609960 -0.243584 -0.384133 -0.414836 -0.160094 -0.048673 -0.425126
kings 0.243121 0.058230 0.504837 -0.251766 -0.400354 -0.005908 0.529584 -0.002525 -0.003207 0.251518
opposite 0.540061 -0.502763 0.399028 -0.120411 0.021574 -0.031349 -0.390741 -0.124191 -0.190126 0.241030
spoken 0.122629 -0.064595 0.008774 -0.504924 -0.088550 0.188720 0.160519 -0.115669 -0.750521 -0.044454
covered -0.242261 -0.023066 -0.533269 0.096221 -0.399774 -0.166871 0.179818 0.566911 -0.323012 -0.037657
train 0.409385 -0.468798 0.344954 -0.150804 -0.218490 -0.002394 -0.600129 0.060775 0.212472 0.023827
ships 0.491792 -0.164859 0.175192 -0.119117 -0.394914 -0.168146 -0.084174 0.678481 0.121815 0.115080
coat -0.165438 -0.541773 -0.041086 -0.400589 -0.531310 0.198688 -0.337214 -0.061268 -0.015763 -0.276934
worse -0.066853 -0.170234 0.548065 0.680062 0.068717 0.011111 0.078124 0.202652 0.069437 0.377738
simple 0.510579 -0.132445 0.147774 0.059672 -0.487972 0.214278 -0.100019 0.520128 -0.357327 -0.063889
spot 0.362524 -0.391585 0.088586 0.060226 0.272676 -0.024920 0.454454 0.022477 -0.587479 0.276709
started -0.749721 0.350452 -0.022093 0.146847 -0.205681 -0.313734 0.114356 -0.077673 0.097651 0.291913
perfectly -0.643000 0.268346 -0.198730 -0.253374 0.460151 -0.026458 0.019779 0.004688 0.155890 -0.342253
didnt -0.302557 0.078258 -0.353897 0.187887 0.083453 0.372870 0.110044 0.086541 0.350142 0.673505
shoulder -0.206418 -0.377972 0.083048 0.120564 -0.137539 -0.085377 0.274854 0.575783 -0.026665 -0.599072
stranger -0.069320 0.119738 0.169597 0.310891 0.170009 -0.010473 0.341992 0.553330 -0.473611 -0.423071
begin -0.298826 -0.734972 -0.162995 0.140569 -0.160731 -0.364131 0.013472 -0.291530 0.051270 -0.235392
marry -0.361465 -0.203866 0.524245 0.178540 -0.241733 0.281657 -0.581490 -0.060733 0.005640 0.201886
allowed 0.574541 0.246325 0.018255 0.133214 0.236734 0.184220 0.272393 -0.208133 0.415767 -0.125815
excellency -0.106507 0.232397 -0.145318 0.388416 0.213758 0.143057 -0.447469 0.112658 -0.406379 0.564150
formed -0.204483 0.428539 -0.345348 -0.021989 -0.086749 -0.015976 -0.613442 -0.375675 -0.212869 0.011843
sons -0.032592 0.520986 0.340676 0.224427 -0.289884 -0.128767 0.255150 0.039051 -0.598860 0.163860
pleased 0.379320 -0.252561 0.324423 0.084256 0.498089 -0.111772 0.466257 -0.155270 -0.197351 -0.047231
individual 0.052033 -0.215951 0.098385 0.169441 0.110187 -0.614374 0.245350 -0.161038 -0.398001 -0.514500
escape 0.359542 -0.275183 -0.229735 0.032738 0.219262 -0.367726 -0.041470 -0.520415 0.255796 0.339349
movement 0.553590 -0.032682 -0.219767 0.600737 0.172026 -0.407391 0.007309 -0.054851 -0.046098 0.163309
touched 0.070873 -0.165911 -0.383045 0.435068 -0.007008 -0.579048 0.368362 0.167725 0.313484 0.069065
experience -0.205462 0.607956 -0.252770 0.340850 0.045253 -0.006942 -0.549022 0.294367 -0.133192 0.007702
paragraph -0.059439 0.037733 0.228307 -0.167035 0.331051 -0.531836 0.086339 0.437638 0.506663 -0.174114
carry -0.032436 0.400577 0.550292 0.283106 0.131900 0.502422 -0.106514 0.189897 -0.271379 0.074484
troy -0.230745 0.847374 1.208305 -0.928541 -0.239447 -0.871696 -1.924310 -0.766917 -0.375868 0.310059
walls -0.462445 -0.446412 -0.462738 -0.342847 -0.100034 -0.104540 0.350960 0.119982 0.186498 -0.216155
government -0.401003 -0.559320 0.232693 0.062596 -0.216237 0.147861 0.494779 -0.230378 -0.160296 -0.274197
likely -0.161952 -0.066738 -0.006328 -0.190348 -0.271054 -0.112465 -0.530701 0.397831 0.636177 -0.047746
shoulders 0.085067 -0.403205 0.202780 -0.439410 0.198023 -0.411748 0.234760 0.311494 0.235186 -0.400257
knowing 0.079631 0.089351 -0.064751 -0.620239 0.118611 -0.087226 -0.201624 0.075156 -0.712741 -0.068834
soldier -0.381222 0.656134 -0.164391 -0.030074 -0.051870 0.015848 -0.322999 -0.258993 -0.367197 0.199024
looks -0.271056 -0.616622 -0.207050 0.240610 -0.246414 -0.268819 0.172236 0.107491 -0.079141 -0.486701
abbé -0.060264 -0.236599 0.082574 0.305570 -0.109032 -0.595395 -0.303021 -0.095266 0.124521 -0.051461
francs -0.104896 0.261953 -0.170587 0.185467 -0.654575 -0.349933 -0.202079 0.114600 0.064406 -0.486133
affairs 0.008820 0.170561 0.132350 -0.242108 -0.021370 0.283317 -0.323972 0.829438 -0.108830 -0.095772
middle 0.234338 0.044364 0.292558 0.111553 -0.254266 0.107100 -0.378146 0.000104 -0.791110 0.010588
